{"learner":{"attributes":{"best_iteration":"64","best_score":"1319.5656195746528","scikit_learn":"{\"_estimator_type\": \"regressor\"}"},"feature_names":[],"feature_types":[],"gradient_booster":{"model":{"cats":{"enc":[],"feature_segments":[],"sorted_idx":[]},"gbtree_model_param":{"num_parallel_tree":"1","num_trees":"85"},"iteration_indptr":[0,1,2,3,4,5,6,7,8,9,10,11,12,13,14,15,16,17,18,19,20,21,22,23,24,25,26,27,28,29,30,31,32,33,34,35,36,37,38,39,40,41,42,43,44,45,46,47,48,49,50,51,52,53,54,55,56,57,58,59,60,61,62,63,64,65,66,67,68,69,70,71,72,73,74,75,76,77,78,79,80,81,82,83,84,85],"tree_info":[0,0,0,0,0,0,0,0,0,0,0,0,0,0,0,0,0,0,0,0,0,0,0,0,0,0,0,0,0,0,0,0,0,0,0,0,0,0,0,0,0,0,0,0,0,0,0,0,0,0,0,0,0,0,0,0,0,0,0,0,0,0,0,0,0,0,0,0,0,0,0,0,0,0,0,0,0,0,0,0,0,0,0,0,0],"trees":[{"base_weights":[-1.764055E2,-6.1509004E3,8.246466E3,-5.836475E2,-4.822236E3,4.533812E3,1.3931246E4,-6.23106E3,-2.121783E3,2.926003E3,7.342589E3,1.1293177E4,1.1028119E3,-6.4400127E3,-1.5809088E2,-3.1274104E3,-5.513279E2,1.1648873E3,3.736025E3,2.8610733E1,3.8121594E2,5.7223486E2,1.6111073E2,-3.2502106E2,-5.2262783E1,-1.13313614E2,-2.2510925E2,-5.1837826E1,1.7979113E1,1.1405054E2,8.3674135E0,2.1926306E2,9.030074E1],"categories":[],"categories_nodes":[],"categories_segments":[],"categories_sizes":[],"default_left":[0,0,0,0,0,0,0,0,0,0,0,0,0,0,0,0,0,0,0,0,0,0,0,0,0,0,0,0,0,0,0,0,0],"id":0,"left_children":[1,3,5,-1,7,9,11,13,15,17,19,21,-1,23,-1,25,27,29,31,-1,-1,-1,-1,-1,-1,-1,-1,-1,-1,-1,-1,-1,-1],"loss_changes":[1.2731967E10,1.0295772E9,2.1529272E9,0E0,4.4711834E8,2.7205312E8,6.297175E8,3.0301696E7,6.618499E7,5.6988736E7,3.950707E7,3.47776E6,0E0,1.699456E7,0E0,2.05768E7,8.33214E6,1.6318682E7,2.8417472E7,0E0,0E0,0E0,0E0,0E0,0E0,0E0,0E0,0E0,0E0,0E0,0E0,0E0,0E0],"parents":[2147483647,0,0,1,1,2,2,4,4,5,5,6,6,7,7,8,8,9,9,10,10,11,11,13,13,15,15,16,16,17,17,18,18],"right_children":[2,4,6,-1,8,10,12,14,16,18,20,22,-1,24,-1,26,28,30,32,-1,-1,-1,-1,-1,-1,-1,-1,-1,-1,-1,-1,-1,-1],"split_conditions":[2.210092E4,1.036131E4,2.656621E4,-5.836475E2,1.504496E4,2.776409E4,4.119E4,1.688615E4,1.998372E4,3.0895E4,2.7835E4,4.976E4,1.1028119E3,7.9728E4,-1.5809088E2,4.0533E4,4.5363E2,1.9079E4,4.3887E4,2.8610733E1,3.8121594E2,5.7223486E2,1.6111073E2,-3.2502106E2,-5.2262783E1,-1.13313614E2,-2.2510925E2,-5.1837826E1,1.7979113E1,1.1405054E2,8.3674135E0,2.1926306E2,9.030074E1],"split_indices":[5,3,3,0,3,5,5,5,5,2,2,1,0,1,0,1,6,1,1,0,0,0,0,0,0,0,0,0,0,0,0,0,0],"split_type":[0,0,0,0,0,0,0,0,0,0,0,0,0,0,0,0,0,0,0,0,0,0,0,0,0,0,0,0,0,0,0,0,0],"sum_hessian":[2.51E2,1.47E2,1.04E2,2.7E1,1.2E2,6.4E1,4E1,7.8E1,4.2E1,4.2E1,2.2E1,3.2E1,8E0,7.2E1,6E0,2.5E1,1.7E1,1.4E1,2.8E1,1E0,2.1E1,3.1E1,1E0,7.1E1,1E0,1.7E1,8E0,1.1E1,6E0,6E0,8E0,2E1,8E0],"tree_param":{"num_deleted":"0","num_feature":"153","num_nodes":"33","size_leaf_vector":"1"}},{"base_weights":[1.04840385E2,-5.42908E3,8.0094434E3,-9.127524E3,-3.5991492E3,4.4980327E3,1.29678E4,-6.0321783E2,-7.338016E3,-4.8341357E3,-1.7197814E3,3.1868186E3,6.9687026E3,5.2237195E2,9.674992E2,-3.7518155E2,-5.0956192E1,-5.483001E3,-2.8321855E3,-1.290955E3,-1.8397386E2,3.7766077E3,1.127732E3,3.7115665E2,1.7677102E3,-7.934664E1,-2.813653E2,-1.5171806E2,1.0063027E1,-8.1050545E1,3.3427346E0,1.4795497E2,2.571303E2,-5.916841E0,8.049062E1,2.789545E1,1.0468031E2],"categories":[],"categories_nodes":[],"categories_segments":[],"categories_sizes":[],"default_left":[0,0,0,0,0,0,0,0,0,0,0,0,0,0,0,0,0,0,0,0,0,0,0,0,0,0,0,0,0,0,0,0,0,0,0,0,0],"id":1,"left_children":[1,3,5,7,9,11,13,-1,15,17,19,21,23,-1,-1,-1,-1,25,27,29,-1,31,33,-1,35,-1,-1,-1,-1,-1,-1,-1,-1,-1,-1,-1,-1],"loss_changes":[1.1154319E10,9.823324E8,1.7698053E9,1.6898816E8,2.28427E8,1.8188429E8,4.8951142E8,0E0,2.6886656E7,6.3709184E7,3.0544968E7,4.7960864E7,3.6510464E7,0E0,0E0,0E0,0E0,1.6369024E7,1.103688E7,1.6242044E7,0E0,2.163328E7,6.798409E6,0E0,1.4502E4,0E0,0E0,0E0,0E0,0E0,0E0,0E0,0E0,0E0,0E0,0E0,0E0],"parents":[2147483647,0,0,1,1,2,2,3,3,4,4,5,5,6,6,8,8,9,9,10,10,11,11,12,12,17,17,18,18,19,19,21,21,22,22,24,24],"right_children":[2,4,6,8,10,12,14,-1,16,18,20,22,24,-1,-1,-1,-1,26,28,30,-1,32,34,-1,36,-1,-1,-1,-1,-1,-1,-1,-1,-1,-1,-1,-1],"split_conditions":[2.1999E4,1.204959E4,2.591128E4,9.42753E3,1.547205E4,2.776409E4,4.018291E4,-6.0321783E2,1.21652E5,1.694228E4,5.3889E4,4.3887E4,2.579722E4,5.2237195E2,9.674992E2,-3.7518155E2,-5.0956192E1,1.473E4,2.052813E4,2.107231E4,-1.8397386E2,2.304596E4,5.8036E4,3.7115665E2,2.3737E4,-7.934664E1,-2.813653E2,-1.5171806E2,1.0063027E1,-8.1050545E1,3.3427346E0,1.4795497E2,2.571303E2,-5.916841E0,8.049062E1,2.789545E1,1.0468031E2],"split_indices":[4,3,3,3,3,4,4,0,1,4,1,1,3,0,0,0,0,1,4,4,0,3,1,0,1,0,0,0,0,0,0,0,0,0,0,0,0],"split_type":[0,0,0,0,0,0,0,0,0,0,0,0,0,0,0,0,0,0,0,0,0,0,0,0,0,0,0,0,0,0,0,0,0,0,0,0,0],"sum_hessian":[2.53E2,1.49E2,1.04E2,4.8E1,1.01E2,6.2E1,4.2E1,1.6E1,3.2E1,6E1,4.1E1,4.2E1,2E1,3.2E1,1E1,3.1E1,1E0,4.4E1,1.6E1,3.5E1,6E0,3.2E1,1E1,1.8E1,2E0,2E0,4.2E1,1.5E1,1E0,2.8E1,7E0,2.2E1,1E1,3E0,7E0,1E0,1E0],"tree_param":{"num_deleted":"0","num_feature":"153","num_nodes":"37","size_leaf_vector":"1"}},{"base_weights":[-2.660943E2,-5.1684272E3,6.8798384E3,-7.7087896E3,-3.0996694E3,3.9432659E3,1.102226E4,-5.599135E2,-6.41975E3,-4.2924097E3,-1.2390337E3,2.8035225E3,6.435113E3,8.989226E3,7.7625775E2,-4.9682266E1,-6.506659E3,-4.5295146E3,-1.7196672E3,-1.6409937E3,3.2269305E2,1.1524706E3,3.5906294E3,2.7198088E1,3.3660867E2,1.01021034E2,4.5744238E2,-3.3198105E2,-1.0830114E2,-2.2993248E2,-3.3730267E1,-3.0368515E1,-1.0619741E2,-9.399984E1,-8.277985E0,-4.475844E1,3.1228443E1,7.6461586E1,-4.9493584E1,4.9267853E1,2.0361327E2],"categories":[],"categories_nodes":[],"categories_segments":[],"categories_sizes":[],"default_left":[0,0,0,0,0,0,0,0,0,0,0,0,0,0,0,0,0,0,0,0,0,0,0,0,0,0,0,0,0,0,0,0,0,0,0,0,0,0,0,0,0],"id":2,"left_children":[1,3,5,7,9,11,13,-1,15,17,19,21,23,25,-1,-1,27,29,31,33,35,37,39,-1,-1,-1,-1,-1,-1,-1,-1,-1,-1,-1,-1,-1,-1,-1,-1,-1,-1],"loss_changes":[9.038715E9,7.801792E8,1.2338094E9,2.3397734E8,1.855369E8,1.6088224E8,2.540841E8,0E0,1.8056064E7,2.3930752E7,2.2500976E7,5.4341376E7,2.9587776E7,1.7110272E7,0E0,0E0,1.505152E7,9.423104E6,1.407784E6,9.56228E6,3.5002115E6,1.4428218E7,3.3630656E7,0E0,0E0,0E0,0E0,0E0,0E0,0E0,0E0,0E0,0E0,0E0,0E0,0E0,0E0,0E0,0E0,0E0,0E0],"parents":[2147483647,0,0,1,1,2,2,3,3,4,4,5,5,6,6,8,8,9,9,10,10,11,11,12,12,13,13,16,16,17,17,18,18,19,19,20,20,21,21,22,22],"right_children":[2,4,6,8,10,12,14,-1,16,18,20,22,24,26,-1,-1,28,30,32,34,36,38,40,-1,-1,-1,-1,-1,-1,-1,-1,-1,-1,-1,-1,-1,-1,-1,-1,-1,-1],"split_conditions":[2.1999E4,1.524777E4,2.998043E4,1.052625E4,1.936004E4,2.776409E4,3.789E4,-5.599135E2,-3.3852E3,1E0,1E0,3.0895E4,2.7835E4,-2.32593E3,7.7625775E2,-4.9682266E1,1E0,1E0,1E1,2.150164E4,1.965179E4,2.9995E4,-7.7825E2,2.7198088E1,3.3660867E2,1.01021034E2,4.5744238E2,-3.3198105E2,-1.0830114E2,-2.2993248E2,-3.3730267E1,-3.0368515E1,-1.0619741E2,-9.399984E1,-8.277985E0,-4.475844E1,3.1228443E1,7.6461586E1,-4.9493584E1,4.9267853E1,2.0361327E2],"split_indices":[4,4,4,4,4,4,4,0,6,33,124,2,2,6,0,0,120,66,10,4,4,2,6,0,0,0,0,0,0,0,0,0,0,0,0,0,0,0,0,0,0],"split_type":[0,0,0,0,0,0,0,0,0,0,0,0,0,0,0,0,0,0,0,0,0,0,0,0,0,0,0,0,0,0,0,0,0,0,0,0,0,0,0,0,0],"sum_hessian":[2.56E2,1.52E2,1.04E2,6.7E1,8.5E1,6.2E1,4.2E1,1.6E1,5.1E1,5.1E1,3.4E1,4.4E1,1.8E1,3.1E1,1.1E1,1E0,5E1,4.6E1,5E0,2.7E1,7E0,1.5E1,2.9E1,1E0,1.7E1,1E0,3E1,4.8E1,2E0,4.5E1,1E0,2E0,3E0,2.3E1,4E0,1E0,6E0,1.3E1,2E0,5E0,2.4E1],"tree_param":{"num_deleted":"0","num_feature":"153","num_nodes":"41","size_leaf_vector":"1"}},{"base_weights":[9.856899E1,-4.768229E3,7.4437505E3,-7.1461587E3,-2.1767356E3,4.125648E3,1.1849939E4,-4.9285333E2,-5.6630933E3,-3.0838198E3,1.2645319E2,2.897966E3,6.3845474E3,9.759243E3,9.564176E2,-5.752947E3,-1.8026798E1,-3.4361985E3,-8.6180896E2,-6.1041833E2,1.3405332E3,2.2235413E3,5.1237856E3,2.6518156E1,3.3253668E2,1.0214787E4,2.4003923E2,-2.9117996E2,-4.8440228E1,-1.4003882E2,-2.323701E2,2.1718155E1,-5.390692E1,-4.8019958E0,-8.099736E1,9.9697205E1,-3.1545176E1,2.2955208E0,1.298704E2,2.920502E2,8.7115685E1,5.2868427E2,2.4846678E2],"categories":[],"categories_nodes":[],"categories_segments":[],"categories_sizes":[],"default_left":[0,0,0,0,0,0,0,0,0,0,0,0,0,0,0,0,0,0,0,0,0,0,0,0,0,0,0,0,0,0,0,0,0,0,0,0,0,0,0,0,0,0,0],"id":3,"left_children":[1,3,5,7,9,11,13,-1,15,17,19,21,23,25,-1,27,-1,29,31,33,35,37,39,-1,-1,41,-1,-1,-1,-1,-1,-1,-1,-1,-1,-1,-1,-1,-1,-1,-1,-1,-1],"loss_changes":[9.508585E9,9.7042586E8,1.5008492E9,2.778747E8,1.6334672E8,1.5343584E8,4.9808128E8,0E0,2.4606592E7,4.088563E7,2.139464E7,5.1654496E7,2.9196416E7,3.453491E7,0E0,1.2947968E7,0E0,2.3924928E7,2.9919695E6,7.633447E6,1.2851548E7,2.7561392E7,1.164968E7,0E0,0E0,9.57952E6,0E0,0E0,0E0,0E0,0E0,0E0,0E0,0E0,0E0,0E0,0E0,0E0,0E0,0E0,0E0,0E0,0E0],"parents":[2147483647,0,0,1,1,2,2,3,3,4,4,5,5,6,6,8,8,9,9,10,10,11,11,12,12,13,13,15,15,17,17,18,18,19,19,20,20,21,21,22,22,25,25],"right_children":[2,4,6,8,10,12,14,-1,16,18,20,22,24,26,-1,28,-1,30,32,34,36,38,40,-1,-1,42,-1,-1,-1,-1,-1,-1,-1,-1,-1,-1,-1,-1,-1,-1,-1,-1,-1],"split_conditions":[2.275006E4,1.347113E4,2.634185E4,1.045432E4,2.052813E4,2.776409E4,4.119E4,-4.9285333E2,1E0,1.696662E4,1.902206E4,2.406189E4,2.7835E4,3.9239E4,9.564176E2,8.0846E4,-1.8026798E1,4.3887E4,1.652463E4,1E0,4.3887E4,-7.7825E2,2.58206E4,2.6518156E1,3.3253668E2,1E0,2.4003923E2,-2.9117996E2,-4.8440228E1,-1.4003882E2,-2.323701E2,2.1718155E1,-5.390692E1,-4.8019958E0,-8.099736E1,9.9697205E1,-3.1545176E1,2.2955208E0,1.298704E2,2.920502E2,8.7115685E1,5.2868427E2,2.4846678E2],"split_indices":[4,3,3,3,4,4,4,0,80,3,3,3,2,1,0,1,0,1,4,116,1,6,4,0,0,149,0,0,0,0,0,0,0,0,0,0,0,0,0,0,0,0,0],"split_type":[0,0,0,0,0,0,0,0,0,0,0,0,0,0,0,0,0,0,0,0,0,0,0,0,0,0,0,0,0,0,0,0,0,0,0,0,0,0,0,0,0,0,0],"sum_hessian":[2.64E2,1.59E2,1.05E2,8.2E1,7.7E1,6.1E1,4.4E1,2.7E1,5.5E1,5.5E1,2.2E1,4.1E1,2E1,3.6E1,8E0,5.4E1,1E0,4.7E1,8E0,1.4E1,8E0,3.3E1,8E0,1E0,1.9E1,3.2E1,4E0,5.3E1,1E0,3.3E1,1.4E1,1E0,7E0,1E1,4E0,6E0,2E0,5E0,2.8E1,6E0,2E0,2.9E1,3E0],"tree_param":{"num_deleted":"0","num_feature":"153","num_nodes":"43","size_leaf_vector":"1"}},{"base_weights":[-1.1154432E2,-4.6321655E3,6.7148E3,-7.43783E3,-2.6080466E3,3.8874822E3,1.0999952E4,-5.2713885E2,-6.0904478E3,-3.8060337E3,-9.131377E2,3.2188384E3,7.541685E3,9.231536E3,8.459832E2,-6.181778E3,-4.722924E1,-4.3396216E3,-1.6212979E3,-2.0264207E3,-4.034008E2,9.846E2,3.578183E3,4.0167365E2,9.018207E1,1.9512468E2,4.7247275E2,-3.1248428E2,-7.814559E1,-2.1993848E2,-4.786137E1,-2.5379503E1,-1.3251953E2,-1.1707244E2,-5.585359E1,-1.09062256E2,-8.102002E-1,1.26050064E2,9.273547E0,4.870697E1,1.8988817E2],"categories":[],"categories_nodes":[],"categories_segments":[],"categories_sizes":[],"default_left":[0,0,0,0,0,0,0,0,0,0,0,0,0,0,0,0,0,0,0,0,0,0,0,0,0,0,0,0,0,0,0,0,0,0,0,0,0,0,0,0,0],"id":4,"left_children":[1,3,5,7,9,11,13,-1,15,17,19,21,23,25,-1,27,-1,29,31,33,35,37,39,-1,-1,-1,-1,-1,-1,-1,-1,-1,-1,-1,-1,-1,-1,-1,-1,-1,-1],"loss_changes":[7.900229E9,8.551667E8,1.1930158E9,2.0353536E8,1.8129766E8,1.296551E8,2.6254387E8,0E0,1.6248704E7,5.4748224E7,2.1314074E7,4.0633856E7,1.0906624E7,1.44512E6,0E0,4.65984E6,0E0,4.191424E6,1.2407672E7,8.21732E5,1.9238954E7,1.0582204E7,2.3174464E7,0E0,0E0,0E0,0E0,0E0,0E0,0E0,0E0,0E0,0E0,0E0,0E0,0E0,0E0,0E0,0E0,0E0,0E0],"parents":[2147483647,0,0,1,1,2,2,3,3,4,4,5,5,6,6,8,8,9,9,10,10,11,11,12,12,13,13,15,15,17,17,18,18,19,19,20,20,21,21,22,22],"right_children":[2,4,6,8,10,12,14,-1,16,18,20,22,24,26,-1,28,-1,30,32,34,36,38,40,-1,-1,-1,-1,-1,-1,-1,-1,-1,-1,-1,-1,-1,-1,-1,-1,-1,-1],"split_conditions":[2.244957E4,1.261202E4,2.656621E4,9.42753E3,1.936292E4,2.962475E4,4.018291E4,-5.2713885E2,1.21652E5,1.547205E4,2.021E3,-7.7825E2,3.8903E4,-6.5296E2,8.459832E2,1E0,-4.722924E1,1E0,1.756112E4,1.682286E4,1.875E3,-1.38061E3,2.278202E4,4.0167365E2,9.018207E1,1.9512468E2,4.7247275E2,-3.1248428E2,-7.814559E1,-2.1993848E2,-4.786137E1,-2.5379503E1,-1.3251953E2,-1.1707244E2,-5.585359E1,-1.09062256E2,-8.102002E-1,1.26050064E2,9.273547E0,4.870697E1,1.8988817E2],"split_indices":[4,3,3,3,4,4,4,0,1,3,9,6,1,6,0,126,0,69,4,3,23,6,4,0,0,0,0,0,0,0,0,0,0,0,0,0,0,0,0,0,0],"split_type":[0,0,0,0,0,0,0,0,0,0,0,0,0,0,0,0,0,0,0,0,0,0,0,0,0,0,0,0,0,0,0,0,0,0,0,0,0,0,0,0,0],"sum_hessian":[2.54E2,1.53E2,1.01E2,6.3E1,9E1,6.2E1,3.9E1,1.7E1,4.6E1,5.2E1,3.8E1,5.4E1,8E0,3.2E1,7E0,4.5E1,1E0,4.1E1,1.1E1,1.1E1,2.7E1,8E0,4.6E1,7E0,1E0,2E0,3E1,4.4E1,1E0,4E1,1E0,6E0,5E0,7E0,4E0,4E0,2.3E1,2E0,6E0,4E0,4.2E1],"tree_param":{"num_deleted":"0","num_feature":"153","num_nodes":"41","size_leaf_vector":"1"}},{"base_weights":[3.289497E1,-4.5987793E3,6.508358E3,-7.4398765E3,-3.0313345E3,4.759302E3,1.4989227E4,-4.4312744E2,-5.4919766E3,-4.244572E3,-1.6538395E3,2.5487761E3,7.0626167E3,5.0461197E2,8.948792E2,-2.8220285E2,-4.6048527E1,-2.0103347E3,-4.388874E3,-1.1965464E3,-3.5024817E3,1.674934E3,4.551319E3,2.1709058E3,7.367595E3,-1.19605835E2,-1.2077676E1,-2.2224344E2,-4.3925625E1,-8.593835E1,-2.6444437E1,-1.8486896E2,-4.858007E1,3.562492E1,1.1805654E2,5.7155067E1,2.3627754E2,1.2764313E2,2.562338E1,4.016229E2,2.4120511E2],"categories":[],"categories_nodes":[],"categories_segments":[],"categories_sizes":[],"default_left":[0,0,0,0,0,0,0,0,0,0,0,0,0,0,0,0,0,0,0,0,0,0,0,0,0,0,0,0,0,0,0,0,0,0,0,0,0,0,0,0,0],"id":5,"left_children":[1,3,5,7,9,11,13,-1,15,17,19,21,23,-1,-1,-1,-1,25,27,29,31,33,35,37,39,-1,-1,-1,-1,-1,-1,-1,-1,-1,-1,-1,-1,-1,-1,-1,-1],"loss_changes":[7.767928E9,6.498888E8,1.5306793E9,9.820058E7,1.5843117E8,4.4532787E8,7.572992E7,0E0,1.2180416E7,7.941312E6,3.638647E7,7.637168E7,4.964685E7,0E0,0E0,0E0,0E0,2.798356E6,5.5296E6,1.303732E7,8.46504E5,2.1432096E7,2.911136E6,1.225242E6,3.0583296E7,0E0,0E0,0E0,0E0,0E0,0E0,0E0,0E0,0E0,0E0,0E0,0E0,0E0,0E0,0E0,0E0],"parents":[2147483647,0,0,1,1,2,2,3,3,4,4,5,5,6,6,8,8,9,9,10,10,11,11,12,12,17,17,18,18,19,19,20,20,21,21,22,22,23,23,24,24],"right_children":[2,4,6,8,10,12,14,-1,16,18,20,22,24,-1,-1,-1,-1,26,28,30,32,34,36,38,40,-1,-1,-1,-1,-1,-1,-1,-1,-1,-1,-1,-1,-1,-1,-1,-1],"split_conditions":[2.210092E4,1.204959E4,3.50984E4,1.045432E4,1.504496E4,2.406189E4,4.119E4,-4.4312744E2,7.3898E4,1.473E4,5.3889E4,2.710769E4,2.8515E4,5.0461197E2,8.948792E2,-2.8220285E2,-4.6048527E1,9.499E3,1E0,1.987167E4,1.696662E4,2.07286E4,2.684E4,2.02E3,3.7999E4,-1.19605835E2,-1.2077676E1,-2.2224344E2,-4.3925625E1,-8.593835E1,-2.6444437E1,-1.8486896E2,-4.858007E1,3.562492E1,1.1805654E2,5.7155067E1,2.3627754E2,1.2764313E2,2.562338E1,4.016229E2,2.4120511E2],"split_indices":[4,3,4,3,3,3,4,0,1,1,1,4,2,0,0,0,0,1,76,4,3,3,2,0,1,0,0,0,0,0,0,0,0,0,0,0,0,0,0,0,0],"split_type":[0,0,0,0,0,0,0,0,0,0,0,0,0,0,0,0,0,0,0,0,0,0,0,0,0,0,0,0,0,0,0,0,0,0,0,0,0,0,0,0,0],"sum_hessian":[2.57E2,1.5E2,1.07E2,5.2E1,9.8E1,9E1,1.7E1,2.8E1,2.4E1,5.1E1,4.7E1,4.7E1,4.3E1,8E0,9E0,2.3E1,1E0,4E0,4.7E1,3.9E1,8E0,3.4E1,1.3E1,3E0,4E1,3E0,1E0,4.6E1,1E0,2.1E1,1.8E1,7E0,1E0,1.5E1,1.9E1,1E0,1.2E1,2E0,1E0,3E1,1E1],"tree_param":{"num_deleted":"0","num_feature":"153","num_nodes":"41","size_leaf_vector":"1"}},{"base_weights":[-1.9719458E2,-4.2163794E3,6.4766235E3,-5.7117495E3,-1.333417E3,4.0921328E3,1.098498E4,-4.713365E2,-4.873327E3,-2.4045142E3,-3.8800635E2,2.2795894E3,6.003362E3,9.103045E3,8.471713E2,-4.9381245E3,2.3958097E1,-1.6992234E3,-1.5722588E2,2.9316937E2,-1.2847515E3,3.3224917E3,1.2791378E3,8.1377046E3,4.8143667E3,9.318862E3,8.18974E1,-2.5129039E2,-3.6000614E1,-4.492959E0,-9.0025856E1,-6.1564156E1,2.7247553E1,-1.19300835E2,-3.0281687E1,7.3275536E1,2.2379088E2,-7.8790946E0,7.237667E1,4.2833105E2,1.06933975E2,2.4982803E1,2.493887E2,4.805842E2,1.8861806E2],"categories":[],"categories_nodes":[],"categories_segments":[],"categories_sizes":[],"default_left":[0,0,0,0,0,0,0,0,0,0,0,0,0,0,0,0,0,0,0,0,0,0,0,0,0,0,0,0,0,0,0,0,0,0,0,0,0,0,0,0,0,0,0,0,0],"id":6,"left_children":[1,3,5,7,9,11,13,-1,15,17,19,21,23,25,-1,27,-1,29,-1,31,33,35,37,39,41,43,-1,-1,-1,-1,-1,-1,-1,-1,-1,-1,-1,-1,-1,-1,-1,-1,-1,-1,-1],"loss_changes":[7.135485E9,7.080248E8,1.0300598E9,2.9356416E8,5.779911E7,2.1841446E8,2.270167E8,0E0,3.3927936E7,8.748032E6,1.9923662E7,3.3311072E7,4.2027904E7,2.984576E7,0E0,2.966784E7,0E0,2.446312E6,0E0,7.9636745E6,9.025092E6,2.9849008E7,5.06698E6,7.408448E6,1.4715936E7,7.591424E6,0E0,0E0,0E0,0E0,0E0,0E0,0E0,0E0,0E0,0E0,0E0,0E0,0E0,0E0,0E0,0E0,0E0,0E0,0E0],"parents":[2147483647,0,0,1,1,2,2,3,3,4,4,5,5,6,6,8,8,9,9,10,10,11,11,12,12,13,13,15,15,17,17,19,19,20,20,21,21,22,22,23,23,24,24,25,25],"right_children":[2,4,6,8,10,12,14,-1,16,18,20,22,24,26,-1,28,-1,30,-1,32,34,36,38,40,42,44,-1,-1,-1,-1,-1,-1,-1,-1,-1,-1,-1,-1,-1,-1,-1,-1,-1,-1,-1],"split_conditions":[2.278202E4,1.694228E4,3.194374E4,1.052625E4,1.987167E4,2.776409E4,4.119E4,-4.713365E2,1E0,2.6996E4,3.7358E4,2.6996E4,1.4009E4,4.976E4,8.471713E2,1E0,2.3958097E1,1.745042E4,-1.5722588E2,2.021E3,1.192E3,3.2245E4,2.35E4,2.023E3,2.7835E4,1E0,8.18974E1,-2.5129039E2,-3.6000614E1,-4.492959E0,-9.0025856E1,-6.1564156E1,2.7247553E1,-1.19300835E2,-3.0281687E1,7.3275536E1,2.2379088E2,-7.8790946E0,7.237667E1,4.2833105E2,1.06933975E2,2.4982803E1,2.493887E2,4.805842E2,1.8861806E2],"split_indices":[4,4,4,4,4,4,4,0,147,1,1,1,1,1,0,107,0,4,0,9,26,2,12,0,2,149,0,0,0,0,0,0,0,0,0,0,0,0,0,0,0,0,0,0,0],"split_type":[0,0,0,0,0,0,0,0,0,0,0,0,0,0,0,0,0,0,0,0,0,0,0,0,0,0,0,0,0,0,0,0,0,0,0,0,0,0,0,0,0,0,0,0,0],"sum_hessian":[2.64E2,1.65E2,9.9E1,1.08E2,5.7E1,6.6E1,3.3E1,1.8E1,9E1,2.6E1,3.1E1,3.5E1,3.1E1,2.7E1,6E0,8.9E1,1E0,1.5E1,1.1E1,1.8E1,1.3E1,1.6E1,1.9E1,9E0,2.2E1,2.6E1,1E0,8.7E1,2E0,1E0,1.4E1,2E0,1.6E1,4E0,9E0,7E0,9E0,2E0,1.7E1,8E0,1E0,1E0,2.1E1,2.4E1,2E0],"tree_param":{"num_deleted":"0","num_feature":"153","num_nodes":"45","size_leaf_vector":"1"}},{"base_weights":[-1.0254771E2,-3.9191763E3,6.3120186E3,-7.142416E3,-2.4710952E3,4.681071E3,1.3210003E4,-4.583607E2,-2.8584943E2,-3.5771565E3,-8.757349E2,2.6358342E3,6.6604087E3,4.6768042E2,8.0135486E2,-3.756217E3,1.8207803E2,-1.0858773E3,1.3191637E2,1.0693945E3,4.0767534E3,6.947382E1,6.9012583E3,-2.0053065E2,-1.22484314E2,3.414879E1,-3.3012882E1,-8.274505E1,-2.2244854E1,-6.478473E0,6.7956566E1,2.1538237E2,-1.3525626E1,3.6636557E2,1.9838394E2],"categories":[],"categories_nodes":[],"categories_segments":[],"categories_sizes":[],"default_left":[0,0,0,0,0,0,0,0,0,0,0,0,0,0,0,0,0,0,0,0,0,0,0,0,0,0,0,0,0,0,0,0,0,0,0],"id":7,"left_children":[1,3,5,7,9,11,13,-1,-1,15,17,19,21,-1,-1,23,25,27,-1,29,31,-1,33,-1,-1,-1,-1,-1,-1,-1,-1,-1,-1,-1,-1],"loss_changes":[6.36558E9,7.431539E8,1.0294359E9,9.18999E7,1.9802752E8,3.063004E8,4.5634816E7,0E0,0E0,4.5784E7,3.8310516E7,8.818147E7,4.118989E7,0E0,0E0,1.144672E7,2.1386385E6,1.604124E7,0E0,7.47129E6,2.2244576E7,0E0,1.8421376E7,0E0,0E0,0E0,0E0,0E0,0E0,0E0,0E0,0E0,0E0,0E0,0E0],"parents":[2147483647,0,0,1,1,2,2,3,3,4,4,5,5,6,6,9,9,10,10,11,11,12,12,15,15,16,16,17,17,19,19,20,20,22,22],"right_children":[2,4,6,8,10,12,14,-1,-1,16,18,20,22,-1,-1,24,26,28,-1,30,32,-1,34,-1,-1,-1,-1,-1,-1,-1,-1,-1,-1,-1,-1],"split_conditions":[2.278202E4,1.196973E4,3.564019E4,9.42753E3,1.547205E4,2.406189E4,4.119E4,-4.583607E2,-2.8584943E2,1E0,2.064344E4,2.588958E4,-9.0566E2,4.6768042E2,8.0135486E2,1.732811E4,2.02E3,1.998372E4,1.3191637E2,1.878862E4,1E0,6.947382E1,1E0,-2.0053065E2,-1.22484314E2,3.414879E1,-3.3012882E1,-8.274505E1,-2.2244854E1,-6.478473E0,6.7956566E1,2.1538237E2,-1.3525626E1,3.6636557E2,1.9838394E2],"split_indices":[4,3,4,3,3,3,4,0,0,124,3,4,6,0,0,4,0,4,0,3,150,0,101,0,0,0,0,0,0,0,0,0,0,0,0],"split_type":[0,0,0,0,0,0,0,0,0,0,0,0,0,0,0,0,0,0,0,0,0,0,0,0,0,0,0,0,0,0,0,0,0,0,0],"sum_hessian":[2.58E2,1.62E2,9.6E1,4.9E1,1.13E2,7.9E1,1.7E1,1.8E1,3.1E1,6.6E1,4.7E1,4E1,3.9E1,9E0,8E0,6.3E1,3E0,4.5E1,2E0,2E1,2E1,2E0,3.7E1,5.1E1,1.2E1,2E0,1E0,2.3E1,2.2E1,4E0,1.6E1,1.9E1,1E0,3.1E1,6E0],"tree_param":{"num_deleted":"0","num_feature":"153","num_nodes":"35","size_leaf_vector":"1"}},{"base_weights":[1.0816731E2,-4.0843267E3,5.5432817E3,-6.2008535E3,-2.4505176E3,3.9383228E3,1.2769119E4,-4.257381E2,-5.2242964E3,-3.3280273E3,-8.871487E2,2.0552227E3,5.9379565E3,4.6694263E2,7.804259E2,-5.3069097E3,-3.146879E1,-3.5766016E3,-1.985979E3,-1.7275281E3,-5.0002188E2,1.3933436E3,3.5949612E3,4.3148267E3,6.7966255E3,-2.687152E2,-5.3481823E1,-1.8140254E2,-3.1531925E1,-5.2042908E1,-1.4559662E2,-9.834859E1,-2.5656797E1,-8.7967705E1,-3.8007905E0,9.814931E1,7.34353E0,2.4756877E2,1.2108034E2,2.2621378E1,2.2521321E2,3.4638843E2,7.811312E1],"categories":[],"categories_nodes":[],"categories_segments":[],"categories_sizes":[],"default_left":[0,0,0,0,0,0,0,0,0,0,0,0,0,0,0,0,0,0,0,0,0,0,0,0,0,0,0,0,0,0,0,0,0,0,0,0,0,0,0,0,0,0,0],"id":8,"left_children":[1,3,5,7,9,11,13,-1,15,17,19,21,23,-1,-1,25,-1,27,29,31,33,35,37,39,41,-1,-1,-1,-1,-1,-1,-1,-1,-1,-1,-1,-1,-1,-1,-1,-1,-1,-1],"loss_changes":[6.175045E9,5.1387776E8,1.3181763E9,1.0465306E8,1.1777187E8,3.568155E8,5.8769664E7,0E0,1.5259776E7,1.1577856E7,9.871976E6,4.798475E7,3.617792E7,0E0,0E0,7.958144E6,0E0,4.683712E6,6.595208E6,1.898214E6,1.2681226E7,2.6693152E7,1.1882288E7,1.1863616E7,9.083008E6,0E0,0E0,0E0,0E0,0E0,0E0,0E0,0E0,0E0,0E0,0E0,0E0,0E0,0E0,0E0,0E0,0E0,0E0],"parents":[2147483647,0,0,1,1,2,2,3,3,4,4,5,5,6,6,8,8,9,9,10,10,11,11,12,12,15,15,17,17,18,18,19,19,20,20,21,21,22,22,23,23,24,24],"right_children":[2,4,6,8,10,12,14,-1,16,18,20,22,24,-1,-1,26,-1,28,30,32,34,36,38,40,42,-1,-1,-1,-1,-1,-1,-1,-1,-1,-1,-1,-1,-1,-1,-1,-1,-1,-1],"split_conditions":[2.210092E4,1.2549E4,3.564019E4,9.42753E3,1.936004E4,2.776409E4,4.119E4,-4.257381E2,1.21652E5,1.592415E4,2.021E3,2.304622E4,2.998043E4,4.6694263E2,7.804259E2,1E0,-3.146879E1,1E0,4.3887E4,1.715878E4,1.9915447E4,4.118E4,2.394312E4,2.7835E4,6.0628E4,-2.687152E2,-5.3481823E1,-1.8140254E2,-3.1531925E1,-5.2042908E1,-1.4559662E2,-9.834859E1,-2.5656797E1,-8.7967705E1,-3.8007905E0,9.814931E1,7.34353E0,2.4756877E2,1.2108034E2,2.2621378E1,2.2521321E2,3.4638843E2,7.811312E1],"split_indices":[4,3,4,3,4,4,4,0,1,3,9,3,4,0,0,63,0,76,1,3,24,1,4,2,1,0,0,0,0,0,0,0,0,0,0,0,0,0,0,0,0,0,0],"split_type":[0,0,0,0,0,0,0,0,0,0,0,0,0,0,0,0,0,0,0,0,0,0,0,0,0,0,0,0,0,0,0,0,0,0,0,0,0,0,0,0,0,0,0],"sum_hessian":[2.69E2,1.52E2,1.17E2,6.5E1,8.7E1,9.7E1,2E1,1.7E1,4.8E1,5.5E1,3.2E1,5.1E1,4.6E1,1.1E1,9E0,4.7E1,1E0,4.5E1,1E1,9E0,2.3E1,3.7E1,1.4E1,1.8E1,2.8E1,4.6E1,1E0,4.4E1,1E0,6E0,4E0,7E0,2E0,5E0,1.8E1,2.5E1,1.2E1,5E0,9E0,1E0,1.7E1,2.7E1,1E0],"tree_param":{"num_deleted":"0","num_feature":"153","num_nodes":"43","size_leaf_vector":"1"}},{"base_weights":[-2.079631E1,-3.637748E3,5.601799E3,-5.7566357E3,-2.0377115E3,3.987149E3,1.2360433E4,-4.2172665E2,-4.751126E3,-3.205952E3,-8.2517096E2,2.5011064E3,6.2773667E3,3.997374E2,7.4043365E2,-4.821552E3,-3.0743643E1,-3.3009565E3,2.67288E1,-9.602507E2,1.3133295E2,2.0410096E3,4.229402E3,6.3815874E3,7.616029E1,-2.4390042E2,-5.1376842E1,-1.7089725E2,-2.6188602E1,-8.9099785E1,-2.6582655E1,4.190031E1,1.397677E2,7.79125E1,2.351198E2,3.3195627E2,1.4917009E2],"categories":[],"categories_nodes":[],"categories_segments":[],"categories_sizes":[],"default_left":[0,0,0,0,0,0,0,0,0,0,0,0,0,0,0,0,0,0,0,0,0,0,0,0,0,0,0,0,0,0,0,0,0,0,0,0,0],"id":9,"left_children":[1,3,5,7,9,11,13,-1,15,17,19,21,23,-1,-1,25,-1,27,-1,29,-1,31,33,35,-1,-1,-1,-1,-1,-1,-1,-1,-1,-1,-1,-1,-1],"loss_changes":[5.246898E9,5.2054554E8,1.0529111E9,1.403328E8,1.262592E8,2.6677773E8,8.468275E7,0E0,1.1890944E7,1.8111776E7,2.3970614E7,3.271664E7,6.134144E6,0E0,0E0,5.696896E6,0E0,1.2829824E7,0E0,1.4901268E7,0E0,3.6678704E7,5.306272E6,7.321728E6,0E0,0E0,0E0,0E0,0E0,0E0,0E0,0E0,0E0,0E0,0E0,0E0,0E0],"parents":[2147483647,0,0,1,1,2,2,3,3,4,4,5,5,6,6,8,8,9,9,10,10,11,11,12,12,15,15,17,17,19,19,21,21,22,22,23,23],"right_children":[2,4,6,8,10,12,14,-1,16,18,20,22,24,-1,-1,26,-1,28,-1,30,-1,32,34,36,-1,-1,-1,-1,-1,-1,-1,-1,-1,-1,-1,-1,-1],"split_conditions":[2.269838E4,1.504326E4,3.406864E4,9.84881E3,1.826856E4,2.928938E4,4.018291E4,-4.2172665E2,1E0,1E0,1E0,7.4817E2,3.399218E4,3.997374E2,7.4043365E2,1.46585E3,-3.0743643E1,1E0,2.67288E1,2.021E3,1.3133295E2,2.575816E4,2.018E3,1E0,7.616029E1,-2.4390042E2,-5.1376842E1,-1.7089725E2,-2.6188602E1,-8.9099785E1,-2.6582655E1,4.190031E1,1.397677E2,7.79125E1,2.351198E2,3.3195627E2,1.4917009E2],"split_indices":[4,4,4,4,4,4,4,0,76,147,69,6,4,0,0,6,0,107,0,9,0,4,0,101,0,0,0,0,0,0,0,0,0,0,0,0,0],"split_type":[0,0,0,0,0,0,0,0,0,0,0,0,0,0,0,0,0,0,0,0,0,0,0,0,0,0,0,0,0,0,0,0,0,0,0,0,0],"sum_hessian":[2.56E2,1.56E2,1E2,6.6E1,9E1,8.2E1,1.8E1,1.6E1,5E1,4.5E1,4.5E1,5.1E1,3.1E1,8E0,1E1,4.9E1,1E0,4.4E1,1E0,4.4E1,1E0,4.2E1,9E0,3E1,1E0,4.8E1,1E0,4.2E1,2E0,1.4E1,3E1,1.7E1,2.5E1,2E0,7E0,2.7E1,3E0],"tree_param":{"num_deleted":"0","num_feature":"153","num_nodes":"37","size_leaf_vector":"1"}},{"base_weights":[7.0434456E1,-2.796488E3,6.642521E3,-5.1114746E3,-8.775413E2,4.946582E3,1.2005545E4,-3.6772192E2,-3.8806409E3,-2.2216506E3,5.092901E2,2.8507761E3,5.903816E3,4.2853906E2,7.1198724E2,-3.9700356E3,-4.740797E1,-1.3591619E3,-3.0018523E3,3.304823E1,2.5061912E3,5.137327E2,3.3415728E3,6.545896E3,3.440856E3,-1.3575334E2,-2.0942903E2,-7.894022E1,-3.8476913E0,-1.5488992E2,-1.267875E1,-2.2461576E1,4.3748928E1,2.4583414E1,1.8836226E2,5.4335903E1,-1.152317E1,1.7389684E2,2.5582266E1,2.3009387E2,3.7897046E2,1.06157646E2,2.0925333E2],"categories":[],"categories_nodes":[],"categories_segments":[],"categories_sizes":[],"default_left":[0,0,0,0,0,0,0,0,0,0,0,0,0,0,0,0,0,0,0,0,0,0,0,0,0,0,0,0,0,0,0,0,0,0,0,0,0,0,0,0,0,0,0],"id":10,"left_children":[1,3,5,7,9,11,13,-1,15,17,19,21,23,-1,-1,25,-1,27,29,31,33,35,37,39,41,-1,-1,-1,-1,-1,-1,-1,-1,-1,-1,-1,-1,-1,-1,-1,-1,-1,-1],"loss_changes":[5.086983E9,8.306729E8,6.864315E8,2.0611994E8,1.9499315E8,1.115639E8,2.3757056E7,0E0,1.1177728E7,3.1584032E7,4.9369332E7,2.3517216E7,4.547648E7,0E0,0E0,3.711744E6,0E0,7.48228E6,6.333712E6,1.7853084E7,2.3551556E7,2.3826015E6,5.16632E6,3.1421824E7,1.90096E6,0E0,0E0,0E0,0E0,0E0,0E0,0E0,0E0,0E0,0E0,0E0,0E0,0E0,0E0,0E0,0E0,0E0,0E0],"parents":[2147483647,0,0,1,1,2,2,3,3,4,4,5,5,6,6,8,8,9,9,10,10,11,11,12,12,15,15,17,17,18,18,19,19,20,20,21,21,22,22,23,23,24,24],"right_children":[2,4,6,8,10,12,14,-1,16,18,20,22,24,-1,-1,26,-1,28,30,32,34,36,38,40,42,-1,-1,-1,-1,-1,-1,-1,-1,-1,-1,-1,-1,-1,-1,-1,-1,-1,-1],"split_conditions":[2.153192E4,1.347113E4,3.789E4,1.045432E4,1.987167E4,2.406189E4,4.119E4,-3.6772192E2,7E0,2.8408E4,2.50584E4,3.025E4,3.6612E4,4.2853906E2,7.1198724E2,1.8753E4,-4.740797E1,9.0322E2,1E0,1.878862E4,1E0,6.3394E4,2.398351E4,3.5595E4,2.656621E4,-1.3575334E2,-2.0942903E2,-7.894022E1,-3.8476913E0,-1.5488992E2,-1.267875E1,-2.2461576E1,4.3748928E1,2.4583414E1,1.8836226E2,5.4335903E1,-1.152317E1,1.7389684E2,2.5582266E1,2.3009387E2,3.7897046E2,1.06157646E2,2.0925333E2],"split_indices":[3,3,4,3,4,3,4,0,7,1,4,16,1,0,0,1,0,6,66,3,149,1,3,2,3,0,0,0,0,0,0,0,0,0,0,0,0,0,0,0,0,0,0],"split_type":[0,0,0,0,0,0,0,0,0,0,0,0,0,0,0,0,0,0,0,0,0,0,0,0,0,0,0,0,0,0,0,0,0,0,0,0,0,0,0,0,0,0,0],"sum_hessian":[2.68E2,1.87E2,8.1E1,8.4E1,1.03E2,6.3E1,1.8E1,2.8E1,5.6E1,5.2E1,5.1E1,2.1E1,4.2E1,9E0,9E0,5.4E1,2E0,2.6E1,2.6E1,4.2E1,9E0,4E0,1.7E1,3.2E1,1E1,1E1,4.4E1,2.2E1,4E0,2.5E1,1E0,2.7E1,1.5E1,4E0,5E0,2E0,2E0,1.6E1,1E0,1.3E1,1.9E1,5E0,5E0],"tree_param":{"num_deleted":"0","num_feature":"153","num_nodes":"43","size_leaf_vector":"1"}},{"base_weights":[6.947864E1,-3.2604856E3,5.095777E3,-5.225924E3,-1.8150562E3,3.7904712E3,1.112165E4,-3.8236E2,-4.363837E3,-2.7303813E3,-6.0988403E2,1.9308451E3,5.1279756E3,3.885967E2,6.803903E2,-4.484459E3,-4.695133E1,-1.2856599E3,-3.2288113E3,-7.488359E2,1.2370223E2,1.3531077E3,3.6420872E3,6.8823887E3,4.1794414E3,-2.2791919E2,-2.3399357E1,-1.1472723E2,-3.5509438E1,-1.6513548E2,-1.2361758E1,-5.534567E1,-3.9119585E0,6.402913E0,8.270151E1,7.168801E1,2.0341002E2,3.551755E2,8.9136955E1,2.179886E2,4.013121E1],"categories":[],"categories_nodes":[],"categories_segments":[],"categories_sizes":[],"default_left":[0,0,0,0,0,0,0,0,0,0,0,0,0,0,0,0,0,0,0,0,0,0,0,0,0,0,0,0,0,0,0,0,0,0,0,0,0,0,0,0,0],"id":11,"left_children":[1,3,5,7,9,11,13,-1,15,17,19,21,23,-1,-1,25,-1,27,29,31,-1,33,35,37,39,-1,-1,-1,-1,-1,-1,-1,-1,-1,-1,-1,-1,-1,-1,-1,-1],"loss_changes":[4.3683374E9,4.3653555E8,7.7586534E8,1.0439283E8,9.982189E7,2.0648934E8,4.414157E7,0E0,1.6857024E7,3.3293184E7,1.94217E7,3.2640016E7,5.444032E7,0E0,0E0,1.2415104E7,0E0,7.0789E6,7.555776E6,9.5183E6,0E0,1.0847352E7,2.6356E6,5.3776E6,1.7813248E7,0E0,0E0,0E0,0E0,0E0,0E0,0E0,0E0,0E0,0E0,0E0,0E0,0E0,0E0,0E0,0E0],"parents":[2147483647,0,0,1,1,2,2,3,3,4,4,5,5,6,6,8,8,9,9,10,10,11,11,12,12,15,15,17,17,18,18,19,19,21,21,22,22,23,23,24,24],"right_children":[2,4,6,8,10,12,14,-1,16,18,20,22,24,-1,-1,26,-1,28,30,32,-1,34,36,38,40,-1,-1,-1,-1,-1,-1,-1,-1,-1,-1,-1,-1,-1,-1,-1,-1],"split_conditions":[2.275006E4,1.523238E4,3.564019E4,9.84881E3,1.936004E4,2.710769E4,4.119E4,-3.8236E2,1E0,2.602E4,4.9495E4,6.0255E2,1.4767E4,3.885967E2,6.803903E2,1.21652E5,-4.695133E1,3E0,1E0,3.298E2,1.2370223E2,-7.7825E2,2.018E3,2.024E3,2.022E3,-2.2791919E2,-2.3399357E1,-1.1472723E2,-3.5509438E1,-1.6513548E2,-1.2361758E1,-5.534567E1,-3.9119585E0,6.402913E0,8.270151E1,7.168801E1,2.0341002E2,3.551755E2,8.9136955E1,2.179886E2,4.013121E1],"split_indices":[4,4,4,4,4,4,4,0,120,1,2,6,1,0,0,1,0,10,66,6,0,6,0,0,0,0,0,0,0,0,0,0,0,0,0,0,0,0,0,0,0],"split_type":[0,0,0,0,0,0,0,0,0,0,0,0,0,0,0,0,0,0,0,0,0,0,0,0,0,0,0,0,0,0,0,0,0,0,0,0,0,0,0,0,0],"sum_hessian":[2.59E2,1.56E2,1.03E2,6.5E1,9.1E1,8.6E1,1.7E1,1.5E1,5E1,5.1E1,4E1,3.7E1,4.9E1,9E0,8E0,4.8E1,2E0,1.4E1,3.7E1,3.9E1,1E0,2.9E1,8E0,1.5E1,3.4E1,4.7E1,1E0,4E0,1E1,3.6E1,1E0,2.5E1,1.4E1,6E0,2.3E1,2E0,6E0,1.4E1,1E0,3.2E1,2E0],"tree_param":{"num_deleted":"0","num_feature":"153","num_nodes":"41","size_leaf_vector":"1"}},{"base_weights":[-5.254902E1,-3.2391807E3,4.512558E3,-4.878887E3,-1.9602899E3,2.359791E3,7.6175073E3,-3.4524643E2,-4.0837388E3,-2.6453857E3,-7.885513E2,1.485022E3,3.8652056E3,6.1016377E3,6.5015076E2,-4.1971196E3,-4.1639072E1,-1.222812E3,-3.1243308E3,-2.5408057E2,-1.3395096E3,3.6796176E2,2.0501199E3,5.920727E3,3.0126565E3,3.6813044E3,6.7481235E3,-2.1576323E2,-4.5386288E1,-9.132516E1,-9.28472E0,-1.5943864E2,-1.2052725E1,-2.989842E1,1.4674936E1,-8.097339E1,-1.2376904E0,6.412536E1,-1.5450312E1,1.297194E2,3.7828056E1,3.2047922E2,8.690853E1,3.2204063E1,1.6267097E2,1.9730421E2,3.2454678E1,3.4500232E2,6.6152626E1],"categories":[],"categories_nodes":[],"categories_segments":[],"categories_sizes":[],"default_left":[0,0,0,0,0,0,0,0,0,0,0,0,0,0,0,0,0,0,0,0,0,0,0,0,0,0,0,0,0,0,0,0,0,0,0,0,0,0,0,0,0,0,0,0,0,0,0,0,0],"id":12,"left_children":[1,3,5,7,9,11,13,-1,15,17,19,21,23,25,-1,27,-1,29,31,33,35,37,39,41,43,45,47,-1,-1,-1,-1,-1,-1,-1,-1,-1,-1,-1,-1,-1,-1,-1,-1,-1,-1,-1,-1,-1,-1],"loss_changes":[3.9278444E9,3.238592E8,7.239734E8,8.296026E7,7.096416E7,8.24912E7,2.8802586E8,0E0,1.5671232E7,3.50152E7,9.965986E6,2.7020328E7,2.4220384E7,3.3051264E7,0E0,1.55136E7,0E0,9.678208E6,7.034752E6,3.7533448E6,6.217048E6,1.0302287E7,1.8454096E7,1.126272E6,8.739184E6,5.466832E6,1.3947392E7,0E0,0E0,0E0,0E0,0E0,0E0,0E0,0E0,0E0,0E0,0E0,0E0,0E0,0E0,0E0,0E0,0E0,0E0,0E0,0E0,0E0,0E0],"parents":[2147483647,0,0,1,1,2,2,3,3,4,4,5,5,6,6,8,8,9,9,10,10,11,11,12,12,13,13,15,15,17,17,18,18,19,19,20,20,21,21,22,22,23,23,24,24,25,25,26,26],"right_children":[2,4,6,8,10,12,14,-1,16,18,20,22,24,26,-1,28,-1,30,32,34,36,38,40,42,44,46,48,-1,-1,-1,-1,-1,-1,-1,-1,-1,-1,-1,-1,-1,-1,-1,-1,-1,-1,-1,-1,-1,-1],"split_conditions":[2.210092E4,1.504326E4,3.0052E4,1.003189E4,1.936004E4,2.707876E4,4.119E4,-3.4524643E2,4E0,2.602E4,2.5845E4,3.0895E4,1.4009E4,3.5595E4,6.5015076E2,1E0,-4.1639072E1,7E0,1E0,2.3746E2,2.150164E4,1.9079E4,4.3887E4,2.022E3,2.7835E4,1E0,4.8322E4,-2.1576323E2,-4.5386288E1,-9.132516E1,-9.28472E0,-1.5943864E2,-1.2052725E1,-2.989842E1,1.4674936E1,-8.097339E1,-1.2376904E0,6.412536E1,-1.5450312E1,1.297194E2,3.7828056E1,3.2047922E2,8.690853E1,3.2204063E1,1.6267097E2,1.9730421E2,3.2454678E1,3.4500232E2,6.6152626E1],"split_indices":[4,4,4,4,4,4,4,0,7,1,2,2,1,2,0,120,0,10,66,6,4,1,1,0,2,71,1,0,0,0,0,0,0,0,0,0,0,0,0,0,0,0,0,0,0,0,0,0,0],"split_type":[0,0,0,0,0,0,0,0,0,0,0,0,0,0,0,0,0,0,0,0,0,0,0,0,0,0,0,0,0,0,0,0,0,0,0,0,0,0,0,0,0,0,0,0,0,0,0,0,0],"sum_hessian":[2.68E2,1.58E2,1.1E2,6.8E1,9E1,6.6E1,4.4E1,1.7E1,5.1E1,5.6E1,3.4E1,4.3E1,2.3E1,3.6E1,8E0,4.9E1,2E0,1.5E1,4.1E1,1.8E1,1.6E1,1.5E1,2.8E1,5E0,1.8E1,9E0,2.7E1,4.7E1,2E0,9E0,6E0,4E1,1E0,1.1E1,7E0,1.3E1,3E0,6E0,9E0,1.9E1,9E0,4E0,1E0,2E0,1.6E1,8E0,1E0,2.6E1,1E0],"tree_param":{"num_deleted":"0","num_feature":"153","num_nodes":"49","size_leaf_vector":"1"}},{"base_weights":[1.3401653E2,-2.8911106E3,4.8158584E3,-4.332472E3,-1.1379888E3,3.7488052E3,9.392206E3,-3.1351074E2,-3.3719905E3,-1.8730925E3,-1.6791446E2,1.8989979E3,4.86474E3,1.2101786E2,9.645062E3,-3.4368472E3,-9.7244586E2,-1.1165199E3,-2.576493E3,7.0804224E2,-9.372196E2,1.3232902E3,1.8023122E2,6.094922E3,3.9980203E3,5.3030615E2,2.977617E2,-1.7405426E2,-2.1773428E1,-8.782294E1,1.4887003E1,-8.802452E1,-2.6763212E1,-1.3761143E2,-3.0231699E1,4.8605385E1,-1.635781E1,-1.5894022E1,-7.6061386E1,-2.7770567E1,7.479034E1,1.442974E2,3.245722E2,1.5974355E2,2.6934402E2],"categories":[],"categories_nodes":[],"categories_segments":[],"categories_sizes":[],"default_left":[0,0,0,0,0,0,0,0,0,0,0,0,0,0,0,0,0,0,0,0,0,0,0,0,0,0,0,0,0,0,0,0,0,0,0,0,0,0,0,0,0,0,0,0,0],"id":13,"left_children":[1,3,5,7,9,11,13,-1,15,17,19,21,23,-1,25,27,29,31,33,35,37,39,-1,41,43,-1,-1,-1,-1,-1,-1,-1,-1,-1,-1,-1,-1,-1,-1,-1,-1,-1,-1,-1,-1],"loss_changes":[3.7529994E9,4.018972E8,4.7264256E8,1.426386E8,5.245507E7,1.6828787E8,1.0148736E7,0E0,6.150592E6,1.9474208E7,2.2901586E7,2.8615576E7,3.2141184E7,0E0,6.67136E5,6.317504E6,3.5106408E6,7.292294E6,5.61264E6,4.6918575E6,6.02683E6,9.581776E6,0E0,6.7136E6,2.0714496E7,0E0,0E0,0E0,0E0,0E0,0E0,0E0,0E0,0E0,0E0,0E0,0E0,0E0,0E0,0E0,0E0,0E0,0E0,0E0,0E0],"parents":[2147483647,0,0,1,1,2,2,3,3,4,4,5,5,6,6,8,8,9,9,10,10,11,11,12,12,14,14,15,15,16,16,17,17,18,18,19,19,20,20,21,21,23,23,24,24],"right_children":[2,4,6,8,10,12,14,-1,16,18,20,22,24,-1,26,28,30,32,34,36,38,40,-1,42,44,-1,-1,-1,-1,-1,-1,-1,-1,-1,-1,-1,-1,-1,-1,-1,-1,-1,-1,-1,-1],"split_conditions":[2.278202E4,1.364655E4,3.564019E4,1.045432E4,1.987167E4,2.776409E4,2E0,-3.1351074E2,1E0,2.8408E4,3.1376E4,7.4817E2,1.4767E4,1.2101786E2,1.4474E4,8.0846E4,2.019E3,7E0,1E0,1E0,2.628E4,2.02E3,1.8023122E2,2.62E4,3.250018E4,5.3030615E2,2.977617E2,-1.7405426E2,-2.1773428E1,-8.782294E1,1.4887003E1,-8.802452E1,-2.6763212E1,-1.3761143E2,-3.0231699E1,4.8605385E1,-1.635781E1,-1.5894022E1,-7.6061386E1,-2.7770567E1,7.479034E1,1.442974E2,3.245722E2,1.5974355E2,2.6934402E2],"split_indices":[4,3,4,3,4,4,10,0,80,1,1,6,1,0,1,1,0,10,149,80,2,9,0,12,4,0,0,0,0,0,0,0,0,0,0,0,0,0,0,0,0,0,0,0,0],"split_type":[0,0,0,0,0,0,0,0,0,0,0,0,0,0,0,0,0,0,0,0,0,0,0,0,0,0,0,0,0,0,0,0,0,0,0,0,0,0,0,0,0,0,0,0,0],"sum_hessian":[2.63E2,1.6E2,1.03E2,8.7E1,7.3E1,8.5E1,1.8E1,2.7E1,6E1,4.1E1,3.2E1,3.3E1,5.2E1,1E0,1.7E1,5.8E1,2E0,2.1E1,2E1,1.5E1,1.7E1,2.6E1,7E0,1.9E1,3.3E1,1.2E1,5E0,5.7E1,1E0,1E0,1E0,9E0,1.2E1,1.8E1,2E0,1.2E1,3E0,9E0,8E0,2E0,2.4E1,3E0,1.6E1,2.3E1,1E1],"tree_param":{"num_deleted":"0","num_feature":"153","num_nodes":"45","size_leaf_vector":"1"}},{"base_weights":[4.993543E1,-2.9637544E3,4.4025815E3,-4.531037E3,-1.8242192E3,3.186425E3,9.594344E3,-3.150454E2,-3.7729368E3,-2.3896602E3,-8.7826215E2,1.6425421E3,4.531115E3,3.5438873E2,5.9351935E2,-3.8646045E3,-1.109688E3,-1.1669154E3,-2.838365E3,-1.2801138E3,3.2109016E1,3.635832E2,2.1258914E3,3.6779138E3,5.954317E3,-1.9639665E2,-2.5368107E1,-1.6240372E1,-6.698373E1,-8.631433E1,-2.3893791E1,-1.5394907E2,-8.203606E1,-8.492869E1,-2.9655182E1,4.464167E1,-1.7699585E1,6.7890406E-1,4.604279E1,1.24376785E2,1.0221677E1,7.0073633E0,1.8937556E2,3.648701E2,1.5924966E2],"categories":[],"categories_nodes":[],"categories_segments":[],"categories_sizes":[],"default_left":[0,0,0,0,0,0,0,0,0,0,0,0,0,0,0,0,0,0,0,0,0,0,0,0,0,0,0,0,0,0,0,0,0,0,0,0,0,0,0,0,0,0,0,0,0],"id":14,"left_children":[1,3,5,7,9,11,13,-1,15,17,19,21,23,-1,-1,25,27,29,31,33,35,37,39,41,43,-1,-1,-1,-1,-1,-1,-1,-1,-1,-1,-1,-1,-1,-1,-1,-1,-1,-1,-1,-1],"loss_changes":[3.462957E9,2.7034573E8,6.513385E8,6.3439104E7,4.7110144E7,1.773248E8,2.9964672E7,0E0,7.42944E6,2.7960608E7,1.3211258E7,2.5808712E7,3.517069E7,0E0,0E0,7.786624E6,1.06233E5,5.727122E6,6.762848E6,6.179496E6,4.304025E6,2.5230308E6,2.1032608E7,1.1876192E7,3.6267776E7,0E0,0E0,0E0,0E0,0E0,0E0,0E0,0E0,0E0,0E0,0E0,0E0,0E0,0E0,0E0,0E0,0E0,0E0,0E0,0E0],"parents":[2147483647,0,0,1,1,2,2,3,3,4,4,5,5,6,6,8,8,9,9,10,10,11,11,12,12,15,15,16,16,17,17,18,18,19,19,20,20,21,21,22,22,23,23,24,24],"right_children":[2,4,6,8,10,12,14,-1,16,18,20,22,24,-1,-1,26,28,30,32,34,36,38,40,42,44,-1,-1,-1,-1,-1,-1,-1,-1,-1,-1,-1,-1,-1,-1,-1,-1,-1,-1,-1,-1],"split_conditions":[2.210092E4,1.504326E4,3.564019E4,1.052625E4,1.883317E4,2.710769E4,4.119E4,-3.150454E2,1E0,2.5857E4,3.298E2,-1.8682E2,4.059E4,3.5438873E2,5.9351935E2,1E0,2.8408E4,7E0,3.038E4,2.052813E4,7.8017E2,5.8036E4,1E0,2.7835E4,2.863E4,-1.9639665E2,-2.5368107E1,-1.6240372E1,-6.698373E1,-8.631433E1,-2.3893791E1,-1.5394907E2,-8.203606E1,-8.492869E1,-2.9655182E1,4.464167E1,-1.7699585E1,6.7890406E-1,4.604279E1,1.24376785E2,1.0221677E1,7.0073633E0,1.8937556E2,3.648701E2,1.5924966E2],"split_indices":[4,4,4,4,4,4,4,0,118,1,6,6,2,0,0,63,1,10,2,4,6,1,36,2,1,0,0,0,0,0,0,0,0,0,0,0,0,0,0,0,0,0,0,0,0],"split_type":[0,0,0,0,0,0,0,0,0,0,0,0,0,0,0,0,0,0,0,0,0,0,0,0,0,0,0,0,0,0,0,0,0,0,0,0,0,0,0,0,0,0,0,0,0],"sum_hessian":[2.62E2,1.55E2,1.07E2,6.4E1,9.1E1,8.8E1,1.9E1,1.7E1,4.7E1,5.6E1,3.5E1,4.2E1,4.6E1,1.1E1,8E0,4.5E1,2E0,1.6E1,4E1,2.4E1,1.1E1,1.2E1,3E1,3.1E1,1.5E1,4.4E1,1E0,1E0,1E0,8E0,8E0,3.2E1,8E0,1.4E1,1E1,3E0,8E0,8E0,4E0,2.5E1,5E0,1E0,3E1,9E0,6E0],"tree_param":{"num_deleted":"0","num_feature":"153","num_nodes":"45","size_leaf_vector":"1"}},{"base_weights":[-5.840267E1,-2.587644E3,4.3084805E3,-4.0104802E3,-1.184817E3,2.673538E3,7.034849E3,-5.692367E3,-3.1119072E3,-1.9142296E3,-3.731324E2,1.6967279E3,4.108753E3,5.442413E3,9.034752E3,-3.1114392E2,-1.9699509E2,-1.6319181E1,-3.157445E3,-2.3581946E3,-1.1419305E3,-8.297682E2,1.4781863E2,7.9951434E2,2.5518567E3,4.352279E3,4.766396E1,5.5567144E3,7.60496E1,1.09132706E2,4.6969662E2,-1.5985672E2,-2.6345205E1,-1.2135701E2,-1.4137687E1,-5.8769264E0,-8.91561E1,-5.4165295E1,1.3433398E0,-3.4040573E1,2.3471138E1,3.8130715E0,5.9154213E1,1.3695631E2,-2.0472403E1,7.287849E1,2.3663094E2,2.839929E2,7.734379E1],"categories":[],"categories_nodes":[],"categories_segments":[],"categories_sizes":[],"default_left":[0,0,0,0,0,0,0,0,0,0,0,0,0,0,0,0,0,0,0,0,0,0,0,0,0,0,0,1,0,0,0,0,0,0,0,0,0,0,0,0,0,0,0,0,0,0,0,0,0],"id":15,"left_children":[1,3,5,7,9,11,13,15,17,19,21,23,25,27,29,-1,-1,-1,31,33,35,37,39,41,43,45,-1,47,-1,-1,-1,-1,-1,-1,-1,-1,-1,-1,-1,-1,-1,-1,-1,-1,-1,-1,-1,-1,-1],"loss_changes":[2.860733E9,3.2259072E8,4.0464934E8,1.0470016E8,4.901795E7,7.854589E7,6.2292864E7,5.83424E5,5.945696E6,1.23932E7,9.876004E6,2.7114264E7,1.4293024E7,1.408512E6,1.3950976E7,0E0,0E0,0E0,3.952896E6,3.176944E6,1.1613192E7,4.807375E6,5.649384E6,5.458011E6,1.1658456E7,1.7322688E7,0E0,1.58272E6,0E0,0E0,0E0,0E0,0E0,0E0,0E0,0E0,0E0,0E0,0E0,0E0,0E0,0E0,0E0,0E0,0E0,0E0,0E0,0E0,0E0],"parents":[2147483647,0,0,1,1,2,2,3,3,4,4,5,5,6,6,7,7,8,8,9,9,10,10,11,11,12,12,13,13,14,14,18,18,19,19,20,20,21,21,22,22,23,23,24,24,25,25,27,27],"right_children":[2,4,6,8,10,12,14,16,18,20,22,24,26,28,30,-1,-1,-1,32,34,36,38,40,42,44,46,-1,48,-1,-1,-1,-1,-1,-1,-1,-1,-1,-1,-1,-1,-1,-1,-1,-1,-1,-1,-1,-1,-1],"split_conditions":[2.278202E4,1.335924E4,3.181321E4,1.036131E4,1.941137E4,2.406189E4,3.850781E4,1E0,1.051111E4,1.547205E4,2.254E2,2.588958E4,1E0,1E0,2E0,-3.1114392E2,-1.9699509E2,-1.6319181E1,1.42844E3,1E0,1.756112E4,1.861225E4,1.995549E4,3.2245E4,4.1495E4,-5.6547E2,4.766396E1,2.365E4,7.60496E1,1.09132706E2,4.6969662E2,-1.5985672E2,-2.6345205E1,-1.2135701E2,-1.4137687E1,-5.8769264E0,-8.91561E1,-5.4165295E1,1.3433398E0,-3.4040573E1,2.3471138E1,3.8130715E0,5.9154213E1,1.3695631E2,-2.0472403E1,7.287849E1,2.3663094E2,2.839929E2,7.734379E1],"split_indices":[4,3,4,3,4,3,4,61,3,3,6,4,101,124,10,0,0,0,6,69,4,3,4,2,2,6,0,12,0,0,0,0,0,0,0,0,0,0,0,0,0,0,0,0,0,0,0,0,0],"split_type":[0,0,0,0,0,0,0,0,0,0,0,0,0,0,0,0,0,0,0,0,0,0,0,0,0,0,0,0,0,0,0,0,0,0,0,0,0,0,0,0,0,0,0,0,0,0,0,0,0],"sum_hessian":[2.57E2,1.63E2,9.4E1,8E1,8.3E1,6E1,3.4E1,2.6E1,5.4E1,4.3E1,4E1,3.7E1,2.3E1,2.1E1,1.3E1,1.8E1,8E0,1E0,5.3E1,2.6E1,1.7E1,2.1E1,1.9E1,1.9E1,1.8E1,2.1E1,2E0,2E1,1E0,1E0,1.2E1,5.2E1,1E0,2.5E1,1E0,7E0,1E1,1.6E1,5E0,5E0,1.4E1,7E0,1.2E1,1.7E1,1E0,3E0,1.8E1,1.9E1,1E0],"tree_param":{"num_deleted":"0","num_feature":"153","num_nodes":"49","size_leaf_vector":"1"}},{"base_weights":[1.9639264E2,-2.576373E3,3.9318916E3,-4.152841E3,-1.2632428E3,2.8437278E3,8.958479E3,-2.7141745E2,-3.1182507E3,-1.8057167E3,-1.9043085E2,1.578252E3,4.184933E3,3.2121555E2,5.670986E2,-3.1802932E3,-1.59112215E1,-1.1904133E3,-2.4452942E3,-5.691588E2,1.1352552E3,1.0754061E3,2.8303796E3,5.375619E3,3.147942E3,-4.317838E1,-1.639749E2,-8.258887E1,-2.5609716E1,-1.25735596E2,-1.6008219E1,-3.8705322E1,3.245405E1,1.3682812E0,9.79653E1,7.550443E1,3.8725424E-1,1.4757204E2,3.14121E1,1.8827165E2,3.1753616E2,9.141355E1,1.8531006E2],"categories":[],"categories_nodes":[],"categories_segments":[],"categories_sizes":[],"default_left":[0,0,0,0,0,0,0,0,0,0,0,0,0,0,0,0,0,0,0,0,0,0,0,0,0,0,0,0,0,0,0,0,0,0,0,0,0,0,0,0,0,0,0],"id":16,"left_children":[1,3,5,7,9,11,13,-1,15,17,19,21,23,-1,-1,25,-1,27,29,31,33,35,37,39,41,-1,-1,-1,-1,-1,-1,-1,-1,-1,-1,-1,-1,-1,-1,-1,-1,-1,-1],"loss_changes":[2.7963415E9,3.156199E8,6.035448E8,7.544627E7,4.9705584E7,1.5633178E8,4.793728E7,0E0,6.110144E6,1.952016E7,1.5708317E7,2.9066784E7,3.9874624E7,0E0,0E0,6.360736E6,0E0,8.85384E6,3.177696E6,6.4946785E6,6.336886E6,1.7623708E7,1.877736E6,7.48768E6,1.3114896E7,0E0,0E0,0E0,0E0,0E0,0E0,0E0,0E0,0E0,0E0,0E0,0E0,0E0,0E0,0E0,0E0,0E0,0E0],"parents":[2147483647,0,0,1,1,2,2,3,3,4,4,5,5,6,6,8,8,9,9,10,10,11,11,12,12,15,15,17,17,18,18,19,19,20,20,21,21,22,22,23,23,24,24],"right_children":[2,4,6,8,10,12,14,-1,16,18,20,22,24,-1,-1,26,-1,28,30,32,34,36,38,40,42,-1,-1,-1,-1,-1,-1,-1,-1,-1,-1,-1,-1,-1,-1,-1,-1,-1,-1],"split_conditions":[1.878862E4,1.288127E4,3.564019E4,1.045432E4,1.987167E4,2.406189E4,4.119E4,-2.7141745E2,7.9728E4,2.8408E4,7.0932E2,2.710769E4,1.431E4,3.2121555E2,5.670986E2,7.024E3,-1.59112215E1,1.544814E4,1E0,1E0,2.006227E4,4.3887E4,2.1564E2,1E0,2.928938E4,-4.317838E1,-1.639749E2,-8.258887E1,-2.5609716E1,-1.25735596E2,-1.6008219E1,-3.8705322E1,3.245405E1,1.3682812E0,9.79653E1,7.550443E1,3.8725424E-1,1.4757204E2,3.14121E1,1.8827165E2,3.1753616E2,9.141355E1,1.8531006E2],"split_indices":[3,3,4,3,4,3,4,0,1,1,6,4,1,0,0,1,0,3,64,126,4,1,6,131,4,0,0,0,0,0,0,0,0,0,0,0,0,0,0,0,0,0,0],"split_type":[0,0,0,0,0,0,0,0,0,0,0,0,0,0,0,0,0,0,0,0,0,0,0,0,0,0,0,0,0,0,0,0,0,0,0,0,0,0,0,0,0,0,0],"sum_hessian":[2.68E2,1.54E2,1.14E2,6.9E1,8.5E1,9.5E1,1.9E1,2.9E1,4E1,5.6E1,2.9E1,5E1,4.5E1,1.1E1,8E0,3.9E1,1E0,3E1,2.6E1,2.3E1,6E0,3.7E1,1.3E1,1.9E1,2.6E1,2E0,3.7E1,1.7E1,1.3E1,2.5E1,1E0,2E1,3E0,3E0,3E0,2.6E1,1.1E1,1.2E1,1E0,9E0,1E1,9E0,1.7E1],"tree_param":{"num_deleted":"0","num_feature":"153","num_nodes":"43","size_leaf_vector":"1"}},{"base_weights":[-9.692216E1,-2.6445017E3,3.3453943E3,-5.378914E3,-1.9941641E3,1.8067649E3,5.752149E3,-3.6962265E2,-2.3257019E2,-2.6401387E3,-9.5947784E2,1.1227831E3,3.020376E3,3.5247412E3,7.3039854E3,-2.7106118E3,1.7042968E0,-6.233168E2,-1.9720366E3,6.7377747E2,2.2452688E3,3.2972212E3,7.4260876E2,3.7745066E3,1.5820287E3,1.5119046E2,7.7501953E3,-1.379766E2,2.273383E1,2.4058975E1,-2.3928654E1,5.0698466E0,-3.9250984E1,-1.0680116E2,-3.8401787E1,5.2515774E1,-6.771914E0,1.6176085E2,7.22906E1,5.0940292E1,1.7370587E2,2.7248437E0,4.7689022E1,1.935443E2,5.580834E1,9.4072945E1,1.7090958E1,4.3608316E2,2.6889392E2],"categories":[],"categories_nodes":[],"categories_segments":[],"categories_sizes":[],"default_left":[0,0,0,0,0,0,0,0,0,0,0,0,0,0,0,0,0,0,0,0,0,0,0,0,0,0,0,0,0,0,0,0,0,0,0,0,0,0,0,0,0,0,0,0,0,0,0,0,0],"id":17,"left_children":[1,3,5,7,9,11,13,-1,-1,15,17,19,21,23,25,27,29,31,33,35,37,39,41,43,45,-1,47,-1,-1,-1,-1,-1,-1,-1,-1,-1,-1,-1,-1,-1,-1,-1,-1,-1,-1,-1,-1,-1,-1],"loss_changes":[2.3503235E9,2.631296E8,4.1176013E8,8.094784E6,8.16825E7,5.5544576E7,1.2634342E8,0E0,0E0,1.4340736E7,1.5789684E7,2.2175012E7,1.3315792E7,3.732528E6,2.4310272E7,1.2868224E7,9.2112306E5,4.650009E6,7.28448E5,1.0806859E7,5.61048E6,5.327024E6,5.2916E5,3.4512E4,8.42084E5,0E0,3.796352E6,0E0,0E0,0E0,0E0,0E0,0E0,0E0,0E0,0E0,0E0,0E0,0E0,0E0,0E0,0E0,0E0,0E0,0E0,0E0,0E0,0E0,0E0],"parents":[2147483647,0,0,1,1,2,2,3,3,4,4,5,5,6,6,9,9,10,10,11,11,12,12,13,13,14,14,15,15,16,16,17,17,18,18,19,19,20,20,21,21,22,22,23,23,24,24,26,26],"right_children":[2,4,6,8,10,12,14,-1,-1,16,18,20,22,24,26,28,30,32,34,36,38,40,42,44,46,-1,48,-1,-1,-1,-1,-1,-1,-1,-1,-1,-1,-1,-1,-1,-1,-1,-1,-1,-1,-1,-1,-1,-1],"split_conditions":[2.210092E4,1.045432E4,2.634185E4,8.37016E3,1.475277E4,2.710769E4,3.979E4,-3.6962265E2,-2.3257019E2,1E0,4.3887E4,2.304622E4,2.579722E4,1E0,2.835E4,1E0,3.7358E4,1.745042E4,1.696662E4,4.118E4,2.394312E4,2.018E3,2.3737E4,3.916E4,6.0598E2,1.5119046E2,1.4474E4,-1.379766E2,2.273383E1,2.4058975E1,-2.3928654E1,5.0698466E0,-3.9250984E1,-1.0680116E2,-3.8401787E1,5.2515774E1,-6.771914E0,1.6176085E2,7.22906E1,5.0940292E1,1.7370587E2,2.7248437E0,4.7689022E1,1.935443E2,5.580834E1,9.4072945E1,1.7090958E1,4.3608316E2,2.6889392E2],"split_indices":[4,3,3,4,3,4,2,0,0,85,1,3,3,71,12,80,1,4,3,1,4,0,1,2,6,0,1,0,0,0,0,0,0,0,0,0,0,0,0,0,0,0,0,0,0,0,0,0,0],"split_type":[0,0,0,0,0,0,0,0,0,0,0,0,0,0,0,0,0,0,0,0,0,0,0,0,0,0,0,0,0,0,0,0,0,0,0,0,0,0,0,0,0,0,0,0,0,0,0,0,0],"sum_hessian":[2.66E2,1.53E2,1.13E2,2.8E1,1.25E2,7E1,4.3E1,5E0,2.3E1,7.6E1,4.9E1,4.6E1,2.4E1,1.9E1,2.4E1,7.4E1,2E0,3.8E1,1.1E1,3.4E1,1.2E1,2.1E1,3E0,1.6E1,3E0,3E0,2.1E1,7.3E1,1E0,1E0,1E0,7E0,3.1E1,9E0,2E0,2.3E1,1.1E1,4E0,8E0,2E0,1.9E1,1E0,2E0,1.5E1,1E0,2E0,1E0,1.3E1,8E0],"tree_param":{"num_deleted":"0","num_feature":"153","num_nodes":"49","size_leaf_vector":"1"}},{"base_weights":[6.0283028E1,-1.7431053E3,5.051399E3,-3.418042E3,-3.0908972E2,3.8880557E3,8.661965E3,-5.1841436E3,-2.6349185E3,-1.0445546E3,9.9578235E2,2.8189653E3,4.649359E3,9.459423E1,8.987171E3,-3.5422165E2,-2.1971675E2,-2.691719E3,2.216547E1,-6.612613E2,-2.224967E3,5.331148E2,2.0829468E3,1.809094E2,1.9325555E3,8.572866E1,4.91194E3,4.922097E2,2.0846423E2,-1.3639665E2,-1.2064004E1,-4.639043E1,-7.473668E0,-2.333046E1,-1.1555385E2,6.578354E0,5.287698E1,-1.9800968E1,1.18522766E2,1.0757422E2,2.063108E1,2.5733517E2,1.137676E2],"categories":[],"categories_nodes":[],"categories_segments":[],"categories_sizes":[],"default_left":[0,0,0,0,0,0,0,0,0,0,0,0,0,0,0,0,0,0,0,0,0,0,0,0,0,0,1,0,0,0,0,0,0,0,0,0,0,0,0,0,0,0,0],"id":18,"left_children":[1,3,5,7,9,11,13,15,17,19,21,23,25,-1,27,-1,-1,29,-1,31,33,35,37,-1,39,-1,41,-1,-1,-1,-1,-1,-1,-1,-1,-1,-1,-1,-1,-1,-1,-1,-1],"loss_changes":[2.340044E9,4.577033E8,2.561431E8,1.0804998E8,1.0084766E8,3.0843584E7,1.8222976E7,7.890048E6,1.2208768E7,2.8842184E7,1.8003124E7,1.0718048E7,1.4696E7,0E0,2.089088E7,0E0,0E0,4.843424E6,0E0,6.954828E6,1.343944E6,5.757026E6,8.778908E6,0E0,3.7706E6,0E0,5.001024E6,0E0,0E0,0E0,0E0,0E0,0E0,0E0,0E0,0E0,0E0,0E0,0E0,0E0,0E0,0E0,0E0],"parents":[2147483647,0,0,1,1,2,2,3,3,4,4,5,5,6,6,7,7,8,8,9,9,10,10,11,11,12,12,14,14,17,17,19,19,20,20,21,21,22,22,24,24,26,26],"right_children":[2,4,6,8,10,12,14,16,18,20,22,24,26,-1,28,-1,-1,30,-1,32,34,36,38,-1,40,-1,42,-1,-1,-1,-1,-1,-1,-1,-1,-1,-1,-1,-1,-1,-1,-1,-1],"split_conditions":[2.304622E4,1.365332E4,3.83245E4,1.045432E4,2.210092E4,3.0052E4,2E0,8.37016E3,1E0,5.3889E4,2.575816E4,2.3492E4,-6.5296E2,9.459423E1,1.4474E4,-3.5422165E2,-2.1971675E2,8.0846E4,2.216547E1,6.1666E2,1.381118E4,1E0,2.018E3,1.809094E2,2.021E3,8.572866E1,2.83138E4,4.922097E2,2.0846423E2,-1.3639665E2,-1.2064004E1,-4.639043E1,-7.473668E0,-2.333046E1,-1.1555385E2,6.578354E0,5.287698E1,-1.9800968E1,1.18522766E2,1.0757422E2,2.063108E1,2.5733517E2,1.137676E2],"split_indices":[3,3,4,3,4,4,10,4,80,1,4,1,6,0,1,0,0,1,0,6,3,116,0,0,0,0,24,0,0,0,0,0,0,0,0,0,0,0,0,0,0,0,0],"split_type":[0,0,0,0,0,0,0,0,0,0,0,0,0,0,0,0,0,0,0,0,0,0,0,0,0,0,0,0,0,0,0,0,0,0,0,0,0,0,0,0,0,0,0],"sum_hessian":[2.58E2,1.9E2,6.8E1,8.7E1,1.03E2,5.3E1,1.5E1,2.5E1,6.2E1,6.6E1,3.7E1,2.4E1,2.9E1,1E0,1.4E1,5E0,2E1,6.1E1,1E0,5.1E1,1.5E1,2.7E1,1E1,1.1E1,1.3E1,3E0,2.6E1,1.1E1,3E0,6E1,1E0,3.3E1,1.8E1,1E0,1.4E1,1.6E1,1.1E1,1E0,9E0,1.1E1,2E0,2.3E1,3E0],"tree_param":{"num_deleted":"0","num_feature":"153","num_nodes":"43","size_leaf_vector":"1"}},{"base_weights":[8.077377E1,-2.4214106E3,3.4857778E3,-3.9435403E3,-1.4685762E3,1.9022197E3,5.928933E3,-2.9680917E2,-3.3813074E3,-1.919429E3,-6.043385E2,3.7069287E3,1.3555602E3,4.7611562E3,4.8408765E2,-1.7229948E2,-1.1762393E1,-2.0010891E3,2.9911053E2,-8.390113E2,3.8714755E2,4.1657627E3,1.4036693E3,6.184668E2,2.0972122E3,5.1704585E3,2.7846045E3,-1.0734613E2,-4.1062588E1,-6.95458E0,2.9390371E1,-6.0263638E1,-4.7914824E0,-1.5335441E1,2.7696253E1,4.2560295E1,2.1948473E2,1.7693693E1,8.1780495E1,5.1258216E0,5.2939137E1,1.0906901E2,-1.7215821E-1,1.1564922E2,2.715632E2,3.8592083E1,1.4809323E2],"categories":[],"categories_nodes":[],"categories_segments":[],"categories_sizes":[],"default_left":[0,0,0,0,0,0,0,0,0,0,0,0,0,0,0,0,0,0,0,0,0,0,0,0,0,0,0,0,0,0,0,0,0,0,0,0,0,0,0,0,0,0,0,0,0,0,0],"id":19,"left_children":[1,3,5,7,9,11,13,-1,15,17,19,21,23,25,-1,-1,-1,27,29,31,33,35,37,39,41,43,45,-1,-1,-1,-1,-1,-1,-1,-1,-1,-1,-1,-1,-1,-1,-1,-1,-1,-1,-1,-1],"loss_changes":[2.1725074E9,2.0740762E8,4.0656E8,4.2665536E7,3.468701E7,6.1074144E7,1.3796531E8,0E0,8.549728E6,1.1468704E7,8.003133E6,1.0004304E7,2.7676016E7,1.3107776E7,0E0,0E0,0E0,8.216E6,4.6132672E5,7.233736E6,9.799559E5,5.16976E6,3.949625E5,6.252412E6,4.604728E6,7.558464E6,5.67796E5,0E0,0E0,0E0,0E0,0E0,0E0,0E0,0E0,0E0,0E0,0E0,0E0,0E0,0E0,0E0,0E0,0E0,0E0,0E0,0E0],"parents":[2147483647,0,0,1,1,2,2,3,3,4,4,5,5,6,6,8,8,9,9,10,10,11,11,12,12,13,13,17,17,18,18,19,19,20,20,21,21,22,22,23,23,24,24,25,25,26,26],"right_children":[2,4,6,8,10,12,14,-1,16,18,20,22,24,26,-1,-1,-1,28,30,32,34,36,38,40,42,44,46,-1,-1,-1,-1,-1,-1,-1,-1,-1,-1,-1,-1,-1,-1,-1,-1,-1,-1,-1,-1],"split_conditions":[2.1529E4,1.204959E4,2.634185E4,8.1626E3,1.883166E4,1.4767E4,3.612285E4,-2.9680917E2,1.21652E5,1.696662E4,1E0,1E0,2.575816E4,3.7999E4,4.8408765E2,-1.7229948E2,-1.1762393E1,1E0,2.324E3,1E0,1.965179E4,3.375E3,1.958188E4,1E0,1E0,2.65E4,2.656621E4,-1.0734613E2,-4.1062588E1,-6.95458E0,2.9390371E1,-6.0263638E1,-4.7914824E0,-1.5335441E1,2.7696253E1,4.2560295E1,2.1948473E2,1.7693693E1,8.1780495E1,5.1258216E0,5.2939137E1,1.0906901E2,-1.7215821E-1,1.1564922E2,2.715632E2,3.8592083E1,1.4809323E2],"split_indices":[5,3,3,3,5,1,3,0,1,3,124,36,5,1,0,0,0,33,1,36,5,1,3,35,70,12,3,0,0,0,0,0,0,0,0,0,0,0,0,0,0,0,0,0,0,0,0],"split_type":[0,0,0,0,0,0,0,0,0,0,0,0,0,0,0,0,0,0,0,0,0,0,0,0,0,0,0,0,0,0,0,0,0,0,0,0,0,0,0,0,0,0,0,0,0,0,0],"sum_hessian":[2.53E2,1.46E2,1.07E2,5.5E1,9.1E1,6.6E1,4.1E1,1E1,4.5E1,5.9E1,3.2E1,1.4E1,5.2E1,3.3E1,8E0,4.4E1,1E0,5.7E1,2E0,2.6E1,6E0,1.1E1,3E0,2.7E1,2.5E1,2.6E1,7E0,5E1,7E0,1E0,1E0,1.7E1,9E0,1E0,5E0,1E0,1E1,1E0,2E0,1.3E1,1.4E1,2.4E1,1E0,3E0,2.3E1,1E0,6E0],"tree_param":{"num_deleted":"0","num_feature":"153","num_nodes":"47","size_leaf_vector":"1"}},{"base_weights":[-5.6416904E1,-2.22742E3,2.9440266E3,-3.845728E3,-1.3474415E3,1.841749E3,5.822038E3,-3.0485736E2,-3.3705718E3,-1.8299172E3,-6.6532227E2,1.1175892E3,3.0355645E3,4.5383525E3,4.3924338E2,-1.7176385E2,-1.1468349E1,-2.0635688E3,-8.623789E2,-5.0824323E2,-1.0348787E2,5.786057E2,1.9510275E3,3.9140054E3,1.5857494E3,4.634021E3,6.083871E1,-3.141276E1,-1.09265236E2,-1.2873413E1,-6.720391E1,3.8591076E1,-2.9796438E1,4.8238106E0,5.4241615E1,1.0500515E2,-2.2032658E1,1.17033745E2,2.1695364E2,1.343794E0,1.025357E2,6.724774E1,2.3632964E2],"categories":[],"categories_nodes":[],"categories_segments":[],"categories_sizes":[],"default_left":[0,0,0,0,0,0,0,0,0,0,0,0,0,0,0,0,0,0,0,0,0,0,0,0,0,0,0,0,0,0,0,0,0,0,0,0,0,0,0,0,0,0,0],"id":20,"left_children":[1,3,5,7,9,11,13,-1,15,17,19,21,23,25,-1,-1,-1,27,29,31,-1,33,35,37,39,41,-1,-1,-1,-1,-1,-1,-1,-1,-1,-1,-1,-1,-1,-1,-1,-1,-1],"loss_changes":[1.7067043E9,2.1127712E8,3.3823686E8,3.614624E7,3.1692864E7,6.663267E7,7.423008E7,0E0,8.561312E6,1.1332E7,8.433918E6,2.2229764E7,3.2000128E7,1.6696E6,0E0,0E0,0E0,6.66432E6,3.441788E6,4.94966E6,0E0,7.949424E6,8.0564E6,1.880864E6,9.367346E6,3.40768E5,0E0,0E0,0E0,0E0,0E0,0E0,0E0,0E0,0E0,0E0,0E0,0E0,0E0,0E0,0E0,0E0,0E0],"parents":[2147483647,0,0,1,1,2,2,3,3,4,4,5,5,6,6,8,8,9,9,10,10,11,11,12,12,13,13,17,17,18,18,19,19,21,21,22,22,23,23,24,24,25,25],"right_children":[2,4,6,8,10,12,14,-1,16,18,20,22,24,26,-1,-1,-1,28,30,32,-1,34,36,38,40,42,-1,-1,-1,-1,-1,-1,-1,-1,-1,-1,-1,-1,-1,-1,-1,-1,-1],"split_conditions":[2.210092E4,1.196973E4,3.194374E4,7.86412E3,1.547205E4,2.397581E4,4.018291E4,-3.0485736E2,1.21652E5,1.694228E4,6.424E4,2.588958E4,2.3492E4,1.72779E3,4.3924338E2,-1.7176385E2,-1.1468349E1,1.473E4,2.4995E4,1.56617E4,-1.0348787E2,3.2245E4,4.1495E4,3.504E4,2.486E4,-1.47575E3,6.083871E1,-3.141276E1,-1.09265236E2,-1.2873413E1,-6.720391E1,3.8591076E1,-2.9796438E1,4.8238106E0,5.4241615E1,1.0500515E2,-2.2032658E1,1.17033745E2,2.1695364E2,1.343794E0,1.025357E2,6.724774E1,2.3632964E2],"split_indices":[4,3,4,3,3,3,4,0,1,4,1,4,1,6,0,0,0,1,2,3,0,2,2,2,1,6,0,0,0,0,0,0,0,0,0,0,0,0,0,0,0,0,0],"split_type":[0,0,0,0,0,0,0,0,0,0,0,0,0,0,0,0,0,0,0,0,0,0,0,0,0,0,0,0,0,0,0,0,0,0,0,0,0,0,0,0,0,0,0],"sum_hessian":[2.6E2,1.51E2,1.09E2,5.2E1,9.9E1,8E1,2.9E1,7E0,4.5E1,5.7E1,4.2E1,5.1E1,2.9E1,2.2E1,7E0,4.4E1,1E0,4.5E1,1.2E1,3.9E1,3E0,3.2E1,1.9E1,1.7E1,1.2E1,2.1E1,1E0,4E0,4.1E1,6E0,6E0,2E0,3.7E1,1.7E1,1.5E1,1.8E1,1E0,5E0,1.2E1,3E0,9E0,1E0,2E1],"tree_param":{"num_deleted":"0","num_feature":"153","num_nodes":"43","size_leaf_vector":"1"}},{"base_weights":[1.775835E2,-1.9087509E3,3.4930803E3,-4.2874917E3,-1.367588E3,2.559926E3,7.336527E3,-2.8147406E2,-1.7540912E2,-1.951873E3,-3.8200684E2,1.1779196E3,3.4666238E3,5.3858267E3,4.6727496E2,-2.0493015E3,4.602841E2,-6.4039813E2,8.6625323E2,-1.6725482E2,1.415617E3,2.4427502E3,4.0336487E3,7.421893E1,2.8027756E2,-1.0376044E2,-7.112207E-1,4.044075E1,-1.4630216E1,-2.3194426E1,-9.268857E1,6.024595E1,-4.6074306E1,-4.419371E1,2.0599922E1,-2.4744135E1,7.877341E1,1.4081E2,3.7957047E1,1.046418E2,2.215823E2],"categories":[],"categories_nodes":[],"categories_segments":[],"categories_sizes":[],"default_left":[0,0,0,0,0,0,0,0,0,0,0,0,0,0,0,0,0,1,0,0,0,0,0,0,0,0,0,0,0,0,0,0,0,0,0,0,0,0,0,0,0],"id":21,"left_children":[1,3,5,7,9,11,13,-1,-1,15,17,19,21,23,-1,25,27,29,31,33,35,37,39,-1,-1,-1,-1,-1,-1,-1,-1,-1,-1,-1,-1,-1,-1,-1,-1,-1,-1],"loss_changes":[1.7913142E9,1.9881446E8,3.3987098E8,1.057872E7,7.469184E7,9.86672E7,2.412448E7,0E0,0E0,2.0214464E7,1.66817E7,1.11082E7,1.85936E7,1.96544E6,0E0,4.135424E6,1.2863338E6,8.13505E6,6.5593575E6,2.8548265E6,9.636256E6,1.0436616E7,1.3897824E7,0E0,0E0,0E0,0E0,0E0,0E0,0E0,0E0,0E0,0E0,0E0,0E0,0E0,0E0,0E0,0E0,0E0,0E0],"parents":[2147483647,0,0,1,1,2,2,3,3,4,4,5,5,6,6,9,9,10,10,11,11,12,12,13,13,15,15,16,16,17,17,18,18,19,19,20,20,21,21,22,22],"right_children":[2,4,6,8,10,12,14,-1,-1,16,18,20,22,24,-1,26,28,30,32,34,36,38,40,-1,-1,-1,-1,-1,-1,-1,-1,-1,-1,-1,-1,-1,-1,-1,-1,-1,-1],"split_conditions":[2.275006E4,1.045432E4,3.789E4,7.86412E3,1.547205E4,2.710769E4,4.612997E4,-2.8147406E2,-1.7540912E2,1E0,1.979154E4,1.878862E4,3.5655E4,2E0,4.6727496E2,1E0,1.528499E4,1.7325E4,1.1E1,3.0695E4,2.09E2,2.023E3,2.398351E4,7.421893E1,2.8027756E2,-1.0376044E2,-7.112207E-1,4.044075E1,-1.4630216E1,-2.3194426E1,-9.268857E1,6.024595E1,-4.6074306E1,-4.419371E1,2.0599922E1,-2.4744135E1,7.877341E1,1.4081E2,3.7957047E1,1.046418E2,2.215823E2],"split_indices":[4,3,4,3,3,4,4,0,0,124,3,3,2,10,0,76,3,17,10,2,26,9,3,0,0,0,0,0,0,0,0,0,0,0,0,0,0,0,0,0,0],"split_type":[0,0,0,0,0,0,0,0,0,0,0,0,0,0,0,0,0,0,0,0,0,0,0,0,0,0,0,0,0,0,0,0,0,0,0,0,0,0,0,0,0],"sum_hessian":[2.57E2,1.58E2,9.9E1,2.8E1,1.3E2,8.1E1,1.8E1,8E0,2E1,8.1E1,4.9E1,3.3E1,4.8E1,1.1E1,7E0,7.8E1,3E0,4.1E1,8E0,5E0,2.8E1,1.9E1,2.9E1,1E0,1E1,7.7E1,1E0,2E0,1E0,3.7E1,4E0,7E0,1E0,2E0,3E0,2E0,2.6E1,1.5E1,4E0,6E0,2.3E1],"tree_param":{"num_deleted":"0","num_feature":"153","num_nodes":"41","size_leaf_vector":"1"}},{"base_weights":[2.0309172E2,-1.9890431E3,2.8590164E3,-4.2440684E3,-1.4968524E3,1.7677417E3,5.24049E3,-2.8818015E2,-1.7086755E2,-1.9039655E3,-8.536404E2,1.2876061E3,3.3233286E3,4.151146E3,4.502416E2,-2.0380195E3,-6.27038E2,-5.2461163E2,-1.8528491E3,7.171736E2,2.0498484E3,2.2951614E3,2.4985599E2,5.9198658E1,4.327082E3,-6.341504E1,-1.098692E2,2.767426E1,-4.373839E1,1.2295579E1,-3.595416E1,-2.41519E1,-1.0517848E2,2.1597925E1,7.220243E1,1.2147943E1,1.0951475E2,6.614501E1,1.3687248E2,2.2144243E2,4.2026016E1],"categories":[],"categories_nodes":[],"categories_segments":[],"categories_sizes":[],"default_left":[0,0,0,0,0,0,0,0,0,0,0,0,0,0,0,0,0,0,0,0,0,0,0,0,0,0,0,0,0,0,0,0,0,0,0,0,0,0,0,0,0],"id":22,"left_children":[1,3,5,7,9,11,13,-1,-1,15,17,19,21,23,-1,25,27,29,31,33,35,37,-1,-1,39,-1,-1,-1,-1,-1,-1,-1,-1,-1,-1,-1,-1,-1,-1,-1,-1],"loss_changes":[1.4554008E9,1.4570336E8,2.8440467E8,1.0452192E7,2.8226464E7,5.4724896E7,1.0614157E8,0E0,0E0,1.0533056E7,1.4151082E7,2.5487696E7,1.9506944E7,1.00152E7,0E0,4.817984E6,2.823809E6,5.571291E6,2.761472E6,7.046726E6,6.065672E6,1.968472E6,0E0,0E0,5.857024E6,0E0,0E0,0E0,0E0,0E0,0E0,0E0,0E0,0E0,0E0,0E0,0E0,0E0,0E0,0E0,0E0],"parents":[2147483647,0,0,1,1,2,2,3,3,4,4,5,5,6,6,9,9,10,10,11,11,12,12,13,13,15,15,16,16,17,17,18,18,19,19,20,20,21,21,24,24],"right_children":[2,4,6,8,10,12,14,-1,-1,16,18,20,22,24,-1,26,28,30,32,34,36,38,-1,-1,40,-1,-1,-1,-1,-1,-1,-1,-1,-1,-1,-1,-1,-1,-1,-1,-1],"split_conditions":[2.150164E4,1.045432E4,3.194374E4,8.60283E3,1.504496E4,8.7949E2,4.612997E4,-2.8818015E2,-1.7086755E2,2.019E3,5.3889E4,2.707876E4,1E0,-1.47575E3,4.502416E2,2.5817E4,1.294356E4,1.745042E4,1.664866E4,2.304622E4,2.7835E4,2.52565E4,2.4985599E2,5.9198658E1,1E0,-6.341504E1,-1.098692E2,2.767426E1,-4.373839E1,1.2295579E1,-3.595416E1,-2.41519E1,-1.0517848E2,2.1597925E1,7.220243E1,1.2147943E1,1.0951475E2,6.614501E1,1.3687248E2,2.2144243E2,4.2026016E1],"split_indices":[4,3,4,4,3,6,4,0,0,0,1,4,131,6,0,1,3,4,4,3,2,4,0,0,124,0,0,0,0,0,0,0,0,0,0,0,0,0,0,0,0],"split_type":[0,0,0,0,0,0,0,0,0,0,0,0,0,0,0,0,0,0,0,0,0,0,0,0,0,0,0,0,0,0,0,0,0,0,0,0,0,0,0,0,0],"sum_hessian":[2.48E2,1.36E2,1.12E2,2.3E1,1.13E2,7.8E1,3.4E1,6E0,1.7E1,6.8E1,4.5E1,6.1E1,1.7E1,2.8E1,6E0,6.1E1,7E0,3.5E1,1E1,3.6E1,2.5E1,1.2E1,5E0,2E0,2.6E1,1.2E1,4.9E1,1E0,6E0,7E0,2.8E1,2E0,8E0,2.7E1,9E0,2E0,2.3E1,5E0,7E0,2.5E1,1E0],"tree_param":{"num_deleted":"0","num_feature":"153","num_nodes":"41","size_leaf_vector":"1"}},{"base_weights":[-2.0357744E1,-1.7901434E3,2.869295E3,-3.3569246E3,-9.827002E2,2.060852E3,6.883756E3,-5.497867E3,-2.9210828E3,-1.4123616E3,-1.316528E2,1.0785034E3,2.8275542E3,2.2143994E2,8.301066E3,-2.9129224E2,-8.004809E1,-3.3540054E3,-2.4424106E3,-8.839561E2,-1.7774374E3,3.7842575E2,-3.6201395E2,6.174679E2,2.0259497E3,3.4583699E3,1.9118942E3,4.377175E2,1.16867615E2,-1.7108102E2,-4.8349747E1,-2.129103E1,-1.2530187E2,-6.301412E1,-4.2573137E0,-9.3195885E1,-3.0340917E0,-1.5670479E1,3.21936E1,1.6658916E1,-2.7170317E1,-8.005424E0,4.236308E1,1.0816244E2,1.2889005E1,9.467519E1,1.8703928E2,-3.0610301E0,1.12207664E2],"categories":[],"categories_nodes":[],"categories_segments":[],"categories_sizes":[],"default_left":[0,0,0,0,0,0,0,0,0,0,0,0,0,0,0,0,0,0,0,0,0,0,0,0,0,0,0,0,0,0,0,0,0,0,0,0,0,0,0,0,0,0,0,0,0,0,0,0,0],"id":23,"left_children":[1,3,5,7,9,11,13,15,17,19,21,23,25,-1,27,-1,-1,29,31,33,35,37,39,41,43,45,47,-1,-1,-1,-1,-1,-1,-1,-1,-1,-1,-1,-1,-1,-1,-1,-1,-1,-1,-1,-1,-1,-1],"loss_changes":[1.3194514E9,1.9911466E8,3.0386803E8,3.4327424E7,3.893976E7,5.9463104E7,1.8905984E7,8.97088E5,1.547296E6,1.2125008E7,4.484578E6,1.534742E7,1.9957632E7,0E0,3.866176E6,0E0,0E0,2.41616E5,2.268608E6,9.211562E6,5.973784E6,2.4055692E6,3.4597392E6,4.96014E6,2.355332E6,4.406752E6,1.3904896E7,0E0,0E0,0E0,0E0,0E0,0E0,0E0,0E0,0E0,0E0,0E0,0E0,0E0,0E0,0E0,0E0,0E0,0E0,0E0,0E0,0E0,0E0],"parents":[2147483647,0,0,1,1,2,2,3,3,4,4,5,5,6,6,7,7,8,8,9,9,10,10,11,11,12,12,14,14,17,17,18,18,19,19,20,20,21,21,22,22,23,23,24,24,25,25,26,26],"right_children":[2,4,6,8,10,12,14,16,18,20,22,24,26,-1,28,-1,-1,30,32,34,36,38,40,42,44,46,48,-1,-1,-1,-1,-1,-1,-1,-1,-1,-1,-1,-1,-1,-1,-1,-1,-1,-1,-1,-1,-1,-1],"split_conditions":[2.278202E4,1.196973E4,3.789E4,8.60283E3,1.941137E4,2.406189E4,4.018291E4,2.015E3,1.045432E4,2.8408E4,2.0918E4,2.776409E4,2.3492E4,2.2143994E2,1E0,-2.9129224E2,-8.004809E1,1E0,1.047726E4,1.544814E4,1E0,1.987167E4,2.4415E4,2.021E3,1E0,3.424E4,2.486E4,4.377175E2,1.16867615E2,-1.7108102E2,-4.8349747E1,-2.129103E1,-1.2530187E2,-6.301412E1,-4.2573137E0,-9.3195885E1,-3.0340917E0,-1.5670479E1,3.21936E1,1.6658916E1,-2.7170317E1,-8.005424E0,4.236308E1,1.0816244E2,1.2889005E1,9.467519E1,1.8703928E2,-3.0610301E0,1.12207664E2],"split_indices":[4,3,4,4,4,3,4,0,3,1,1,4,1,0,36,0,0,117,3,3,126,4,2,9,47,2,1,0,0,0,0,0,0,0,0,0,0,0,0,0,0,0,0,0,0,0,0,0,0],"split_type":[0,0,0,0,0,0,0,0,0,0,0,0,0,0,0,0,0,0,0,0,0,0,0,0,0,0,0,0,0,0,0,0,0,0,0,0,0,0,0,0,0,0,0,0,0,0,0,0,0],"sum_hessian":[2.56E2,1.59E2,9.7E1,5.3E1,1.06E2,8.2E1,1.5E1,7E0,4.6E1,7E1,3.6E1,3.7E1,4.5E1,7E0,8E0,6E0,1E0,2.1E1,2.5E1,3E1,4E1,1.1E1,2.5E1,2.6E1,1.1E1,2.5E1,2E1,7E0,1E0,2E1,1E0,1E0,2.4E1,2E1,1E1,3.8E1,2E0,3E0,8E0,5E0,2E1,6E0,2E1,1E1,1E0,5E0,2E1,3E0,1.7E1],"tree_param":{"num_deleted":"0","num_feature":"153","num_nodes":"49","size_leaf_vector":"1"}},{"base_weights":[1.6595905E1,-1.7110309E3,2.8007664E3,-3.7063708E3,-1.2616051E3,2.074144E3,5.9040303E3,-4.1677197E3,-1.2653014E2,-1.820948E3,-5.3486554E2,1.0602958E3,2.9947666E3,6.1291393E1,6.095823E3,-2.2203593E2,-9.827605E1,-1.8586791E3,2.6162832E1,-8.9016724E2,-8.432183E1,1.33259E3,-8.6170746E1,1.0845061E3,3.3268535E3,1.5417679E2,6.492705E3,-1.5646396E1,-9.48113E1,8.075611E0,-5.606495E1,1.8019188E1,-3.1258661E1,7.294219E1,-2.2914057E1,2.382923E1,-4.54393E1,-1.7904688E0,6.248405E1,1.0959893E2,2.0435678E2,1.8462578E2,3.5876318E2],"categories":[],"categories_nodes":[],"categories_segments":[],"categories_sizes":[],"default_left":[0,0,0,0,0,0,0,0,0,0,0,1,0,0,0,0,0,0,0,0,0,0,0,0,0,0,0,0,0,0,0,0,0,0,0,0,0,0,0,0,0,0,0],"id":24,"left_children":[1,3,5,7,9,11,13,15,-1,17,19,21,23,-1,25,-1,-1,27,-1,29,31,33,35,37,39,-1,41,-1,-1,-1,-1,-1,-1,-1,-1,-1,-1,-1,-1,-1,-1,-1,-1],"loss_changes":[1.2938742E9,1.4418525E8,2.200082E8,5.725696E6,5.471584E7,7.616086E7,9.574528E6,3.294976E6,0E0,7.783312E6,9.689656E6,1.3226352E7,2.4303936E7,0E0,1.49792E6,0E0,0E0,3.817296E6,0E0,8.445802E6,6.959878E6,8.356212E6,4.599537E6,1.525257E6,2.296496E7,0E0,2.173568E6,0E0,0E0,0E0,0E0,0E0,0E0,0E0,0E0,0E0,0E0,0E0,0E0,0E0,0E0,0E0,0E0],"parents":[2147483647,0,0,1,1,2,2,3,3,4,4,5,5,6,6,7,7,9,9,10,10,11,11,12,12,14,14,17,17,19,19,20,20,21,21,22,22,23,23,24,24,26,26],"right_children":[2,4,6,8,10,12,14,16,-1,18,20,22,24,-1,26,-1,-1,28,-1,30,32,34,36,38,40,-1,42,-1,-1,-1,-1,-1,-1,-1,-1,-1,-1,-1,-1,-1,-1,-1,-1],"split_conditions":[1.902206E4,1.045432E4,3.564019E4,1E0,1.504496E4,2.406189E4,3.0875E4,1.26969E3,-1.2653014E2,2.052813E4,1.998372E4,8.6E1,-5.6547E2,6.1291393E1,3.850781E4,-2.2203593E2,-9.827605E1,1.051111E4,2.6162832E1,1.652463E4,1.776201E4,1E0,1.005519E2,2.7835E4,3.5595E4,1.5417679E2,-4.5437E2,-1.5646396E1,-9.48113E1,8.075611E0,-5.606495E1,1.8019188E1,-3.1258661E1,7.294219E1,-2.2914057E1,2.382923E1,-4.54393E1,-1.7904688E0,6.248405E1,1.0959893E2,2.0435678E2,1.8462578E2,3.5876318E2],"split_indices":[3,3,4,61,3,3,14,6,0,4,4,26,6,0,4,0,0,3,0,4,3,100,28,2,2,0,6,0,0,0,0,0,0,0,0,0,0,0,0,0,0,0,0],"split_type":[0,0,0,0,0,0,0,0,0,0,0,0,0,0,0,0,0,0,0,0,0,0,0,0,0,0,0,0,0,0,0,0,0,0,0,0,0,0,0,0,0,0,0],"sum_hessian":[2.67E2,1.65E2,1.02E2,2.9E1,1.36E2,8.4E1,1.8E1,1.9E1,1E1,7.6E1,6E1,4.1E1,4.3E1,1E0,1.7E1,1.6E1,3E0,7.5E1,1E0,3.3E1,2.7E1,3.3E1,8E0,7E0,3.6E1,3E0,1.4E1,2E0,7.3E1,6E0,2.7E1,1.5E1,1.2E1,3.1E1,2E0,5E0,3E0,1E0,6E0,1.6E1,2E1,4E0,1E1],"tree_param":{"num_deleted":"0","num_feature":"153","num_nodes":"43","size_leaf_vector":"1"}},{"base_weights":[1.4201357E2,-1.6405178E3,2.5999326E3,-3.0312495E3,-1.0662927E3,1.9068572E3,6.4659316E3,-3.7649624E3,-2.406704E3,-1.415515E3,-1.2276828E2,9.841658E2,2.8691887E3,7.0727554E3,1.4386235E2,-1.9712016E2,-7.81796E1,-2.4992607E3,-2.3171778E0,-1.5985336E3,-8.7698474E2,4.427352E2,-3.485348E2,-5.322714E2,1.1307906E3,3.720858E3,2.1635962E3,3.6561105E2,1.0497689E2,-1.2847234E2,-2.0367594E1,-2.5261473E1,-8.469705E1,-6.8880486E0,-5.727887E1,4.1605316E1,5.467428E0,-2.5580576E1,4.2739414E1,2.093422E1,-4.373532E1,-1.285543E0,6.2212482E1,1.2041793E2,2.2282259E2,4.1301266E1,1.2532101E2],"categories":[],"categories_nodes":[],"categories_segments":[],"categories_sizes":[],"default_left":[0,0,0,0,0,0,0,0,0,0,0,0,0,0,0,0,0,0,0,0,0,0,0,0,0,0,0,0,0,0,0,0,0,0,0,0,0,0,0,0,0,0,0,0,0,0,0],"id":25,"left_children":[1,3,5,7,9,11,13,15,17,19,21,23,25,27,-1,-1,-1,29,-1,31,33,35,37,39,41,43,45,-1,-1,-1,-1,-1,-1,-1,-1,-1,-1,-1,-1,-1,-1,-1,-1,-1,-1,-1,-1],"loss_changes":[1.1258828E9,1.1575776E8,2.7704787E8,1.0642432E7,3.5082536E7,7.975386E7,1.4492032E7,8.6616E5,5.564048E6,6.285632E6,3.9844515E6,1.1496972E7,1.8990912E7,1.28704E5,0E0,0E0,0E0,2.623584E6,0E0,5.089584E6,4.210156E6,1.0772166E6,4.754433E6,1.9944745E6,5.936808E6,7.610432E6,1.0310176E7,0E0,0E0,0E0,0E0,0E0,0E0,0E0,0E0,0E0,0E0,0E0,0E0,0E0,0E0,0E0,0E0,0E0,0E0,0E0,0E0],"parents":[2147483647,0,0,1,1,2,2,3,3,4,4,5,5,6,6,7,7,8,8,9,9,10,10,11,11,12,12,13,13,17,17,19,19,20,20,21,21,22,22,23,23,24,24,25,25,26,26],"right_children":[2,4,6,8,10,12,14,16,18,20,22,24,26,28,-1,-1,-1,30,-1,32,34,36,38,40,42,44,46,-1,-1,-1,-1,-1,-1,-1,-1,-1,-1,-1,-1,-1,-1,-1,-1,-1,-1,-1,-1],"split_conditions":[1.878862E4,1.16304E4,3.582492E4,9.42753E3,1.987167E4,2.450057E4,1.4474E4,1.26969E3,1.21652E5,1.52973E4,2.4995E4,2.3375E4,1.431E4,1E0,1.4386235E2,-1.9712016E2,-7.81796E1,1.437494E4,-2.3171778E0,1.473E4,1.745042E4,1.56617E4,2.397996E4,4.0899E4,-7.7825E2,3.8085E4,-5.6547E2,3.6561105E2,1.0497689E2,-1.2847234E2,-2.0367594E1,-2.5261473E1,-8.469705E1,-6.8880486E0,-5.727887E1,4.1605316E1,5.467428E0,-2.5580576E1,4.2739414E1,2.093422E1,-4.373532E1,-1.285543E0,6.2212482E1,1.2041793E2,2.2282259E2,4.1301266E1,1.2532101E2],"split_indices":[3,3,4,3,4,3,1,6,1,3,2,16,1,36,0,0,0,4,0,1,4,3,4,1,6,2,6,0,0,0,0,0,0,0,0,0,0,0,0,0,0,0,0,0,0,0,0],"split_type":[0,0,0,0,0,0,0,0,0,0,0,0,0,0,0,0,0,0,0,0,0,0,0,0,0,0,0,0,0,0,0,0,0,0,0,0,0,0,0,0,0,0,0,0,0,0,0],"sum_hessian":[2.55E2,1.48E2,1.07E2,4.2E1,1.06E2,9.2E1,1.5E1,1.7E1,2.5E1,7.7E1,2.9E1,4.8E1,4.4E1,1.2E1,3E0,1.5E1,2E0,2.4E1,1E0,5.6E1,2.1E1,8E0,2.1E1,4E0,4.4E1,1.8E1,2.6E1,1.1E1,1E0,2.3E1,1E0,5E0,5.1E1,6E0,1.5E1,3E0,5E0,1.9E1,2E0,1E0,3E0,4E0,4E1,8E0,1E1,6E0,2E1],"tree_param":{"num_deleted":"0","num_feature":"153","num_nodes":"47","size_leaf_vector":"1"}},{"base_weights":[2.078148E2,-1.2566615E3,3.01925E3,-2.0583142E3,-1.7803009E2,2.4715667E3,7.0987803E3,-1.6339615E2,-1.8003363E3,-6.0834155E2,5.1066843E2,1.1184231E3,2.9655432E3,3.7163113E2,1.0235248E2,-2.5348228E3,-1.4938835E3,-1.4548647E2,-1.1066569E3,1.7276929E2,2.0980105E3,1.5525363E3,1.103813E2,1.9779279E3,3.5141409E3,-1.3558527E2,-2.2583555E1,-9.254281E1,-3.6289745E1,-2.2485708E1,1.4129321E1,-3.5140644E1,-7.232998E1,2.5306402E1,-1.1526919E1,1.2943982E2,3.3691795E0,2.4944645E1,9.31084E1,2.2957827E1,-3.1196478E1,1.1295686E2,4.0231426E1,1.9764867E2,1.21683105E2],"categories":[],"categories_nodes":[],"categories_segments":[],"categories_sizes":[],"default_left":[0,0,0,0,0,0,0,0,0,0,0,0,0,0,0,0,0,0,0,0,0,0,0,0,0,0,0,0,0,0,0,0,0,0,0,0,0,0,0,0,0,0,0,0,0],"id":26,"left_children":[1,3,5,7,9,11,13,-1,15,17,19,21,23,-1,-1,25,27,29,31,33,35,37,39,41,43,-1,-1,-1,-1,-1,-1,-1,-1,-1,-1,-1,-1,-1,-1,-1,-1,-1,-1,-1,-1],"loss_changes":[1.07016986E9,1.4749494E8,1.8130573E8,2.4697216E7,2.2240932E7,5.0156576E7,1.648928E6,0E0,1.4894944E7,1.044867E7,1.5191785E7,9.89336E6,2.4473344E7,0E0,0E0,7.24976E6,1.5381776E7,3.3828908E6,2.00334E6,3.477863E6,4.808306E6,4.290604E6,2.3353402E6,5.770608E6,7.448544E6,0E0,0E0,0E0,0E0,0E0,0E0,0E0,0E0,0E0,0E0,0E0,0E0,0E0,0E0,0E0,0E0,0E0,0E0,0E0,0E0],"parents":[2147483647,0,0,1,1,2,2,3,3,4,4,5,5,6,6,8,8,9,9,10,10,11,11,12,12,15,15,16,16,17,17,18,18,19,19,20,20,21,21,22,22,23,23,24,24],"right_children":[2,4,6,8,10,12,14,-1,16,18,20,22,24,-1,-1,26,28,30,32,34,36,38,40,42,44,-1,-1,-1,-1,-1,-1,-1,-1,-1,-1,-1,-1,-1,-1,-1,-1,-1,-1,-1,-1],"split_conditions":[2.50584E4,1.694228E4,4.119E4,1.060365E4,2.150164E4,2.776409E4,1E0,-1.6339615E2,2.02E3,2.6865E4,3.5195E4,3.4772E4,3.5655E4,3.7163113E2,1.0235248E2,1E0,2.5295E4,1.995549E4,3.494E4,7E0,4.3887E4,2.8515E4,1E0,2.023E3,2.956E4,-1.3558527E2,-2.2583555E1,-9.254281E1,-3.6289745E1,-2.2485708E1,1.4129321E1,-3.5140644E1,-7.232998E1,2.5306402E1,-1.1526919E1,1.2943982E2,3.3691795E0,2.4944645E1,9.31084E1,2.2957827E1,-3.1196478E1,1.1295686E2,4.0231426E1,1.9764867E2,1.21683105E2],"split_indices":[4,4,4,4,4,4,36,0,9,2,2,1,2,0,0,33,2,4,1,10,1,2,8,9,1,0,0,0,0,0,0,0,0,0,0,0,0,0,0,0,0,0,0,0,0],"split_type":[0,0,0,0,0,0,0,0,0,0,0,0,0,0,0,0,0,0,0,0,0,0,0,0,0,0,0,0,0,0,0,0,0,0,0,0,0,0,0,0,0,0,0,0,0],"sum_hessian":[2.58E2,1.7E2,8.8E1,9.7E1,7.3E1,7.9E1,9E0,1.5E1,8.2E1,4.5E1,2.8E1,2.2E1,5.7E1,8E0,1E0,2.2E1,6E1,2.4E1,2.1E1,2.4E1,4E0,1.5E1,7E0,2.2E1,3.5E1,2E1,2E0,4E1,2E1,1.4E1,1E1,1.1E1,1E1,1.3E1,1.1E1,3E0,1E0,4E0,1.1E1,5E0,2E0,1.7E1,5E0,2.3E1,1.2E1],"tree_param":{"num_deleted":"0","num_feature":"153","num_nodes":"45","size_leaf_vector":"1"}},{"base_weights":[-1.6895302E1,-1.5410464E3,2.3867354E3,-2.7403533E3,-9.107499E2,1.7462346E3,6.0706167E3,-2.3133585E2,-2.3764478E3,-1.2790184E3,-2.687649E2,1.01719824E3,2.7170923E3,4.5677628E1,6.3737173E3,-1.3520411E0,-2.4248284E3,-1.4789504E3,-5.8045905E2,-4.1859854E2,8.843137E1,1.1626154E3,-6.113093E2,3.0083503E3,9.974567E2,1.3377177E2,3.3835684E2,-1.2318361E2,-1.4976725E1,1.1669459E1,-7.753396E1,9.811912E0,-6.46336E1,8.528075E0,-3.5987125E1,6.6504425E1,1.3524596E1,-4.108918E1,5.762197E0,1.1336354E2,1.958527E2,1.4817769E1,7.245844E1],"categories":[],"categories_nodes":[],"categories_segments":[],"categories_sizes":[],"default_left":[0,0,0,0,0,0,0,0,0,0,0,1,0,0,0,0,0,0,0,0,0,0,0,0,0,0,0,0,0,0,0,0,0,0,0,0,0,0,0,0,0,0,0],"id":27,"left_children":[1,3,5,7,9,11,13,-1,15,17,19,21,23,-1,25,-1,27,29,31,33,-1,35,37,39,41,-1,-1,-1,-1,-1,-1,-1,-1,-1,-1,-1,-1,-1,-1,-1,-1,-1,-1],"loss_changes":[9.818315E8,1.2147453E8,2.3478944E8,2.7445792E7,2.5426184E7,6.093696E7,1.7623232E7,0E0,5.503808E6,8.778176E6,1.3256277E7,1.3261852E7,1.6031488E7,0E0,2.26368E6,0E0,3.224384E6,6.871712E6,9.657736E6,7.042271E6,0E0,6.960988E6,8.5938E5,1.2667872E7,1.787228E6,0E0,0E0,0E0,0E0,0E0,0E0,0E0,0E0,0E0,0E0,0E0,0E0,0E0,0E0,0E0,0E0,0E0,0E0],"parents":[2147483647,0,0,1,1,2,2,3,3,4,4,5,5,6,6,8,8,9,9,10,10,11,11,12,12,14,14,16,16,17,17,18,18,19,19,21,21,22,22,23,23,24,24],"right_children":[2,4,6,8,10,12,14,-1,16,18,20,22,24,-1,26,-1,28,30,32,34,-1,36,38,40,42,-1,-1,-1,-1,-1,-1,-1,-1,-1,-1,-1,-1,-1,-1,-1,-1,-1,-1],"split_conditions":[1.878862E4,1.216439E4,3.850781E4,7.86412E3,1.883317E4,2.867375E4,2E0,-2.3133585E2,-3.3852E3,1.547205E4,2.397996E4,1.063545E2,1E0,4.5677628E1,-4.5437E2,-1.3520411E0,1E0,1.231864E4,1.756112E4,2.4995E4,8.843137E1,1E0,2.022E3,3.6632E2,2.847952E4,1.3377177E2,3.3835684E2,-1.2318361E2,-1.4976725E1,1.1669459E1,-7.753396E1,9.811912E0,-6.46336E1,8.528075E0,-3.5987125E1,6.6504425E1,1.3524596E1,-4.108918E1,5.762197E0,1.1336354E2,1.958527E2,1.4817769E1,7.245844E1],"split_indices":[3,3,4,3,4,4,10,0,6,3,4,28,101,0,6,0,69,3,4,2,0,8,0,6,3,0,0,0,0,0,0,0,0,0,0,0,0,0,0,0,0,0,0],"split_type":[0,0,0,0,0,0,0,0,0,0,0,0,0,0,0,0,0,0,0,0,0,0,0,0,0,0,0,0,0,0,0,0,0,0,0,0,0,0,0,0,0,0,0],"sum_hessian":[2.66E2,1.63E2,1.03E2,5.5E1,1.08E2,8.9E1,1.4E1,7E0,4.8E1,6.8E1,4E1,5.2E1,3.7E1,1E0,1.3E1,1E0,4.7E1,5.2E1,1.6E1,3.8E1,2E0,4.8E1,4E0,3.1E1,6E0,2E0,1.1E1,4.6E1,1E0,2E0,5E1,8E0,8E0,1.3E1,2.5E1,4E1,8E0,3E0,1E0,1.9E1,1.2E1,3E0,3E0],"tree_param":{"num_deleted":"0","num_feature":"153","num_nodes":"43","size_leaf_vector":"1"}},{"base_weights":[1.0496645E2,-1.5176873E3,2.226002E3,-2.60193E3,-9.170183E2,1.5631488E3,5.017265E3,-4.5292646E3,-2.2185105E3,-1.2685736E3,-3.5796857E2,7.955525E2,2.283177E3,3.8526582E3,3.7403793E2,-2.4469986E2,-4.9400944E1,-2.2655906E3,-1.318252E0,-1.4619469E3,-7.254016E2,5.6705505E2,-4.48299E2,1.2580248E2,1.126493E3,2.6605176E3,1.5473435E3,4.7928837E1,2.087312E2,-1.460231E1,-1.1514776E2,1.1280462E1,-7.738403E1,-4.121594E1,2.3902237E1,3.675019E1,1.5777247E0,1.3522539E1,-2.8452917E1,3.292683E1,-2.1044931E1,8.358693E1,2.7352533E1,1.0752378E2,1.929033E2,1.1272136E-1,8.644901E1],"categories":[],"categories_nodes":[],"categories_segments":[],"categories_sizes":[],"default_left":[0,0,0,0,0,0,0,0,0,0,0,0,0,0,0,0,0,0,0,0,0,0,0,0,0,0,0,0,0,0,0,0,0,0,0,0,0,0,0,0,0,0,0,0,0,0,0],"id":28,"left_children":[1,3,5,7,9,11,13,15,17,19,21,23,25,27,-1,-1,-1,29,-1,31,33,35,37,39,41,43,45,-1,-1,-1,-1,-1,-1,-1,-1,-1,-1,-1,-1,-1,-1,-1,-1,-1,-1,-1,-1],"loss_changes":[9.291974E8,9.725808E7,2.086297E8,2.9855872E7,1.9199416E7,5.124165E7,3.429613E7,5.496912E6,4.790704E6,5.346408E6,3.596509E6,1.0497234E7,9.48816E6,1.1838304E7,0E0,0E0,0E0,2.719232E6,0E0,6.715248E6,2.536843E6,3.3647712E5,3.3653765E6,5.228389E6,9.19528E6,1.063752E7,5.328184E6,0E0,0E0,0E0,0E0,0E0,0E0,0E0,0E0,0E0,0E0,0E0,0E0,0E0,0E0,0E0,0E0,0E0,0E0,0E0,0E0],"parents":[2147483647,0,0,1,1,2,2,3,3,4,4,5,5,6,6,7,7,8,8,9,9,10,10,11,11,12,12,13,13,17,17,19,19,20,20,21,21,22,22,23,23,24,24,25,25,26,26],"right_children":[2,4,6,8,10,12,14,16,18,20,22,24,26,28,-1,-1,-1,30,-1,32,34,36,38,40,42,44,46,-1,-1,-1,-1,-1,-1,-1,-1,-1,-1,-1,-1,-1,-1,-1,-1,-1,-1,-1,-1],"split_conditions":[2.210092E4,1.216439E4,3.027736E4,8.60283E3,1.544814E4,2.776409E4,4.62658E4,1.26969E3,1.21652E5,1.688615E4,1.56617E4,3.0895E4,2.023E3,2.835E4,3.7403793E2,-2.4469986E2,-4.9400944E1,3.15E2,-1.318252E0,1.231864E4,2.052813E4,2.0918E4,1.652463E4,1.9079E4,2.6996E4,6.0598E2,2.8592E4,4.7928837E1,2.087312E2,-1.460231E1,-1.1514776E2,1.1280462E1,-7.738403E1,-4.121594E1,2.3902237E1,3.675019E1,1.5777247E0,1.3522539E1,-2.8452917E1,3.292683E1,-2.1044931E1,8.358693E1,2.7352533E1,1.0752378E2,1.929033E2,1.1272136E-1,8.644901E1],"split_indices":[4,3,3,4,3,4,4,6,1,4,3,2,9,12,0,0,0,1,0,3,4,1,4,1,1,6,4,0,0,0,0,0,0,0,0,0,0,0,0,0,0,0,0,0,0,0,0],"split_type":[0,0,0,0,0,0,0,0,0,0,0,0,0,0,0,0,0,0,0,0,0,0,0,0,0,0,0,0,0,0,0,0,0,0,0,0,0,0,0,0,0,0,0,0,0,0,0],"sum_hessian":[2.68E2,1.52E2,1.16E2,5.3E1,9.9E1,9.5E1,2.1E1,7E0,4.6E1,6E1,3.9E1,4.7E1,4.8E1,1.6E1,5E0,6E0,1E0,4.5E1,1E0,4.3E1,1.7E1,3E0,3.6E1,1.6E1,3.1E1,3E1,1.8E1,2E0,1.4E1,1E0,4.4E1,2E0,4.1E1,1.6E1,1E0,2E0,1E0,5E0,3.1E1,8E0,8E0,1.5E1,1.6E1,2.3E1,7E0,2E0,1.6E1],"tree_param":{"num_deleted":"0","num_feature":"153","num_nodes":"47","size_leaf_vector":"1"}},{"base_weights":[1.787176E2,-8.9160626E2,3.1119114E3,-2.0551785E3,-1.11548035E2,2.4856091E3,6.2451963E3,-3.2293418E3,-1.6148586E3,-5.7936127E2,7.583362E2,1.8791865E3,3.157189E3,3.26262E2,8.611654E1,-2.3744563E2,-1.3409143E2,-1.678187E3,1.0552396E2,-4.1536954E2,-1.7540251E3,1.1704102E3,-1.1997165E2,1.5359199E3,2.6620356E3,3.4985872E3,9.5529956E2,-8.789977E1,-2.5626099E1,-1.285293E0,9.20209E0,-2.2940401E1,3.3935005E1,-9.6010345E1,-1.0611782E1,6.6321266E1,-2.8591171E1,-4.2186844E1,3.5479476E0,5.2061133E0,8.25447E1,1.3984026E2,3.9594524E1,8.20862E1,1.961585E2,6.917399E1,1.0432643E1],"categories":[],"categories_nodes":[],"categories_segments":[],"categories_sizes":[],"default_left":[0,0,0,0,0,0,0,0,0,0,0,0,0,0,0,0,0,0,0,0,0,0,0,0,0,0,0,0,0,0,0,0,0,0,0,0,0,0,0,0,0,0,0,0,0,0,0],"id":29,"left_children":[1,3,5,7,9,11,13,15,17,19,21,23,25,-1,-1,-1,-1,27,29,31,33,35,37,39,41,43,45,-1,-1,-1,-1,-1,-1,-1,-1,-1,-1,-1,-1,-1,-1,-1,-1,-1,-1,-1,-1],"loss_changes":[8.221758E8,1.7404014E8,1.2184288E8,3.459411E7,4.764476E7,1.850224E7,2.693152E6,3.9032E6,6.496288E6,1.3911486E7,1.4979564E7,5.047592E6,1.6953824E7,0E0,0E0,0E0,0E0,4.308448E6,3.5658434E4,3.543051E6,1.898206E6,8.369368E6,1.994593E6,4.108032E6,5.322E4,1.1691712E7,1.30967E6,0E0,0E0,0E0,0E0,0E0,0E0,0E0,0E0,0E0,0E0,0E0,0E0,0E0,0E0,0E0,0E0,0E0,0E0,0E0,0E0],"parents":[2147483647,0,0,1,1,2,2,3,3,4,4,5,5,6,6,7,7,8,8,9,9,10,10,11,11,12,12,17,17,18,18,19,19,20,20,21,21,22,22,23,23,24,24,25,25,26,26],"right_children":[2,4,6,8,10,12,14,16,18,20,22,24,26,-1,-1,-1,-1,28,30,32,34,36,38,40,42,44,46,-1,-1,-1,-1,-1,-1,-1,-1,-1,-1,-1,-1,-1,-1,-1,-1,-1,-1,-1,-1],"split_conditions":[2.707876E4,1.335924E4,4.018291E4,1.000935E4,1.878862E4,4.059E4,1E0,2.012E3,7E0,6.4409E4,3.4772E4,3.250018E4,4.8322E4,3.26262E2,8.611654E1,-2.3744563E2,-1.3409143E2,1E0,2.016E3,1E0,2E0,1E0,1.37E2,2.7835E4,1E0,2.835E4,1E0,-8.789977E1,-2.5626099E1,-1.285293E0,9.20209E0,-2.2940401E1,3.3935005E1,-9.6010345E1,-1.0611782E1,6.6321266E1,-2.8591171E1,-4.2186844E1,3.5479476E0,5.2061133E0,8.25447E1,1.3984026E2,3.9594524E1,8.20862E1,1.961585E2,6.917399E1,1.0432643E1],"split_indices":[4,3,4,3,3,2,36,0,7,1,1,4,1,0,0,0,0,134,0,47,7,100,26,2,71,13,102,0,0,0,0,0,0,0,0,0,0,0,0,0,0,0,0,0,0,0,0],"split_type":[0,0,0,0,0,0,0,0,0,0,0,0,0,0,0,0,0,0,0,0,0,0,0,0,0,0,0,0,0,0,0,0,0,0,0,0,0,0,0,0,0,0,0,0,0,0,0],"sum_hessian":[2.6E2,1.91E2,6.9E1,7.6E1,1.15E2,5.9E1,1E1,1.9E1,5.7E1,7.5E1,4E1,3.3E1,2.6E1,9E0,1E0,3E0,1.6E1,5.5E1,2E0,6.7E1,8E0,2.7E1,1.3E1,2.5E1,8E0,2.2E1,4E0,5.1E1,4E0,1E0,1E0,6.5E1,2E0,7E0,1E0,2.5E1,2E0,2E0,1.1E1,2E0,2.3E1,7E0,1E0,5E0,1.7E1,2E0,2E0],"tree_param":{"num_deleted":"0","num_feature":"153","num_nodes":"47","size_leaf_vector":"1"}},{"base_weights":[2.5522285E1,-1.3999988E3,2.0370013E3,-2.9755522E3,-1.0484784E3,1.6500298E3,6.0673438E3,-2.2421174E3,-3.8385288E3,-1.4612068E3,-4.9661853E2,7.980056E2,2.4690513E3,3.2029657E2,8.3963615E1,-1.15353325E2,-3.007084E1,-2.0093185E2,-5.093368E1,-1.5116942E3,1.8703958E2,-2.952621E2,-1.2751932E3,3.0770847E2,1.5180609E3,2.7380378E3,1.26645E3,-7.839571E1,-1.0305648E1,2.3878164E1,-9.847695E0,-1.031314E1,-7.362322E1,-1.4549326E1,-7.307815E1,9.3142715E1,9.68859E0,5.576557E1,1.1359539E2,8.918928E1,1.619617E2,2.1097189E1,7.651922E1],"categories":[],"categories_nodes":[],"categories_segments":[],"categories_sizes":[],"default_left":[0,0,0,0,0,0,0,0,0,0,0,0,0,0,0,0,0,0,0,0,0,0,0,0,0,0,0,0,0,0,0,0,0,0,0,0,0,0,0,0,0,0,0],"id":30,"left_children":[1,3,5,7,9,11,13,15,17,19,21,23,25,-1,-1,-1,-1,-1,-1,27,29,31,33,35,37,39,41,-1,-1,-1,-1,-1,-1,-1,-1,-1,-1,-1,-1,-1,-1,-1,-1],"loss_changes":[7.397751E8,8.050954E7,1.5686816E8,8.482272E6,2.7745184E7,6.711414E7,2.6136E6,4.23752E5,1.492496E6,6.191168E6,8.245734E6,1.7184752E7,1.2706176E7,0E0,0E0,0E0,0E0,0E0,0E0,4.74128E6,4.2876366E5,4.410775E6,1.59222E6,5.1316585E6,3.538004E6,1.3352096E7,1.805906E6,0E0,0E0,0E0,0E0,0E0,0E0,0E0,0E0,0E0,0E0,0E0,0E0,0E0,0E0,0E0,0E0],"parents":[2147483647,0,0,1,1,2,2,3,3,4,4,5,5,6,6,7,7,8,8,9,9,10,10,11,11,12,12,19,19,20,20,21,21,22,22,23,23,24,24,25,25,26,26],"right_children":[2,4,6,8,10,12,14,16,18,20,22,24,26,-1,-1,-1,-1,-1,-1,28,30,32,34,36,38,40,42,-1,-1,-1,-1,-1,-1,-1,-1,-1,-1,-1,-1,-1,-1,-1,-1],"split_conditions":[2.210092E4,1.045432E4,4.018291E4,6.7841E4,1.447646E4,2.406189E4,1E0,6.5357E4,1E0,1E0,5.3889E4,2.588958E4,3.7999E4,3.2029657E2,8.3963615E1,-1.15353325E2,-3.007084E1,-2.0093185E2,-5.093368E1,1E0,3.7358E4,1E0,1.664866E4,2.216833E4,1E0,3.5995E4,2.928938E4,-7.839571E1,-1.0305648E1,2.3878164E1,-9.847695E0,-1.031314E1,-7.362322E1,-1.4549326E1,-7.307815E1,9.3142715E1,9.68859E0,5.576557E1,1.1359539E2,8.918928E1,1.619617E2,2.1097189E1,7.651922E1],"split_indices":[4,3,4,1,3,3,36,1,43,85,1,4,1,0,0,0,0,0,0,120,1,113,4,4,149,2,4,0,0,0,0,0,0,0,0,0,0,0,0,0,0,0,0],"split_type":[0,0,0,0,0,0,0,0,0,0,0,0,0,0,0,0,0,0,0,0,0,0,0,0,0,0,0,0,0,0,0,0,0,0,0,0,0,0,0,0,0,0,0],"sum_hessian":[2.56E2,1.5E2,1.06E2,2.6E1,1.24E2,9.8E1,8E0,1.6E1,1E1,7E1,5.4E1,4.9E1,4.9E1,7E0,1E0,1.5E1,1E0,9E0,1E0,6.8E1,2E0,4.4E1,1E1,3E1,1.9E1,3.9E1,1E1,6.5E1,3E0,1E0,1E0,4.2E1,2E0,2E0,8E0,1E0,2.9E1,1.4E1,5E0,1.5E1,2.4E1,3E0,7E0],"tree_param":{"num_deleted":"0","num_feature":"153","num_nodes":"43","size_leaf_vector":"1"}},{"base_weights":[2.5744268E1,-9.9200525E2,2.4815713E3,-2.0282126E3,-3.20268E2,1.9584479E3,3.050096E2,-3.1954072E3,-1.6305651E3,-7.317357E2,3.2291318E2,1.01377765E3,2.2847783E3,-3.9812986E3,-1.1235718E2,-1.7008798E3,1.5514896E2,-5.75253E2,-1.6936385E3,1.2951591E2,1.5261598E3,1.2431985E2,1.2426718E3,2.527035E3,7.2732074E2,-2.1331339E2,-4.9660343E1,-9.169897E1,-4.2319187E1,7.017481E-1,1.0931924E1,-6.248933E1,-1.7139437E1,-9.277086E1,-9.982754E0,-2.9801905E0,4.349089E1,9.3136345E1,-3.9143944E0,2.3079811E1,-1.2718158E1,8.9044174E1,1.8657322E1,4.2893135E1,1.3167169E2,1.1890289E1,5.786796E1],"categories":[],"categories_nodes":[],"categories_segments":[],"categories_sizes":[],"default_left":[0,0,0,0,0,0,0,0,0,0,0,0,0,0,0,0,0,0,0,0,0,0,0,0,0,0,0,0,0,0,0,0,0,0,0,0,0,0,0,0,0,0,0,0,0,0,0],"id":31,"left_children":[1,3,5,7,9,11,-1,13,15,17,19,21,23,25,-1,27,29,31,33,35,37,39,41,43,45,-1,-1,-1,-1,-1,-1,-1,-1,-1,-1,-1,-1,-1,-1,-1,-1,-1,-1,-1,-1,-1,-1],"loss_changes":[6.398131E8,1.253369E8,1.3002614E8,2.7742592E7,2.9612284E7,1.8337824E7,0E0,3.721776E6,7.169952E6,9.260944E6,1.0041174E7,3.713616E6,1.6649632E7,2.574304E6,0E0,4.475344E6,2.378593E4,8.979726E6,1.8046E6,5.5121475E6,3.386033E6,7.560379E5,6.355086E6,5.199616E6,1.408716E6,0E0,0E0,0E0,0E0,0E0,0E0,0E0,0E0,0E0,0E0,0E0,0E0,0E0,0E0,0E0,0E0,0E0,0E0,0E0,0E0,0E0,0E0],"parents":[2147483647,0,0,1,1,2,2,3,3,4,4,5,5,7,7,8,8,9,9,10,10,11,11,12,12,13,13,15,15,16,16,17,17,18,18,19,19,20,20,21,21,22,22,23,23,24,24],"right_children":[2,4,6,8,10,12,-1,14,16,18,20,22,24,26,-1,28,30,32,34,36,38,40,42,44,46,-1,-1,-1,-1,-1,-1,-1,-1,-1,-1,-1,-1,-1,-1,-1,-1,-1,-1,-1,-1,-1,-1],"split_conditions":[2.575816E4,1.288127E4,4.018291E4,9.42753E3,2.095974E4,2.85397E4,3.050096E2,8.132E1,7E0,6.4409E4,2.304622E4,2.8515E4,1E0,2.014E3,-1.1235718E2,2.021E3,2.016E3,2.02E3,2E0,7.4817E2,1E0,2.019E3,3.4772E4,-1.16082E3,2.847952E4,-2.1331339E2,-4.9660343E1,-9.169897E1,-4.2319187E1,7.017481E-1,1.0931924E1,-6.248933E1,-1.7139437E1,-9.277086E1,-9.982754E0,-2.9801905E0,4.349089E1,9.3136345E1,-3.9143944E0,2.3079811E1,-1.2718158E1,8.9044174E1,1.8657322E1,4.2893135E1,1.3167169E2,1.1890289E1,5.786796E1],"split_indices":[4,3,4,3,4,4,0,6,7,1,3,2,101,0,0,9,0,9,7,6,7,0,1,6,3,0,0,0,0,0,0,0,0,0,0,0,0,0,0,0,0,0,0,0,0,0,0],"split_type":[0,0,0,0,0,0,0,0,0,0,0,0,0,0,0,0,0,0,0,0,0,0,0,0,0,0,0,0,0,0,0,0,0,0,0,0,0,0,0,0,0,0,0,0,0,0,0],"sum_hessian":[2.54E2,1.8E2,7.4E1,7E1,1.1E2,6.6E1,8E0,1.6E1,5.4E1,6.7E1,4.3E1,1.8E1,4.8E1,7E0,9E0,5.2E1,2E0,5.9E1,8E0,3.8E1,5E0,4E0,1.4E1,4.1E1,7E0,6E0,1E0,4.4E1,8E0,1E0,1E0,1.4E1,4.5E1,7E0,1E0,3.1E1,7E0,4E0,1E0,2E0,2E0,8E0,6E0,3E0,3.8E1,4E0,3E0],"tree_param":{"num_deleted":"0","num_feature":"153","num_nodes":"47","size_leaf_vector":"1"}},{"base_weights":[1.0113928E2,-1.2542155E3,1.9473657E3,-2.7799812E3,-9.369734E2,1.4840225E3,4.6636265E3,-2.0959194E3,-1.9196034E2,-1.2643815E3,-4.1143784E2,6.658832E2,2.0135386E3,3.5180042E3,3.6104843E2,-1.076569E2,-2.8077555E1,-1.18973404E2,-1.3401648E3,-3.230404E2,-6.846613E1,-7.064336E1,9.4769476E2,2.7925938E3,1.5736699E3,3.3944473E1,3.6980146E3,-3.154721E1,3.0163944E1,-7.572671E1,-4.29586E1,-1.3660026E1,-6.663539E1,2.7577284E1,-2.2534678E1,9.993429E1,3.2272778E1,2.1498763E2,1.0735317E2,5.5522194E1,1.2251642E2,1.9551752E2,3.4055557E1],"categories":[],"categories_nodes":[],"categories_segments":[],"categories_sizes":[],"default_left":[0,0,0,0,0,0,0,0,0,0,0,0,0,0,0,0,0,0,0,0,0,0,0,0,0,0,0,0,0,0,0,0,0,0,0,0,0,0,0,0,0,0,0],"id":32,"left_children":[1,3,5,7,9,11,13,15,-1,17,19,21,23,25,-1,-1,-1,27,29,31,-1,33,35,37,39,-1,41,-1,-1,-1,-1,-1,-1,-1,-1,-1,-1,-1,-1,-1,-1,-1,-1],"loss_changes":[6.680521E8,7.193658E7,1.3529587E8,1.0791712E7,2.1675952E7,4.111432E7,2.1471488E7,3.70936E5,0E0,6.697832E6,3.875886E6,8.369504E6,1.5823168E7,4.132928E6,0E0,0E0,0E0,2.5992705E6,4.904928E6,2.051186E6,0E0,3.0861248E6,7.921544E6,1.0225824E7,1.3522336E7,0E0,5.023312E6,0E0,0E0,0E0,0E0,0E0,0E0,0E0,0E0,0E0,0E0,0E0,0E0,0E0,0E0,0E0,0E0],"parents":[2147483647,0,0,1,1,2,2,3,3,4,4,5,5,6,6,7,7,9,9,10,10,11,11,12,12,13,13,17,17,18,18,19,19,21,21,22,22,23,23,24,24,26,26],"right_children":[2,4,6,8,10,12,14,16,-1,18,20,22,24,26,-1,-1,-1,28,30,32,-1,34,36,38,40,-1,42,-1,-1,-1,-1,-1,-1,-1,-1,-1,-1,-1,-1,-1,-1,-1,-1],"split_conditions":[2.210092E4,1.045432E4,3.850781E4,6.7841E4,1.504496E4,2.710769E4,5.164116E4,6.5357E4,-1.9196034E2,1.473E4,7.1636E4,3.0895E4,1.4767E4,2E0,3.6104843E2,-1.076569E2,-2.8077555E1,2.4195E4,2.021E3,2.1999E4,-6.846613E1,6E0,2.32443E4,2.021E3,3.250018E4,3.3944473E1,2.5477E4,-3.154721E1,3.0163944E1,-7.572671E1,-4.29586E1,-1.3660026E1,-6.663539E1,2.7577284E1,-2.2534678E1,9.993429E1,3.2272778E1,2.1498763E2,1.0735317E2,5.5522194E1,1.2251642E2,1.9551752E2,3.4055557E1],"split_indices":[4,3,4,1,3,4,4,1,0,1,1,2,1,10,0,0,0,2,9,4,0,10,4,9,4,0,1,0,0,0,0,0,0,0,0,0,0,0,0,0,0,0,0],"split_type":[0,0,0,0,0,0,0,0,0,0,0,0,0,0,0,0,0,0,0,0,0,0,0,0,0,0,0,0,0,0,0,0,0,0,0,0,0,0,0,0,0,0,0],"sum_hessian":[2.65E2,1.53E2,1.12E2,2.5E1,1.28E2,9.7E1,1.5E1,1.7E1,8E0,7.8E1,5E1,3.9E1,5.8E1,1.2E1,3E0,1.6E1,1E0,5E0,7.3E1,4.7E1,3E0,1.1E1,2.8E1,1.9E1,3.9E1,1E0,1.1E1,3E0,2E0,5.2E1,2.1E1,4.6E1,1E0,4E0,7E0,5E0,2.3E1,4E0,1.5E1,2.7E1,1.2E1,1E1,1E0],"tree_param":{"num_deleted":"0","num_feature":"153","num_nodes":"43","size_leaf_vector":"1"}},{"base_weights":[6.606026E1,-1.2424182E3,1.7783779E3,-2.6492751E3,-9.3896875E2,8.196877E2,2.7221628E3,-2.0098282E2,-1.0528461E2,-1.3673257E3,-5.797099E2,2.1539638E2,1.1494191E3,3.2118872E3,1.2020989E3,-1.6181855E3,-6.703905E2,-4.3506726E2,-1.7573372E3,8.1591473E2,-4.046944E2,1.2681012E3,-5.7875055E2,1.9298856E3,3.8772734E3,1.51006775E1,1.3173341E3,-8.369923E1,1.2551797E1,-4.458066E1,-2.6788673E-1,-2.4621286E1,2.5268599E1,-1.0330869E2,-3.283984E1,5.3798077E1,-1.1808196E1,-2.7212234E1,2.4767715E1,7.856684E1,1.2558787E1,-3.5672062E1,-7.7317286E0,1.1262533E2,5.0837482E1,5.1930782E1,2.1011858E2,7.353798E1,1.5781471E1],"categories":[],"categories_nodes":[],"categories_segments":[],"categories_sizes":[],"default_left":[0,0,0,0,0,0,0,0,0,0,0,0,0,0,0,0,0,0,0,0,0,0,0,0,0,0,0,0,0,0,0,0,0,0,0,0,0,0,0,0,0,0,0,0,0,0,0,0,0],"id":33,"left_children":[1,3,5,7,9,11,13,-1,-1,15,17,19,21,23,25,27,29,31,33,35,37,39,41,43,45,-1,47,-1,-1,-1,-1,-1,-1,-1,-1,-1,-1,-1,-1,-1,-1,-1,-1,-1,-1,-1,-1,-1,-1],"loss_changes":[5.690639E8,5.8987104E7,9.729603E7,1.0158128E7,1.7674072E7,1.0910496E7,3.7081184E7,0E0,0E0,8.355944E6,1.0647674E7,8.1501305E6,8.11768E6,2.7490784E7,1.157808E6,4.488096E6,2.3490595E6,3.539327E6,1.021884E6,3.263674E6,1.6512214E6,1.0089652E7,6.0964E4,2.422988E6,1.9628768E7,0E0,1.533538E6,0E0,0E0,0E0,0E0,0E0,0E0,0E0,0E0,0E0,0E0,0E0,0E0,0E0,0E0,0E0,0E0,0E0,0E0,0E0,0E0,0E0,0E0],"parents":[2147483647,0,0,1,1,2,2,3,3,4,4,5,5,6,6,9,9,10,10,11,11,12,12,13,13,14,14,15,15,16,16,17,17,18,18,19,19,20,20,21,21,22,22,23,23,24,24,26,26],"right_children":[2,4,6,8,10,12,14,-1,-1,16,18,20,22,24,26,28,30,32,34,36,38,40,42,44,46,-1,48,-1,-1,-1,-1,-1,-1,-1,-1,-1,-1,-1,-1,-1,-1,-1,-1,-1,-1,-1,-1,-1,-1],"split_conditions":[2.210092E4,1.045432E4,2.867375E4,8.37016E3,1.335924E4,3.0895E4,2.956E4,-2.0098282E2,-1.0528461E2,2.021E3,7.1636E4,1.9079E4,1E0,3.916E4,-6.5296E2,7E0,1.2119E2,1E0,8.8164E4,1E0,1E0,4.6767E4,6.062E3,1E0,2.835E4,1.51006775E1,1E0,-8.369923E1,1.2551797E1,-4.458066E1,-2.6788673E-1,-2.4621286E1,2.5268599E1,-1.0330869E2,-3.283984E1,5.3798077E1,-1.1808196E1,-2.7212234E1,2.4767715E1,7.856684E1,1.2558787E1,-3.5672062E1,-7.7317286E0,1.1262533E2,5.0837482E1,5.1930782E1,2.1011858E2,7.353798E1,1.5781471E1],"split_indices":[4,3,4,4,3,2,1,0,0,9,1,1,100,2,6,7,6,47,1,80,7,1,1,149,12,0,71,0,0,0,0,0,0,0,0,0,0,0,0,0,0,0,0,0,0,0,0,0,0],"split_type":[0,0,0,0,0,0,0,0,0,0,0,0,0,0,0,0,0,0,0,0,0,0,0,0,0,0,0,0,0,0,0,0,0,0,0,0,0,0,0,0,0,0,0,0,0,0,0,0,0],"sum_hessian":[2.52E2,1.43E2,1.09E2,2.4E1,1.19E2,5.5E1,5.4E1,5E0,1.9E1,5.3E1,6.6E1,2E1,3.5E1,4E1,1.4E1,3.8E1,1.5E1,6E1,6E0,1E1,1E1,3.3E1,2E0,1.5E1,2.5E1,2E0,1.2E1,3.7E1,1E0,1.1E1,4E0,5.7E1,3E0,4E0,2E0,8E0,2E0,9E0,1E0,2.5E1,8E0,1E0,1E0,1E1,5E0,3E0,2.2E1,1E1,2E0],"tree_param":{"num_deleted":"0","num_feature":"153","num_nodes":"49","size_leaf_vector":"1"}},{"base_weights":[-8.984108E0,-9.138686E2,2.2407827E3,-1.4744054E3,-4.0453285E1,2.002229E3,3.5300366E2,-2.6183252E3,-1.1550415E3,-3.0090784E2,8.045675E2,2.744779E3,1.4100624E3,-1.9202223E3,-3.4908936E3,-1.503247E3,-9.0329944E2,-2.8293076E1,-6.7896344E2,-2.5585546E0,1.7129167E3,1.7583295E3,3.3956858E3,9.059665E2,2.223424E3,-1.0192947E2,-3.8359566E1,-1.8453526E2,-4.730751E1,-7.8739494E1,-1.0758018E1,-7.72007E1,-3.6857536E1,-1.0547967E1,3.401522E1,-6.939965E1,-2.0244728E1,2.1482632E1,-2.603601E1,9.5722305E1,7.5527735E0,9.813494E1,3.7835323E1,5.212395E1,1.8199707E2,-7.257735E0,5.217045E1,3.3198677E1,1.2789736E2],"categories":[],"categories_nodes":[],"categories_segments":[],"categories_sizes":[],"default_left":[0,0,0,0,0,0,0,0,0,0,0,0,0,0,0,0,0,0,0,0,0,0,0,0,0,0,0,0,0,0,0,0,0,0,0,0,0,0,0,0,0,0,0,0,0,0,0,0,0],"id":34,"left_children":[1,3,5,7,9,11,-1,13,15,17,19,21,23,25,27,29,31,33,35,37,39,41,43,45,47,-1,-1,-1,-1,-1,-1,-1,-1,-1,-1,-1,-1,-1,-1,-1,-1,-1,-1,-1,-1,-1,-1,-1,-1],"loss_changes":[5.1099235E8,8.75753E7,6.863866E7,3.679595E7,1.5868407E7,2.6909248E7,0E0,7.306432E6,6.268112E6,5.649214E6,1.2468142E7,1.3291344E7,1.479584E7,4.82948E5,1.0838E6,2.886352E6,4.50366E6,4.4148855E6,3.907258E6,2.4632905E6,2.228696E6,1.380356E6,5.976288E6,4.052202E6,6.126352E6,0E0,0E0,0E0,0E0,0E0,0E0,0E0,0E0,0E0,0E0,0E0,0E0,0E0,0E0,0E0,0E0,0E0,0E0,0E0,0E0,0E0,0E0,0E0,0E0],"parents":[2147483647,0,0,1,1,2,2,3,3,4,4,5,5,7,7,8,8,9,9,10,10,11,11,12,12,13,13,14,14,15,15,16,16,17,17,18,18,19,19,20,20,21,21,22,22,23,23,24,24],"right_children":[2,4,6,8,10,12,-1,14,16,18,20,22,24,26,28,30,32,34,36,38,40,42,44,46,48,-1,-1,-1,-1,-1,-1,-1,-1,-1,-1,-1,-1,-1,-1,-1,-1,-1,-1,-1,-1,-1,-1,-1,-1],"split_conditions":[2.304622E4,1.547205E4,4.62658E4,2.015E3,2.50584E4,1.4474E4,3.5300366E2,6.7841E4,9.18E0,3.0125E4,1E0,3.916E4,3.250018E4,6.5357E4,1E0,5E0,1.14213E4,2.023E3,1.192E3,2.018E3,4.6767E4,1.1829E3,2.835E4,3.374E4,-6.1617E2,-1.0192947E2,-3.8359566E1,-1.8453526E2,-4.730751E1,-7.8739494E1,-1.0758018E1,-7.72007E1,-3.6857536E1,-1.0547967E1,3.401522E1,-6.939965E1,-2.0244728E1,2.1482632E1,-2.603601E1,9.5722305E1,7.5527735E0,9.813494E1,3.7835323E1,5.212395E1,1.8199707E2,-7.257735E0,5.217045E1,3.3198677E1,1.2789736E2],"split_indices":[3,3,4,0,4,1,0,1,6,1,149,2,4,1,61,7,3,9,26,0,1,6,12,2,6,0,0,0,0,0,0,0,0,0,0,0,0,0,0,0,0,0,0,0,0,0,0,0,0],"split_type":[0,0,0,0,0,0,0,0,0,0,0,0,0,0,0,0,0,0,0,0,0,0,0,0,0,0,0,0,0,0,0,0,0,0,0,0,0,0,0,0,0,0,0,0,0,0,0,0,0],"sum_hessian":[2.49E2,1.78E2,7.1E1,1.08E2,7E1,6.9E1,2E0,2.2E1,8.6E1,5.4E1,1.6E1,2.9E1,4E1,1.4E1,8E0,3.4E1,5.2E1,3.2E1,2.2E1,9E0,7E0,1.3E1,1.6E1,2.6E1,1.4E1,1.2E1,2E0,7E0,1E0,3.2E1,2E0,9E0,4.3E1,2.6E1,6E0,5E0,1.7E1,5E0,4E0,6E0,1E0,1E1,3E0,2E0,1.4E1,3E0,2.3E1,3E0,1.1E1],"tree_param":{"num_deleted":"0","num_feature":"153","num_nodes":"49","size_leaf_vector":"1"}},{"base_weights":[3.18936E0,-1.0778717E3,1.6451493E3,-2.285647E3,-7.8383356E2,1.3677997E3,5.3722495E3,-3.2099114E3,-9.1229904E1,-9.3495325E2,-1.3757886E2,6.597819E2,1.9350891E3,3.2639212E2,1.436785E2,-3.4668547E3,-2.8856607E1,-5.7518506E2,-1.1713778E3,5.654555E2,-4.263576E2,8.256053E2,-1.1365925E2,1.2232928E3,2.5777715E3,-1.8695692E2,-3.9019253E1,-4.235265E1,-4.678118E0,-6.099187E1,1.0219671E1,4.082724E1,1.2573648E1,2.6912169E1,-2.8575367E1,2.2631666E1,6.29852E1,-3.7871895E1,1.6722654E1,8.045221E1,2.4042301E1,1.3674574E2,1.782864E1],"categories":[],"categories_nodes":[],"categories_segments":[],"categories_sizes":[],"default_left":[0,0,0,0,0,0,0,0,0,0,0,1,0,0,0,0,0,0,0,0,0,0,0,0,0,0,0,0,0,0,0,0,0,0,0,0,0,0,0,0,0,0,0],"id":35,"left_children":[1,3,5,7,9,11,13,15,-1,17,19,21,23,-1,-1,25,-1,27,29,31,33,35,37,39,41,-1,-1,-1,-1,-1,-1,-1,-1,-1,-1,-1,-1,-1,-1,-1,-1,-1,-1],"loss_changes":[4.7393898E8,5.5384384E7,1.0222438E8,7.352768E6,1.2664968E7,3.888811E7,1.45304E6,4.087032E6,0E0,8.342208E6,5.5196285E6,5.993622E6,2.2006496E7,0E0,0E0,2.933432E6,0E0,5.681915E6,4.449592E6,4.252555E5,2.9678328E6,5.582098E6,2.849736E6,7.24528E6,8.797808E6,0E0,0E0,0E0,0E0,0E0,0E0,0E0,0E0,0E0,0E0,0E0,0E0,0E0,0E0,0E0,0E0,0E0,0E0],"parents":[2147483647,0,0,1,1,2,2,3,3,4,4,5,5,6,6,7,7,9,9,10,10,11,11,12,12,15,15,17,17,18,18,19,19,20,20,21,21,22,22,23,23,24,24],"right_children":[2,4,6,8,10,12,14,16,-1,18,20,22,24,-1,-1,26,-1,28,30,32,34,36,38,40,42,-1,-1,-1,-1,-1,-1,-1,-1,-1,-1,-1,-1,-1,-1,-1,-1,-1,-1],"split_conditions":[1.878862E4,1.045432E4,4.612997E4,8.60283E3,1.987167E4,2.406189E4,2.023E3,1.26969E3,-9.1229904E1,2.8408E4,2.4995E4,1.474E3,4.059E4,3.2639212E2,1.436785E2,2.015E3,-2.8856607E1,2.5295E4,1E0,1.56617E4,1.3971E4,2.019E3,2.022E3,2.2016E4,6.0628E4,-1.8695692E2,-3.9019253E1,-4.235265E1,-4.678118E0,-6.099187E1,1.0219671E1,4.082724E1,1.2573648E1,2.6912169E1,-2.8575367E1,2.2631666E1,6.29852E1,-3.7871895E1,1.6722654E1,8.045221E1,2.4042301E1,1.3674574E2,1.782864E1],"split_indices":[3,3,4,4,4,3,0,6,0,1,2,27,2,0,0,0,0,2,126,3,1,0,27,1,1,0,0,0,0,0,0,0,0,0,0,0,0,0,0,0,0,0,0],"split_type":[0,0,0,0,0,0,0,0,0,0,0,0,0,0,0,0,0,0,0,0,0,0,0,0,0,0,0,0,0,0,0,0,0,0,0,0,0,0,0,0,0,0,0],"sum_hessian":[2.65E2,1.6E2,1.05E2,3E1,1.3E2,9.9E1,6E0,8E0,2.2E1,1.05E2,2.5E1,4.5E1,5.4E1,3E0,3E0,7E0,1E0,4.3E1,6.2E1,7E0,1.8E1,3.7E1,8E0,2.7E1,2.7E1,6E0,1E0,2.7E1,1.6E1,6E1,2E0,3E0,4E0,2E0,1.6E1,2.1E1,1.6E1,3E0,5E0,1.7E1,1E1,2.5E1,2E0],"tree_param":{"num_deleted":"0","num_feature":"153","num_nodes":"43","size_leaf_vector":"1"}},{"base_weights":[3.5914406E1,-7.5408014E2,2.1049731E3,-1.3689421E3,-7.373077E0,1.828247E3,3.1415247E2,-2.3936013E3,-1.0572395E3,-2.3139238E2,8.393262E2,2.5483616E3,1.2604553E3,-1.7434651E3,-3.2111948E3,-1.6645297E3,-8.270657E2,-4.0781668E2,2.1241174E2,-3.6835928E2,1.2106976E3,1.5449135E3,2.9951755E3,8.6224365E2,1.8666516E3,-2.15038E1,-9.032759E1,-1.6966806E2,-4.384408E1,-9.156119E1,-2.6961849E0,-2.883045E0,-4.808552E1,-1.5753967E1,-8.623647E1,4.035907E1,-1.2567906E1,-4.3129974E1,1.24317E1,3.3444576E1,9.108037E1,2.802252E1,8.5069984E1,4.5828316E1,1.5928983E2,6.0417213E1,2.1159292E1,2.9015863E1,1.0699336E2],"categories":[],"categories_nodes":[],"categories_segments":[],"categories_sizes":[],"default_left":[0,0,0,0,0,0,0,0,0,0,0,0,0,0,0,0,0,0,0,0,0,0,0,0,0,0,0,0,0,0,0,0,0,0,0,0,0,0,0,0,0,0,0,0,0,0,0,0,0],"id":36,"left_children":[1,3,5,7,9,11,-1,13,15,17,19,21,23,25,27,29,31,33,35,37,39,41,43,45,47,-1,-1,-1,-1,-1,-1,-1,-1,-1,-1,-1,-1,-1,-1,-1,-1,-1,-1,-1,-1,-1,-1,-1,-1],"loss_changes":[4.20031E8,8.538643E7,7.060122E7,3.0046688E7,1.6316696E7,2.459104E7,0E0,6.626488E6,9.805656E6,5.410896E6,8.519053E6,8.374544E6,8.045996E6,4.65684E5,8.51096E5,5.539116E6,6.160228E6,5.4405915E6,5.719672E6,1.7392474E6,3.41522E6,7.40826E5,4.607888E6,3.439396E6,4.029624E6,0E0,0E0,0E0,0E0,0E0,0E0,0E0,0E0,0E0,0E0,0E0,0E0,0E0,0E0,0E0,0E0,0E0,0E0,0E0,0E0,0E0,0E0,0E0,0E0],"parents":[2147483647,0,0,1,1,2,2,3,3,4,4,5,5,7,7,8,8,9,9,10,10,11,11,12,12,13,13,14,14,15,15,16,16,17,17,18,18,19,19,20,20,21,21,22,22,23,23,24,24],"right_children":[2,4,6,8,10,12,-1,14,16,18,20,22,24,26,28,30,32,34,36,38,40,42,44,46,48,-1,-1,-1,-1,-1,-1,-1,-1,-1,-1,-1,-1,-1,-1,-1,-1,-1,-1,-1,-1,-1,-1,-1,-1],"split_conditions":[2.299743E4,1.504496E4,5.164116E4,2.015E3,2.50584E4,1.4474E4,3.1415247E2,7.3898E4,2.02E3,5.4923E2,2.021E3,3.916E4,3.250018E4,-4.9232E2,1E0,1E0,1.8753E4,1E0,2.5495E4,2.153192E4,1E0,9E0,2.835E4,2.022E3,-6.1617E2,-2.15038E1,-9.032759E1,-1.6966806E2,-4.384408E1,-9.156119E1,-2.6961849E0,-2.883045E0,-4.808552E1,-1.5753967E1,-8.623647E1,4.035907E1,-1.2567906E1,-4.3129974E1,1.24317E1,3.3444576E1,9.108037E1,2.802252E1,8.5069984E1,4.5828316E1,1.5928983E2,6.0417213E1,2.1159292E1,2.9015863E1,1.0699336E2],"split_indices":[3,3,4,0,4,1,0,1,9,6,9,2,4,6,61,33,1,78,2,3,149,10,13,9,6,0,0,0,0,0,0,0,0,0,0,0,0,0,0,0,0,0,0,0,0,0,0,0,0],"split_type":[0,0,0,0,0,0,0,0,0,0,0,0,0,0,0,0,0,0,0,0,0,0,0,0,0,0,0,0,0,0,0,0,0,0,0,0,0,0,0,0,0,0,0,0,0,0,0,0,0],"sum_hessian":[2.55E2,1.85E2,7E1,1.01E2,8.4E1,6.7E1,3E0,2.2E1,7.9E1,6.7E1,1.7E1,2.8E1,3.9E1,1.4E1,8E0,2E1,5.9E1,4.8E1,1.9E1,4E0,1.3E1,1E1,1.8E1,2.5E1,1.4E1,1E0,1.3E1,7E0,1E0,1.8E1,2E0,9E0,5E1,4.6E1,2E0,8E0,1.1E1,2E0,2E0,8E0,5E0,2E0,8E0,2E0,1.6E1,1.3E1,1.2E1,3E0,1.1E1],"tree_param":{"num_deleted":"0","num_feature":"153","num_nodes":"49","size_leaf_vector":"1"}},{"base_weights":[6.2493656E1,-6.806115E2,2.0397399E3,-1.6693259E3,-2.6233752E2,1.7739955E3,3.0237177E2,-2.9580562E3,-1.3929093E3,-5.409328E2,4.3015945E2,2.502823E3,1.1678693E3,-3.1984155E3,-2.5877018E1,-1.8910421E3,-1.0847446E3,-9.423577E2,-3.157029E2,1.0075339E2,1.0812136E3,1.4903522E3,3.0105457E3,7.1460065E2,1.9262275E3,-1.7223972E2,-3.6841618E1,-9.7019714E1,-2.7532705E1,-5.63656E1,5.8685937E0,-5.162563E1,1.6668972E1,-7.825933E1,-1.1357032E1,1.5886481E1,-2.822772E1,1.3876533E1,8.6521164E1,8.611482E1,4.1057556E1,1.5688853E2,1.8009903E1,5.962503E1,1.4231699E1,2.7927778E1,1.1242211E2],"categories":[],"categories_nodes":[],"categories_segments":[],"categories_sizes":[],"default_left":[0,0,0,0,0,0,0,0,0,0,0,0,0,0,0,0,0,0,0,0,0,0,0,0,0,0,0,0,0,0,0,0,0,0,0,0,0,0,0,0,0,0,0,0,0,0,0],"id":37,"left_children":[1,3,5,7,9,11,-1,13,15,17,19,21,23,25,-1,27,29,31,33,35,37,39,41,43,45,-1,-1,-1,-1,-1,-1,-1,-1,-1,-1,-1,-1,-1,-1,-1,-1,-1,-1,-1,-1,-1,-1],"loss_changes":[3.819376E8,7.7723496E7,6.488768E7,1.5827952E7,2.6084832E7,2.7116464E7,0E0,3.623728E6,5.316736E6,8.382006E6,8.254932E6,1.09344E7,1.2029112E7,2.313192E6,0E0,5.5836E4,1.769888E6,4.25476E6,6.615704E6,4.076962E6,6.302415E6,4.4809E5,5.276048E6,5.002935E6,4.913412E6,0E0,0E0,0E0,0E0,0E0,0E0,0E0,0E0,0E0,0E0,0E0,0E0,0E0,0E0,0E0,0E0,0E0,0E0,0E0,0E0,0E0,0E0],"parents":[2147483647,0,0,1,1,2,2,3,3,4,4,5,5,7,7,8,8,9,9,10,10,11,11,12,12,13,13,15,15,16,16,17,17,18,18,19,19,20,20,21,21,22,22,23,23,24,24],"right_children":[2,4,6,8,10,12,-1,14,16,18,20,22,24,26,-1,28,30,32,34,36,38,40,42,44,46,-1,-1,-1,-1,-1,-1,-1,-1,-1,-1,-1,-1,-1,-1,-1,-1,-1,-1,-1,-1,-1,-1],"split_conditions":[2.329845E4,1.196973E4,5.164116E4,8.60283E3,2.210092E4,1.4474E4,3.0237177E2,1.26969E3,2.02E3,2.047E1,1E0,3.916E4,3.250018E4,2.015E3,-2.5877018E1,1E0,1.21652E5,1E0,2.015E3,3.9552E4,2.541282E4,1E0,4E0,2.022E3,-6.1617E2,-1.7223972E2,-3.6841618E1,-9.7019714E1,-2.7532705E1,-5.63656E1,5.8685937E0,-5.162563E1,1.6668972E1,-7.825933E1,-1.1357032E1,1.5886481E1,-2.822772E1,1.3876533E1,8.6521164E1,8.611482E1,4.1057556E1,1.5688853E2,1.8009903E1,5.962503E1,1.4231699E1,2.7927778E1,1.1242211E2],"split_indices":[3,3,4,4,4,1,0,6,9,6,149,2,4,0,0,33,1,126,0,1,4,149,7,9,6,0,0,0,0,0,0,0,0,0,0,0,0,0,0,0,0,0,0,0,0,0,0],"split_type":[0,0,0,0,0,0,0,0,0,0,0,0,0,0,0,0,0,0,0,0,0,0,0,0,0,0,0,0,0,0,0,0,0,0,0,0,0,0,0,0,0,0,0,0,0,0,0],"sum_hessian":[2.58E2,1.88E2,7E1,5.5E1,1.33E2,6.7E1,3E0,8E0,4.7E1,9.5E1,3.8E1,2.9E1,3.8E1,7E0,1E0,1.6E1,3.1E1,3.3E1,6.2E1,2.6E1,1.2E1,1.1E1,1.8E1,2.5E1,1.3E1,6E0,1E0,1.5E1,1E0,3E1,1E0,3.1E1,2E0,3E0,5.9E1,2E1,6E0,6E0,6E0,7E0,4E0,1.7E1,1E0,1.1E1,1.4E1,3E0,1E1],"tree_param":{"num_deleted":"0","num_feature":"153","num_nodes":"47","size_leaf_vector":"1"}},{"base_weights":[-1.6985048E1,-7.3616925E2,1.7092822E3,-1.6839622E3,-3.586792E2,2.6376602E3,1.0317467E3,-3.011178E3,-1.4043761E3,-6.9030853E2,1.06091896E2,1.665646E3,3.5634253E3,6.6840857E2,1.874694E3,-1.6485802E2,-2.5230093E1,-9.370345E1,-1.0968049E3,-2.1463243E2,-8.342299E2,-4.4218468E1,1.341013E3,2.8177078E1,1.7750172E3,3.9071087E1,3.9313088E3,1.0878972E3,3.7689136E2,4.735502E2,2.247672E3,-7.8654175E1,-4.0191017E1,7.166803E0,-4.243918E1,-4.4701954E1,9.833931E0,-3.0497202E1,5.622951E0,6.0906153E0,7.802353E1,9.258132E1,1.755966E1,2.0490788E2,4.822553E1,6.083795E1,-1.1458632E1,-7.258574E0,2.7455774E1,2.8591368E1,4.465469E0,1.2460235E2,1.2049707E0],"categories":[],"categories_nodes":[],"categories_segments":[],"categories_sizes":[],"default_left":[0,0,0,0,0,0,0,0,0,0,0,0,0,0,0,0,0,0,0,0,0,0,0,0,0,0,0,0,0,0,0,0,0,0,0,0,0,0,0,0,0,0,0,0,0,0,0,0,0,0,0,0,0],"id":38,"left_children":[1,3,5,7,9,11,13,15,17,19,21,23,25,27,29,-1,-1,-1,31,33,35,37,39,-1,41,-1,43,45,47,49,51,-1,-1,-1,-1,-1,-1,-1,-1,-1,-1,-1,-1,-1,-1,-1,-1,-1,-1,-1,-1,-1,-1],"loss_changes":[3.1660026E8,6.3796624E7,4.4453904E7,1.469536E7,2.011042E7,2.1959632E7,1.2529056E7,4.07056E6,4.300632E6,5.0238E6,1.0268607E7,1.048624E6,1.2279328E7,3.625343E6,5.729088E6,0E0,0E0,0E0,2.782012E6,4.4348485E6,3.752056E6,4.500467E6,1.415124E6,0E0,9.85676E5,0E0,2.481856E6,2.485308E6,1.967904E6,9.991269E4,5.37354E6,0E0,0E0,0E0,0E0,0E0,0E0,0E0,0E0,0E0,0E0,0E0,0E0,0E0,0E0,0E0,0E0,0E0,0E0,0E0,0E0,0E0,0E0],"parents":[2147483647,0,0,1,1,2,2,3,3,4,4,5,5,6,6,7,7,8,8,9,9,10,10,11,11,12,12,13,13,14,14,18,18,19,19,20,20,21,21,22,22,24,24,26,26,27,27,28,28,29,29,30,30],"right_children":[2,4,6,8,10,12,14,16,18,20,22,24,26,28,30,-1,-1,-1,32,34,36,38,40,-1,42,-1,44,46,48,50,52,-1,-1,-1,-1,-1,-1,-1,-1,-1,-1,-1,-1,-1,-1,-1,-1,-1,-1,-1,-1,-1,-1],"split_conditions":[2.153192E4,1.204959E4,1.4474E4,8.60283E3,1.987167E4,4.1125E4,3.250018E4,1.26969E3,2.02E3,1.8753E4,2.707876E4,2.397581E4,3.0875E4,2.022E3,-4.6842E2,-1.6485802E2,-2.5230093E1,-9.370345E1,1.001833E4,1E0,1E0,2.021E3,2.018E3,2.8177078E1,6E0,3.9071087E1,1E0,2E0,2.486E4,3.4724E4,2.024E3,-7.8654175E1,