{"learner":{"attributes":{"scikit_learn":"{\"_estimator_type\": \"regressor\"}"},"feature_names":[],"feature_types":[],"gradient_booster":{"model":{"cats":{"enc":[],"feature_segments":[],"sorted_idx":[]},"gbtree_model_param":{"num_parallel_tree":"1","num_trees":"300"},"iteration_indptr":[0,1,2,3,4,5,6,7,8,9,10,11,12,13,14,15,16,17,18,19,20,21,22,23,24,25,26,27,28,29,30,31,32,33,34,35,36,37,38,39,40,41,42,43,44,45,46,47,48,49,50,51,52,53,54,55,56,57,58,59,60,61,62,63,64,65,66,67,68,69,70,71,72,73,74,75,76,77,78,79,80,81,82,83,84,85,86,87,88,89,90,91,92,93,94,95,96,97,98,99,100,101,102,103,104,105,106,107,108,109,110,111,112,113,114,115,116,117,118,119,120,121,122,123,124,125,126,127,128,129,130,131,132,133,134,135,136,137,138,139,140,141,142,143,144,145,146,147,148,149,150,151,152,153,154,155,156,157,158,159,160,161,162,163,164,165,166,167,168,169,170,171,172,173,174,175,176,177,178,179,180,181,182,183,184,185,186,187,188,189,190,191,192,193,194,195,196,197,198,199,200,201,202,203,204,205,206,207,208,209,210,211,212,213,214,215,216,217,218,219,220,221,222,223,224,225,226,227,228,229,230,231,232,233,234,235,236,237,238,239,240,241,242,243,244,245,246,247,248,249,250,251,252,253,254,255,256,257,258,259,260,261,262,263,264,265,266,267,268,269,270,271,272,273,274,275,276,277,278,279,280,281,282,283,284,285,286,287,288,289,290,291,292,293,294,295,296,297,298,299,300],"tree_info":[0,0,0,0,0,0,0,0,0,0,0,0,0,0,0,0,0,0,0,0,0,0,0,0,0,0,0,0,0,0,0,0,0,0,0,0,0,0,0,0,0,0,0,0,0,0,0,0,0,0,0,0,0,0,0,0,0,0,0,0,0,0,0,0,0,0,0,0,0,0,0,0,0,0,0,0,0,0,0,0,0,0,0,0,0,0,0,0,0,0,0,0,0,0,0,0,0,0,0,0,0,0,0,0,0,0,0,0,0,0,0,0,0,0,0,0,0,0,0,0,0,0,0,0,0,0,0,0,0,0,0,0,0,0,0,0,0,0,0,0,0,0,0,0,0,0,0,0,0,0,0,0,0,0,0,0,0,0,0,0,0,0,0,0,0,0,0,0,0,0,0,0,0,0,0,0,0,0,0,0,0,0,0,0,0,0,0,0,0,0,0,0,0,0,0,0,0,0,0,0,0,0,0,0,0,0,0,0,0,0,0,0,0,0,0,0,0,0,0,0,0,0,0,0,0,0,0,0,0,0,0,0,0,0,0,0,0,0,0,0,0,0,0,0,0,0,0,0,0,0,0,0,0,0,0,0,0,0,0,0,0,0,0,0,0,0,0,0,0,0,0,0,0,0,0,0,0,0,0,0,0,0,0,0,0,0,0,0,0,0,0,0,0,0,0,0,0,0,0,0],"trees":[{"base_weights":[6.372349E2,-1.0252004E4,8.937739E4,-1.669178E4,9.208517E3,1.477211E2,4.816656E3,9.5283167E2,-1.8332062E4,1.8436177E3,1.9753494E4,-1.3960022E3,-6.298077E2,5.2489795E2,-4.602381E2,6.0221096E1,1.074398E3],"categories":[],"categories_nodes":[],"categories_segments":[],"categories_sizes":[],"default_left":[0,0,0,0,0,0,0,0,0,0,0,0,0,0,0,0,0],"id":0,"left_children":[1,3,5,7,9,-1,-1,-1,11,13,15,-1,-1,-1,-1,-1,-1],"loss_changes":[1.1494121E11,1.3437772E10,7.5301274E9,5.040351E9,2.0604746E9,0E0,0E0,0E0,3.8829916E9,1.722111E9,3.280197E8,0E0,0E0,0E0,0E0,0E0,0E0],"parents":[2147483647,0,0,1,1,2,2,3,3,4,4,8,8,9,9,10,10],"right_children":[2,4,6,8,10,-1,-1,-1,12,14,16,-1,-1,-1,-1,-1,-1],"split_conditions":[1.03045E5,6.234E4,2.019E3,6.233E3,8.0836E4,1.477211E2,4.816656E3,9.5283167E2,4.0571E4,7.1605E4,2.022E3,-1.3960022E3,-6.298077E2,5.2489795E2,-4.602381E2,6.0221096E1,1.074398E3],"split_indices":[3,3,0,3,3,0,0,0,3,3,0,0,0,0,0,0,0],"split_type":[0,0,0,0,0,0,0,0,0,0,0,0,0,0,0,0,0],"sum_hessian":[1.17E2,1.05E2,1.2E1,7.9E1,2.6E1,1E0,1.1E1,3E0,7.6E1,1.6E1,1E1,2.7E1,4.9E1,9E0,7E0,1E0,9E0],"tree_param":{"num_deleted":"0","num_feature":"31","num_nodes":"17","size_leaf_vector":"1"}},{"base_weights":[-4.4456824E2,-9.775025E3,4.390554E3,-1.5676822E4,6.028823E3,9.171004E2,-1.7326117E4,1.9976586E4,-2.3635042E3,-1.1473143E3,-3.7370963E2,4.9535782E2,1.215762E3,-3.0779395E2,2.5085606E2],"categories":[],"categories_nodes":[],"categories_segments":[],"categories_sizes":[],"default_left":[0,0,0,0,0,0,0,0,0,0,0,0,0,0,0],"id":1,"left_children":[1,3,-1,5,7,-1,9,11,13,-1,-1,-1,-1,-1,-1],"loss_changes":[9.4733435E10,9.794708E9,0E0,4.581931E9,3.4417866E9,0E0,3.8704701E9,2.3967078E8,5.626966E8,0E0,0E0,0E0,0E0,0E0,0E0],"parents":[2147483647,0,0,1,1,3,3,4,4,6,6,7,7,8,8],"right_children":[2,4,-1,6,8,-1,10,12,14,-1,-1,-1,-1,-1,-1],"split_conditions":[1.03045E5,6.234E4,4.390554E3,6.233E3,1.8162E4,9.171004E2,1E0,7.1E3,1E0,-1.1473143E3,-3.7370963E2,4.9535782E2,1.215762E3,-3.0779395E2,2.5085606E2],"split_indices":[3,3,0,3,1,0,27,1,10,0,0,0,0,0,0],"split_type":[0,0,0,0,0,0,0,0,0,0,0,0,0,0,0],"sum_hessian":[1.13E2,1.03E2,1E1,7.5E1,2.8E1,3E0,7.2E1,1E1,1.8E1,4.5E1,2.7E1,4E0,6E0,1.2E1,6E0],"tree_param":{"num_deleted":"0","num_feature":"31","num_nodes":"15","size_leaf_vector":"1"}},{"base_weights":[9.463907E2,-8.319237E3,4.6290737E3,-1.6333829E4,9.788056E3,-2.1421355E4,-8.577884E3,4.1760986E3,2.5400418E4,-1.1749532E3,1.836105E2,-8.455361E2,-3.838164E2,3.2879718E2,-3.1292502E2,3.426416E1,1.4416627E3],"categories":[],"categories_nodes":[],"categories_segments":[],"categories_sizes":[],"default_left":[0,0,0,0,0,0,0,0,0,0,0,0,0,0,0,0,0],"id":2,"left_children":[1,3,-1,5,7,9,11,13,15,-1,-1,-1,-1,-1,-1,-1,-1],"loss_changes":[9.2468314E10,1.4527012E10,0E0,2.5388913E9,2.6100186E9,2.223913E9,8.805082E7,6.421496E8,6.5898496E8,0E0,0E0,0E0,0E0,0E0,0E0,0E0,0E0],"parents":[2147483647,0,0,1,1,3,3,4,4,5,5,6,6,7,7,8,8],"right_children":[2,4,-1,6,8,10,12,14,16,-1,-1,-1,-1,-1,-1,-1,-1],"split_conditions":[1.15114E5,5.776E4,4.6290737E3,1E0,8.8625E4,1E0,2.018E3,1E0,2.019E3,-1.1749532E3,1.836105E2,-8.455361E2,-3.838164E2,3.2879718E2,-3.1292502E2,3.426416E1,1.4416627E3],"split_indices":[5,5,0,27,5,28,0,11,0,0,0,0,0,0,0,0,0],"split_type":[0,0,0,0,0,0,0,0,0,0,0,0,0,0,0,0,0],"sum_hessian":[1.07E2,9.8E1,9E0,6.8E1,3E1,4E1,2.8E1,2.3E1,7E0,3.7E1,3E0,1E0,2.7E1,1.9E1,4E0,1E0,6E0],"tree_param":{"num_deleted":"0","num_feature":"31","num_nodes":"17","size_leaf_vector":"1"}},{"base_weights":[-1.7704103E2,-1.0738695E4,5.597581E4,-1.4160303E4,2.9703E3,2.678873E4,3.9782654E3,9.097879E2,-1.5638046E4,-4.0042107E3,1.271456E4,3.340752E1,1.480839E3,-1.1901946E3,-5.159703E2,3.8709805E2,-3.4218466E2,1.4073535E1,7.116756E2],"categories":[],"categories_nodes":[],"categories_segments":[],"categories_sizes":[],"default_left":[0,0,0,0,0,0,0,0,0,0,0,0,0,0,0,0,0,0,0],"id":3,"left_children":[1,3,5,7,9,11,-1,-1,13,15,17,-1,-1,-1,-1,-1,-1,-1,-1],"loss_changes":[7.117608E10,4.779649E9,1.095021E10,4.1574748E9,1.4781021E9,7.1891405E8,0E0,0E0,3.1419924E9,4.865732E8,1.6596109E8,0E0,0E0,0E0,0E0,0E0,0E0,0E0,0E0],"parents":[2147483647,0,0,1,1,2,2,3,3,4,4,5,5,8,8,9,9,10,10],"right_children":[2,4,6,8,10,12,-1,-1,14,16,18,-1,-1,-1,-1,-1,-1,-1,-1],"split_conditions":[9.13E4,6.7158E4,1.18485E5,6.233E3,2.024E3,2.019E3,3.9782654E3,9.097879E2,3.8965E4,7.0709E4,6.7856E4,3.340752E1,1.480839E3,-1.1901946E3,-5.159703E2,3.8709805E2,-3.4218466E2,1.4073535E1,7.116756E2],"split_indices":[3,3,3,3,0,0,0,0,3,3,3,0,0,0,0,0,0,0,0],"split_type":[0,0,0,0,0,0,0,0,0,0,0,0,0,0,0,0,0,0,0],"sum_hessian":[1.18E2,1E2,1.8E1,8E1,2E1,9E0,9E0,3E0,7.7E1,1.2E1,8E0,1E0,8E0,2.9E1,4.8E1,2E0,1E1,1E0,7E0],"tree_param":{"num_deleted":"0","num_feature":"31","num_nodes":"19","size_leaf_vector":"1"}},{"base_weights":[-1.625957E2,-7.941647E3,7.905707E4,-1.3630616E4,7.362776E3,1.0819783E3,4.1317437E3,8.756707E2,-1.5034989E4,8.960508E1,1.8871162E4,-1.1444484E3,-4.8796555E2,3.106725E2,-4.0427386E2,1.202682E3,3.4024838E2],"categories":[],"categories_nodes":[],"categories_segments":[],"categories_sizes":[],"default_left":[0,0,0,0,0,0,0,0,0,0,0,0,0,0,0,0,0],"id":4,"left_children":[1,3,5,7,9,-1,-1,-1,11,13,15,-1,-1,-1,-1,-1,-1],"loss_changes":[7.581082E10,9.851794E9,4.7152333E8,3.8498191E9,2.5930854E9,0E0,0E0,0E0,3.0499901E9,1.05149734E9,5.8670925E8,0E0,0E0,0E0,0E0,0E0,0E0],"parents":[2147483647,0,0,1,1,2,2,3,3,4,4,8,8,9,9,10,10],"right_children":[2,4,6,8,10,-1,-1,-1,12,14,16,-1,-1,-1,-1,-1,-1],"split_conditions":[1.03045E5,6.234E4,1.17176E5,6.233E3,8.0836E4,1.0819783E3,4.1317437E3,8.756707E2,4.0571E4,7.1605E4,1.8162E4,-1.1444484E3,-4.8796555E2,3.106725E2,-4.0427386E2,1.202682E3,3.4024838E2],"split_indices":[3,3,3,3,3,0,0,0,3,3,1,0,0,0,0,0,0],"split_type":[0,0,0,0,0,0,0,0,0,0,0,0,0,0,0,0,0],"sum_hessian":[1.21E2,1.11E2,1E1,8.1E1,3E1,1E0,9E0,3E0,7.8E1,1.9E1,1.1E1,3E1,4.8E1,1.1E1,8E0,7E0,4E0],"tree_param":{"num_deleted":"0","num_feature":"31","num_nodes":"17","size_leaf_vector":"1"}},{"base_weights":[-2.0874246E2,-9.04424E3,6.110057E4,-1.418256E4,3.0096758E3,3.7189888E3,1.7010361E4,1.5618935E4,-1.5172321E4,1.5527791E4,-4.524196E3,-7.072119E1,1.0985082E3,1.0482101E3,1.2321006E2,-1.1489203E3,-5.0700275E2,6.2739746E1,8.30632E2,8.137625E0,-4.2217746E2],"categories":[],"categories_nodes":[],"categories_segments":[],"categories_sizes":[],"default_left":[0,0,0,0,0,0,0,0,0,0,0,0,0,0,0,0,0,0,0,0,0],"id":5,"left_children":[1,3,5,7,9,-1,11,13,15,17,19,-1,-1,-1,-1,-1,-1,-1,-1,-1,-1],"loss_changes":[6.880659E10,6.917678E9,8.1025024E9,2.5376911E9,3.2767867E9,0E0,4.8799155E8,1.5928666E8,2.7524547E9,1.8044723E8,4.0550995E8,0E0,0E0,0E0,0E0,0E0,0E0,0E0,0E0,0E0,0E0],"parents":[2147483647,0,0,1,1,2,2,3,3,4,4,6,6,7,7,8,8,9,9,10,10],"right_children":[2,4,6,8,10,-1,12,14,16,18,20,-1,-1,-1,-1,-1,-1,-1,-1,-1,-1],"split_conditions":[9.6323E4,6.005E4,1.5256E4,6.233E3,1.6E1,3.7189888E3,2.019E3,2.014E3,3.55E4,2.019E3,2.675E3,-7.072119E1,1.0985082E3,1.0482101E3,1.2321006E2,-1.1489203E3,-5.0700275E2,6.2739746E1,8.30632E2,8.137625E0,-4.2217746E2],"split_indices":[3,3,1,3,6,0,0,0,5,0,4,0,0,0,0,0,0,0,0,0,0],"split_type":[0,0,0,0,0,0,0,0,0,0,0,0,0,0,0,0,0,0,0,0,0],"sum_hessian":[1.25E2,1.1E2,1.5E1,7.7E1,3.3E1,1.1E1,4E0,2E0,7.5E1,1.2E1,2.1E1,1E0,3E0,1E0,1E0,2.8E1,4.7E1,1E0,1.1E1,1E1,1.1E1],"tree_param":{"num_deleted":"0","num_feature":"31","num_nodes":"21","size_leaf_vector":"1"}},{"base_weights":[-2.503059E3,-1.0043981E4,4.666938E4,-1.9726266E4,-5.4667686E3,2.5333902E4,3.241906E3,1.2012978E2,-2.0492873E4,6.899647E3,-7.5726367E3,-6.8953125E1,1.4422704E3,-1.0393268E3,-2.84733E2,-1.900265E2,4.8498727E2,-2.9181723E2,-9.2815326E2],"categories":[],"categories_nodes":[],"categories_segments":[],"categories_sizes":[],"default_left":[0,0,0,0,0,0,0,0,0,0,0,0,0,0,0,0,0,0,0],"id":6,"left_children":[1,3,5,7,9,11,-1,-1,13,15,17,-1,-1,-1,-1,-1,-1,-1,-1],"loss_changes":[4.4594606E10,4.5012193E9,4.559618E9,6.090527E8,1.927275E9,8.8400384E8,0E0,0E0,2.068992E7,3.6644118E8,1.0747804E9,0E0,0E0,0E0,0E0,0E0,0E0,0E0,0E0],"parents":[2147483647,0,0,1,1,2,2,3,3,4,4,5,5,8,8,9,9,10,10],"right_children":[2,4,6,8,10,12,-1,-1,14,16,18,-1,-1,-1,-1,-1,-1,-1,-1],"split_conditions":[9.13E4,4.0571E4,1.18485E5,6.233E3,1.9E4,2.019E3,3.241906E3,1.2012978E2,2.025E3,5.93E4,6.2E4,-6.8953125E1,1.4422704E3,-1.0393268E3,-2.84733E2,-1.900265E2,4.8498727E2,-2.9181723E2,-9.2815326E2],"split_indices":[3,3,3,3,1,0,0,0,0,3,1,0,0,0,0,0,0,0,0],"split_type":[0,0,0,0,0,0,0,0,0,0,0,0,0,0,0,0,0,0,0],"sum_hessian":[1.18E2,1.03E2,1.5E1,3.2E1,7.1E1,8E0,7E0,1E0,3.1E1,1E1,6.1E1,1E0,7E0,3E1,1E0,2E0,8E0,5.4E1,7E0],"tree_param":{"num_deleted":"0","num_feature":"31","num_nodes":"19","size_leaf_vector":"1"}},{"base_weights":[4.8122543E2,-6.9588154E3,3.5728027E3,1.1257281E4,-1.11142E4,2.9713127E3,2.105443E4,-2.0705877E4,-6.843745E3,8.221453E2,-1.6731041E2,1.1545392E3,1.1909004E2,-2.8374982E2,-1.0540057E3,-2.3000554E2,-9.647921E2],"categories":[],"categories_nodes":[],"categories_segments":[],"categories_sizes":[],"default_left":[0,0,0,0,0,0,0,0,0,0,0,0,0,0,0,0,0],"id":7,"left_children":[1,3,-1,5,7,9,11,13,15,-1,-1,-1,-1,-1,-1,-1,-1],"loss_changes":[6.122364E10,8.073079E9,0E0,1.5610179E9,3.3809265E9,1.0763062E9,2.8721894E8,2.6622976E7,1.6154522E9,0E0,0E0,0E0,0E0,0E0,0E0,0E0,0E0],"parents":[2147483647,0,0,1,1,3,3,4,4,5,5,6,6,7,7,8,8],"right_children":[2,4,-1,6,8,10,12,14,16,-1,-1,-1,-1,-1,-1,-1,-1],"split_conditions":[1.18485E5,1.9E4,3.5728027E3,7.1605E4,4.0571E4,6.233E3,1.8162E4,9.98E2,6.9E4,8.221453E2,-1.6731041E2,1.1545392E3,1.1909004E2,-2.8374982E2,-1.0540057E3,-2.3000554E2,-9.647921E2],"split_indices":[3,1,0,3,3,3,1,4,1,0,0,0,0,0,0,0,0],"split_type":[0,0,0,0,0,0,0,0,0,0,0,0,0,0,0,0,0],"sum_hessian":[1.14E2,1.04E2,1E1,1.9E1,8.5E1,1.1E1,8E0,2.5E1,6E1,3E0,8E0,7E0,1E0,1E0,2.4E1,5.2E1,8E0],"tree_param":{"num_deleted":"0","num_feature":"31","num_nodes":"17","size_leaf_vector":"1"}},{"base_weights":[1.0507172E3,-7.5203286E3,5.3927723E4,9.916625E3,-1.0311911E4,6.2883113E4,9.101931E3,1.0771808E3,1.5689901E4,-2.014125E4,-6.07031E3,1.6259384E3,3.4104023E3,6.477815E2,-6.14792E1,9.9844794E2,-2.6998044E2,3.1297098E2,8.7450604E2,-2.7665607E2,-1.0245144E3,-2.12083E2,-9.2846185E2],"categories":[],"categories_nodes":[],"categories_segments":[],"categories_sizes":[],"default_left":[0,0,0,0,0,0,0,0,0,0,0,0,0,0,0,0,0,0,0,0,0,0,0],"id":8,"left_children":[1,3,5,7,9,11,13,15,17,19,21,-1,-1,-1,-1,-1,-1,-1,-1,-1,-1,-1,-1],"loss_changes":[5.524412E10,5.213311E9,6.251987E9,7.4858714E8,3.671721E9,4.559667E7,1.7518822E8,9.643311E8,4.331443E7,2.4292352E7,1.4068861E9,0E0,0E0,0E0,0E0,0E0,0E0,0E0,0E0,0E0,0E0,0E0,0E0],"parents":[2147483647,0,0,1,1,2,2,3,3,4,4,5,5,6,6,7,7,8,8,9,9,10,10],"right_children":[2,4,6,8,10,12,14,16,18,20,22,-1,-1,-1,-1,-1,-1,-1,-1,-1,-1,-1,-1],"split_conditions":[9.6323E4,1.4427E4,1.6E4,6.7856E4,4.0571E4,1.17176E5,4.0343E4,6.233E3,1E3,9.98E2,6.9E4,1.6259384E3,3.4104023E3,6.477815E2,-6.14792E1,9.9844794E2,-2.6998044E2,3.1297098E2,8.7450604E2,-2.7665607E2,-1.0245144E3,-2.12083E2,-9.2846185E2],"split_indices":[3,1,1,3,3,3,1,3,1,4,1,0,0,0,0,0,0,0,0,0,0,0,0],"split_type":[0,0,0,0,0,0,0,0,0,0,0,0,0,0,0,0,0,0,0,0,0,0,0],"sum_hessian":[1.2E2,1.04E2,1.6E1,1.4E1,9E1,1.3E1,3E0,6E0,8E0,2.6E1,6.4E1,3E0,1E1,2E0,1E0,1E0,5E0,2E0,6E0,1E0,2.5E1,5.7E1,7E0],"tree_param":{"num_deleted":"0","num_feature":"31","num_nodes":"23","size_leaf_vector":"1"}},{"base_weights":[5.285673E2,-5.931072E3,6.742587E4,-9.46966E3,1.8054924E4,3.5158306E3,9.6296136E2,-1.6262866E4,-6.0336978E3,-5.994219E1,1.9515824E4,9.7348676E2,-8.99397E2,-7.0675604E2,-1.8357838E2,1.1414847E3,4.492459E2],"categories":[],"categories_nodes":[],"categories_segments":[],"categories_sizes":[],"default_left":[0,0,0,0,0,0,0,0,0,0,0,0,0,0,0,0,0],"id":9,"left_children":[1,3,5,7,9,-1,-1,11,13,-1,15,-1,-1,-1,-1,-1,-1],"loss_changes":[5.3984326E10,9.846903E9,1.77365E8,2.2359962E9,4.4531405E8,0E0,0E0,2.384384E9,1.2493914E9,0E0,2.8344986E8,0E0,0E0,0E0,0E0,0E0,0E0],"parents":[2147483647,0,0,1,1,2,2,3,3,4,4,7,7,8,8,10,10],"right_children":[2,4,6,8,10,-1,-1,12,14,-1,16,-1,-1,-1,-1,-1,-1],"split_conditions":[1.18485E5,8.0836E4,3E0,2.022E3,2.019E3,3.5158306E3,9.6296136E2,6.233E3,3.81E4,-5.994219E1,2.4E1,9.7348676E2,-8.99397E2,-7.0675604E2,-1.8357838E2,1.1414847E3,4.492459E2],"split_indices":[3,3,2,0,0,0,0,3,3,0,6,0,0,0,0,0,0],"split_type":[0,0,0,0,0,0,0,0,0,0,0,0,0,0,0,0,0],"sum_hessian":[1.23E2,1.13E2,1E1,9.9E1,1.4E1,9E0,1E0,3.2E1,6.7E1,1E0,1.3E1,1E0,3.1E1,1.4E1,5.3E1,9E0,4E0],"tree_param":{"num_deleted":"0","num_feature":"31","num_nodes":"17","size_leaf_vector":"1"}},{"base_weights":[1.3106083E3,-4.731088E3,3.3001191E3,-8.239994E3,1.6600645E4,-1.6698041E4,-4.9724565E3,1.1468527E3,4.2719146E3,-8.9708984E2,-1.764043E1,-3.7893152E2,-2.928429E0,-4.838737E0,3.0193726E2],"categories":[],"categories_nodes":[],"categories_segments":[],"categories_sizes":[],"default_left":[0,0,0,0,0,0,0,0,0,0,0,0,0,0,0],"id":10,"left_children":[1,3,-1,5,7,9,11,-1,13,-1,-1,-1,-1,-1,-1],"loss_changes":[5.0340815E10,8.969213E9,0E0,2.7359421E9,1.2300524E9,5.6289536E8,9.600397E8,0E0,5.4615544E7,0E0,0E0,0E0,0E0,0E0,0E0],"parents":[2147483647,0,0,1,1,3,3,4,4,5,5,6,6,8,8],"right_children":[2,4,-1,6,8,10,12,-1,14,-1,-1,-1,-1,-1,-1],"split_conditions":[1.18485E5,8.0836E4,3.3001191E3,2.022E3,1.8162E4,6.005E4,5.1766E4,1.1468527E3,2.022E3,-8.9708984E2,-1.764043E1,-3.7893152E2,-2.928429E0,-4.838737E0,3.0193726E2],"split_indices":[3,3,0,0,1,3,3,0,0,0,0,0,0,0,0],"split_type":[0,0,0,0,0,0,0,0,0,0,0,0,0,0,0],"sum_hessian":[1.27E2,1.17E2,1E1,1.01E2,1.6E1,2.7E1,7.4E1,1E1,6E0,2.5E1,2E0,4.8E1,2.6E1,2E0,4E0],"tree_param":{"num_deleted":"0","num_feature":"31","num_nodes":"15","size_leaf_vector":"1"}},{"base_weights":[8.7320233E2,-5.519547E3,6.123436E4,-1.078003E4,6.6534165E3,3.196613E3,8.563844E2,9.7424445E2,-1.1906998E4,1.4620094E4,4.3305325E2,-8.668421E2,-4.0905148E2,2.9392172E2,8.7644574E2,4.7079214E2,-1.7238231E2],"categories":[],"categories_nodes":[],"categories_segments":[],"categories_sizes":[],"default_left":[0,0,0,0,0,0,0,0,0,0,0,0,0,0,0,0,0],"id":11,"left_children":[1,3,5,7,9,-1,-1,-1,11,13,15,-1,-1,-1,-1,-1,-1],"loss_changes":[4.432759E10,6.731434E9,2.1393818E8,2.721861E9,1.5794488E9,0E0,0E0,0E0,1.2945981E9,2.5294822E8,6.947931E8,0E0,0E0,0E0,0E0,0E0,0E0],"parents":[2147483647,0,0,1,1,2,2,3,3,4,4,8,8,9,9,10,10],"right_children":[2,4,6,8,10,-1,-1,-1,12,14,16,-1,-1,-1,-1,-1,-1],"split_conditions":[1.03045E5,6.7158E4,3E0,6.233E3,1.8162E4,3.196613E3,8.563844E2,9.7424445E2,2.022E3,7.1E3,7.1605E4,-8.668421E2,-4.0905148E2,2.9392172E2,8.7644574E2,4.7079214E2,-1.7238231E2],"split_indices":[3,3,2,3,1,0,0,0,0,1,3,0,0,0,0,0,0],"split_type":[0,0,0,0,0,0,0,0,0,0,0,0,0,0,0,0,0],"sum_hessian":[1.13E2,1.03E2,1E1,7.2E1,3.1E1,9E0,1E0,2E0,7E1,1.3E1,1.8E1,2.7E1,4.3E1,4E0,9E0,5E0,1.3E1],"tree_param":{"num_deleted":"0","num_feature":"31","num_nodes":"17","size_leaf_vector":"1"}},{"base_weights":[-1.6626125E3,-6.0362056E3,2.9646525E4,-8.831634E3,1.7870707E3,1.8834025E4,2.375236E3,7.4352606E2,-9.962909E3,6.807795E3,-1.2137206E3,1.0635189E3,-1.3823799E2,-6.8586035E2,-2.186044E2,2.9269337E1,5.947785E2,-3.5916302E2,3.946152E2],"categories":[],"categories_nodes":[],"categories_segments":[],"categories_sizes":[],"default_left":[0,0,0,0,0,0,0,0,0,0,0,0,0,0,0,0,0,0,0],"id":12,"left_children":[1,3,5,7,9,11,-1,-1,13,15,17,-1,-1,-1,-1,-1,-1,-1,-1],"loss_changes":[1.6747896E10,2.3558095E9,2.0016701E9,2.266434E9,4.45181E8,6.3765274E8,0E0,0E0,1.5352376E9,3.4127686E8,1.0895091E9,0E0,0E0,0E0,0E0,0E0,0E0,0E0,0E0],"parents":[2147483647,0,0,1,1,2,2,3,3,4,4,5,5,8,8,9,9,10,10],"right_children":[2,4,6,8,10,12,-1,-1,14,16,18,-1,-1,-1,-1,-1,-1,-1,-1],"split_conditions":[8.8625E4,6.0272E4,1.15114E5,7E2,6.8872E4,3.266E3,2.375236E3,7.4352606E2,1E0,2.534E3,7.7363E4,1.0635189E3,-1.3823799E2,-6.8586035E2,-2.186044E2,2.9269337E1,5.947785E2,-3.5916302E2,3.946152E2],"split_indices":[5,5,5,4,5,4,0,0,27,4,5,0,0,0,0,0,0,0,0],"split_type":[0,0,0,0,0,0,0,0,0,0,0,0,0,0,0,0,0,0,0],"sum_hessian":[1.2E2,1.06E2,1.4E1,7.8E1,2.8E1,1E1,4E0,3E0,7.5E1,1E1,1.8E1,9E0,1E0,4.4E1,3.1E1,5E0,5E0,1.1E1,7E0],"tree_param":{"num_deleted":"0","num_feature":"31","num_nodes":"19","size_leaf_vector":"1"}},{"base_weights":[-1.0504384E3,-6.8609346E3,3.387433E4,-9.839273E3,3.7968079E3,8.690288E2,2.3302134E3,-1.3128195E4,-4.217165E3,5.355092E2,-1.4125187E3,-7.097487E2,-3.4409374E1,-2.3639551E2,2.776296E2,-3.3829697E2,1.15668755E2],"categories":[],"categories_nodes":[],"categories_segments":[],"categories_sizes":[],"default_left":[0,0,0,0,0,0,0,0,0,0,0,0,0,0,0,0,0],"id":13,"left_children":[1,3,5,7,9,-1,-1,11,13,-1,15,-1,-1,-1,-1,-1,-1],"loss_changes":[2.4178176E10,3.2750792E9,2.7593871E9,1.4238904E9,8.4345114E8,0E0,0E0,6.537687E8,1.809376E8,0E0,2.9490003E8,0E0,0E0,0E0,0E0,0E0,0E0],"parents":[2147483647,0,0,1,1,2,2,3,3,4,4,7,7,8,8,10,10],"right_children":[2,4,6,8,10,-1,-1,12,14,-1,16,-1,-1,-1,-1,-1,-1],"split_conditions":[9.13E4,6.7158E4,1.17176E5,1E0,1.6E1,8.690288E2,2.3302134E3,1E0,2.024E3,5.355092E2,2.1E1,-7.097487E2,-3.4409374E1,-2.3639551E2,2.776296E2,-3.3829697E2,1.15668755E2],"split_indices":[3,3,3,27,6,0,0,28,0,0,6,0,0,0,0,0,0],"split_type":[0,0,0,0,0,0,0,0,0,0,0,0,0,0,0,0,0],"sum_hessian":[1.17E2,1.01E2,1.6E1,7.9E1,2.2E1,8E0,8E0,4.9E1,3E1,9E0,1.3E1,4.5E1,4E0,2.9E1,1E0,5E0,8E0],"tree_param":{"num_deleted":"0","num_feature":"31","num_nodes":"17","size_leaf_vector":"1"}},{"base_weights":[5.775574E2,-5.5818174E3,4.40653E4,-9.113951E3,4.110882E3,2.8947725E4,3.0958523E3,7.338176E2,-1.0261248E4,1.0664126E4,-1.1422393E3,1.6176399E3,5.109148E2,-6.7375543E2,-2.0243207E2,1.4112793E2,5.5411884E2,-3.2420126E2,8.1192024E1],"categories":[],"categories_nodes":[],"categories_segments":[],"categories_sizes":[],"default_left":[0,0,0,0,0,0,0,0,0,0,0,0,0,0,0,0,0,0,0],"id":14,"left_children":[1,3,5,7,9,11,-1,-1,13,15,17,-1,-1,-1,-1,-1,-1,-1,-1],"loss_changes":[3.2388841E10,3.6664735E9,2.2557716E9,2.2795725E9,1.0105056E9,3.0716006E8,0E0,0E0,1.4429281E9,1.1355904E7,2.6171771E8,0E0,0E0,0E0,0E0,0E0,0E0,0E0,0E0],"parents":[2147483647,0,0,1,1,2,2,3,3,4,4,5,5,8,8,9,9,10,10],"right_children":[2,4,6,8,10,12,-1,-1,14,16,18,-1,-1,-1,-1,-1,-1,-1,-1],"split_conditions":[9.0062E4,6.0272E4,5.667E3,7E2,1.6E1,1.6E4,3.0958523E3,7.338176E2,1E0,2.019E3,2.1E1,1.6176399E3,5.109148E2,-6.7375543E2,-2.0243207E2,1.4112793E2,5.5411884E2,-3.2420126E2,8.1192024E1],"split_indices":[5,5,4,4,6,1,0,0,27,0,6,0,0,0,0,0,0,0,0],"split_type":[0,0,0,0,0,0,0,0,0,0,0,0,0,0,0,0,0,0,0],"sum_hessian":[1.19E2,1.05E2,1.4E1,7.7E1,2.8E1,9E0,5E0,3E0,7.4E1,1.2E1,1.6E1,7E0,2E0,4.8E1,2.6E1,1E0,1.1E1,5E0,1.1E1],"tree_param":{"num_deleted":"0","num_feature":"31","num_nodes":"19","size_leaf_vector":"1"}},{"base_weights":[3.5983698E2,-5.4467144E3,4.0981707E4,5.6122974E3,-7.6468906E3,4.6812258E4,2.0554192E3,7.3353745E3,-5.920002E2,-1.4597997E4,-4.1597407E3,1.5783522E3,2.9668584E3,-2.0581026E2,3.599667E2,9.2803076E2,2.7368793E2,-7.58247E2,-3.6316876E2,-4.944874E2,-1.3357906E2],"categories":[],"categories_nodes":[],"categories_segments":[],"categories_sizes":[],"default_left":[0,0,0,0,0,0,0,0,0,0,0,0,0,0,0,0,0,0,0,0,0],"id":15,"left_children":[1,3,5,7,9,11,13,15,-1,17,19,-1,-1,-1,-1,-1,-1,-1,-1,-1,-1],"loss_changes":[2.82921E10,2.5977536E9,3.308208E9,6.281407E8,2.0723564E9,6.0918374E8,1.24872856E8,2.536542E8,0E0,1.0441728E7,4.8520877E8,0E0,0E0,0E0,0E0,0E0,0E0,0E0,0E0,0E0,0E0],"parents":[2147483647,0,0,1,1,2,2,3,3,4,4,5,5,6,6,7,7,9,9,10,10],"right_children":[2,4,6,8,10,12,14,16,-1,18,20,-1,-1,-1,-1,-1,-1,-1,-1,-1,-1],"split_conditions":[9.6323E4,1.5E4,1.6E4,1E0,4.0571E4,5.667E3,2.019E3,2.014E3,-5.920002E2,3.7042E4,2.022E3,1.5783522E3,2.9668584E3,-2.0581026E2,3.599667E2,9.2803076E2,2.7368793E2,-7.58247E2,-3.6316876E2,-4.944874E2,-1.3357906E2],"split_indices":[3,1,1,20,3,4,0,0,0,3,0,0,0,0,0,0,0,0,0,0,0],"split_type":[0,0,0,0,0,0,0,0,0,0,0,0,0,0,0,0,0,0,0,0,0],"sum_hessian":[1.18E2,1.04E2,1.4E1,1.7E1,8.7E1,1.2E1,2E0,1.6E1,1E0,2.8E1,5.9E1,7E0,5E0,1E0,1E0,1E0,1.5E1,2.5E1,3E0,1.1E1,4.8E1],"tree_param":{"num_deleted":"0","num_feature":"31","num_nodes":"21","size_leaf_vector":"1"}},{"base_weights":[-8.99154E1,-5.071177E3,4.1428086E4,-8.396023E3,3.7782869E3,-2.0066504E2,4.592397E4,9.0483E2,-9.015318E3,1.0375714E4,-1.8182656E3,2.3983306E3,6.374389E2,-7.1808966E2,-2.7441412E2,2.5588028E2,5.7206934E2,-1.774264E2,3.4311908E2],"categories":[],"categories_nodes":[],"categories_segments":[],"categories_sizes":[],"default_left":[0,0,0,0,0,0,0,0,0,0,0,0,0,0,0,0,0,0,0],"id":16,"left_children":[1,3,5,7,9,-1,11,-1,13,15,17,-1,-1,-1,-1,-1,-1,-1,-1],"loss_changes":[2.3166224E10,2.9740337E9,2.6358948E9,1.3608387E9,1.05270554E9,0E0,1.3390029E8,0E0,1.2788977E9,1.4291968E7,2.6466813E8,0E0,0E0,0E0,0E0,0E0,0E0,0E0,0E0],"parents":[2147483647,0,0,1,1,2,2,3,3,4,4,6,6,8,8,9,9,10,10],"right_children":[2,4,6,8,10,-1,12,-1,14,16,18,-1,-1,-1,-1,-1,-1,-1,-1],"split_conditions":[9.6323E4,6.005E4,2.019E3,6.233E3,1.6E1,-2.0066504E2,3E0,9.0483E2,3.55E4,7.1E3,3.6E1,2.3983306E3,6.374389E2,-7.1808966E2,-2.7441412E2,2.5588028E2,5.7206934E2,-1.774264E2,3.4311908E2],"split_indices":[3,3,0,3,6,0,2,0,5,1,6,0,0,0,0,0,0,0,0],"split_type":[0,0,0,0,0,0,0,0,0,0,0,0,0,0,0,0,0,0,0],"sum_hessian":[1.1E2,9.9E1,1.1E1,7.2E1,2.7E1,1E0,1E1,1E0,7.1E1,1.2E1,1.5E1,9E0,1E0,2.7E1,4.4E1,3E0,9E0,1.3E1,2E0],"tree_param":{"num_deleted":"0","num_feature":"31","num_nodes":"19","size_leaf_vector":"1"}},{"base_weights":[7.8431836E2,-3.7656694E3,4.1668848E4,8.79482E3,-6.8986016E3,5.0885496E4,1.0514182E4,5.142525E3,1.009206E3,-1.3286786E4,-4.6646826E3,2.7069333E3,6.215029E2,-1.9564844E2,8.3137775E2,-5.0970215E1,3.7954565E2,-6.775673E2,-1.9327588E2,-1.5858453E2,-6.883944E2],"categories":[],"categories_nodes":[],"categories_segments":[],"categories_sizes":[],"default_left":[0,0,0,0,0,0,0,0,0,0,0,0,0,0,0,0,0,0,0,0,0],"id":17,"left_children":[1,3,5,7,9,11,13,15,-1,17,19,-1,-1,-1,-1,-1,-1,-1,-1,-1,-1],"loss_changes":[2.2293778E10,4.310597E9,2.910681E9,8.113384E8,1.179571E9,4.529705E8,4.1785728E8,2.793006E8,0E0,2.451712E6,8.533394E8,0E0,0E0,0E0,0E0,0E0,0E0,0E0,0E0,0E0,0E0],"parents":[2147483647,0,0,1,1,2,2,3,3,4,4,5,5,6,6,7,7,9,9,10,10],"right_children":[2,4,6,8,10,12,14,16,-1,18,20,-1,-1,-1,-1,-1,-1,-1,-1,-1,-1],"split_conditions":[3.506E3,1.9E4,1.1E4,1E0,1.653E3,1E0,2.019E3,2.024E3,1.009206E3,1E0,6.9E4,2.7069333E3,6.215029E2,-1.9564844E2,8.3137775E2,-5.0970215E1,3.7954565E2,-6.775673E2,-1.9327588E2,-1.5858453E2,-6.883944E2],"split_indices":[4,1,1,9,4,10,0,0,0,8,1,0,0,0,0,0,0,0,0,0,0],"split_type":[0,0,0,0,0,0,0,0,0,0,0,0,0,0,0,0,0,0,0,0,0],"sum_hessian":[1.18E2,1.07E2,1.1E1,2.1E1,8.6E1,8E0,3E0,1.7E1,4E0,2.1E1,6.5E1,7E0,1E0,1E0,2E0,5E0,1.2E1,2E1,1E0,5.7E1,8E0],"tree_param":{"num_deleted":"0","num_feature":"31","num_nodes":"21","size_leaf_vector":"1"}},{"base_weights":[2.5033246E2,-3.4539197E3,4.060165E4,-5.2568013E3,1.0264035E4,2.120988E3,6.0596545E2,1.2901486E4,-5.973571E3,-1.9075723E2,1.17552295E4,8.834835E2,2.7111008E2,-6.0926715E2,-1.7096428E2,6.731512E2,2.4869429E2],"categories":[],"categories_nodes":[],"categories_segments":[],"categories_sizes":[],"default_left":[0,0,0,0,0,0,0,0,0,0,0,0,0,0,0,0,0],"id":18,"left_children":[1,3,5,7,9,-1,-1,11,13,-1,15,-1,-1,-1,-1,-1,-1],"loss_changes":[1.7777865E10,2.7497272E9,3.74272E6,1.339553E9,3.177801E8,0E0,0E0,4.684192E7,1.4497984E9,0E0,7.201011E7,0E0,0E0,0E0,0E0,0E0,0E0],"parents":[2147483647,0,0,1,1,2,2,3,3,4,4,7,7,8,8,10,10],"right_children":[2,4,6,8,10,-1,-1,12,14,-1,16,-1,-1,-1,-1,-1,-1],"split_conditions":[1.15114E5,7.7363E4,3E0,7E2,2.019E3,2.120988E3,6.0596545E2,2.014E3,3.8917E4,-1.9075723E2,1.8162E4,8.834835E2,2.7111008E2,-6.0926715E2,-1.7096428E2,6.731512E2,2.4869429E2],"split_indices":[5,5,2,4,0,0,0,0,5,0,1,0,0,0,0,0,0],"split_type":[0,0,0,0,0,0,0,0,0,0,0,0,0,0,0,0,0],"sum_hessian":[1.17E2,1.08E2,9E0,9.6E1,1.2E1,8E0,1E0,3E0,9.3E1,1E0,1.1E1,1E0,2E0,2.6E1,6.7E1,8E0,3E0],"tree_param":{"num_deleted":"0","num_feature":"31","num_nodes":"17","size_leaf_vector":"1"}},{"base_weights":[9.835236E2,2.096807E4,-5.3148003E3,8.308442E3,3.7155203E4,-1.2166801E4,-2.742637E3,4.311099E3,6.701531E2,4.462494E4,1.7772586E4,-6.1972766E2,-1.7321231E2,3.287354E3,-4.1435117E3,4.4149435E2,-2.9021255E2,2.3811921E3,5.908162E2,4.0592307E2,1.0751259E3,-4.5948574E1,6.4906647E2,-1.7159758E2,-5.215206E2],"categories":[],"categories_nodes":[],"categories_segments":[],"categories_sizes":[],"default_left":[0,0,0,0,0,0,0,0,0,0,0,0,0,0,0,0,0,0,0,0,0,0,0,0,0],"id":19,"left_children":[1,3,5,7,9,11,13,15,-1,17,19,-1,-1,21,23,-1,-1,-1,-1,-1,-1,-1,-1,-1,-1],"loss_changes":[1.4712264E10,5.4291446E9,1.5352082E9,2.8842214E8,9.442949E8,4.630784E6,5.711405E8,5.5405114E8,0E0,2.2437888E8,5.478784E6,0E0,0E0,5.4201766E8,2.0577267E8,0E0,0E0,0E0,0E0,0E0,0E0,0E0,0E0,0E0,0E0],"parents":[2147483647,0,0,1,1,2,2,3,3,4,4,5,5,6,6,7,7,9,9,10,10,13,13,14,14],"right_children":[2,4,6,8,10,12,14,16,-1,18,20,-1,-1,22,24,-1,-1,-1,-1,-1,-1,-1,-1,-1,-1],"split_conditions":[1.6E4,3.251E3,1.653E3,8E3,1.1E4,1E0,2.9322E4,4.216E3,6.701531E2,3E0,1.5E4,-6.1972766E2,-1.7321231E2,2.813E3,7.2E4,4.4149435E2,-2.9021255E2,2.3811921E3,5.908162E2,4.0592307E2,1.0751259E3,-4.5948574E1,6.4906647E2,-1.7159758E2,-5.215206E2],"split_indices":[1,4,4,1,1,8,1,1,0,2,1,0,0,4,1,0,0,0,0,0,0,0,0,0,0],"split_type":[0,0,0,0,0,0,0,0,0,0,0,0,0,0,0,0,0,0,0,0,0,0,0,0,0],"sum_hessian":[1.15E2,2.7E1,8.8E1,1.6E1,1.1E1,2.3E1,6.5E1,1E1,6E0,7E0,4E0,2.2E1,1E0,1.2E1,5.3E1,7E0,3E0,6E0,1E0,2E0,2E0,9E0,3E0,4.9E1,4E0],"tree_param":{"num_deleted":"0","num_feature":"31","num_nodes":"25","size_leaf_vector":"1"}},{"base_weights":[-2.7955368E2,-3.8468982E3,3.8632457E4,4.708472E3,-6.064446E3,1.152528E3,2.4802122E3,8.50359E2,3.3763865E3,-1.1975012E4,-3.7532263E3,-1.284597E2,3.845094E2,-7.418179E2,-4.8085333E2,-1.0199749E2,-5.9113275E2],"categories":[],"categories_nodes":[],"categories_segments":[],"categories_sizes":[],"default_left":[0,0,0,0,0,0,0,0,0,0,0,0,0,0,0,0,0],"id":20,"left_children":[1,3,5,7,9,-1,-1,-1,11,13,15,-1,-1,-1,-1,-1,-1],"loss_changes":[1.6528495E10,2.0964957E9,5.662075E8,3.1938467E8,1.1435284E9,0E0,0E0,0E0,5.840148E8,1.9243264E7,8.6069274E8,0E0,0E0,0E0,0E0,0E0,0E0],"parents":[2147483647,0,0,1,1,2,2,3,3,4,4,8,8,9,9,10,10],"right_children":[2,4,6,8,10,-1,-1,-1,12,14,16,-1,-1,-1,-1,-1,-1],"split_conditions":[1.03045E5,1.9E4,5.667E3,2.014E3,4.0571E4,1.152528E3,2.4802122E3,8.50359E2,6.7856E4,2.4593E4,6.9E4,-1.284597E2,3.845094E2,-7.418179E2,-4.8085333E2,-1.0199749E2,-5.9113275E2],"split_indices":[3,1,4,0,3,0,0,0,3,3,1,0,0,0,0,0,0],"split_type":[0,0,0,0,0,0,0,0,0,0,0,0,0,0,0,0,0],"sum_hessian":[1.17E2,1.08E2,9E0,2.2E1,8.6E1,5E0,4E0,1E0,2.1E1,2.3E1,6.3E1,9E0,1.2E1,8E0,1.5E1,5.3E1,1E1],"tree_param":{"num_deleted":"0","num_feature":"31","num_nodes":"17","size_leaf_vector":"1"}},{"base_weights":[3.9821045E2,-2.394711E3,3.805287E4,6.799903E3,-5.5435317E3,2.5330586E3,2.035566E4,7.939248E3,-5.9906036E2,-1.1746486E4,-3.4531665E3,3.0953928E2,1.1174591E3,2.805674E2,8.5298694E2,-6.017245E2,-1.5686075E2,-1.1022501E2,-5.803051E2],"categories":[],"categories_nodes":[],"categories_segments":[],"categories_sizes":[],"default_left":[0,0,0,0,0,0,0,0,0,0,0,0,0,0,0,0,0,0,0],"id":21,"left_children":[1,3,5,7,9,-1,11,13,-1,15,17,-1,-1,-1,-1,-1,-1,-1,-1],"loss_changes":[1.2185274E10,3.1645322E9,7.5381146E8,6.942702E8,1.0097193E9,0E0,2.830976E6,4.77525E8,0E0,1.1835136E7,6.0559264E8,0E0,0E0,0E0,0E0,0E0,0E0,0E0,0E0],"parents":[2147483647,0,0,1,1,2,2,3,3,4,4,6,6,7,7,9,9,10,10],"right_children":[2,4,6,8,10,-1,12,14,-1,16,18,-1,-1,-1,-1,-1,-1,-1,-1],"split_conditions":[4.324E3,1.9E4,3.847E3,1E0,1.653E3,2.5330586E3,6E0,1E0,-5.9906036E2,1E0,7.2E4,3.0953928E2,1.1174591E3,2.805674E2,8.5298694E2,-6.017245E2,-1.5686075E2,-1.1022501E2,-5.803051E2],"split_indices":[4,1,1,20,4,0,6,9,0,8,1,0,0,0,0,0,0,0,0],"split_type":[0,0,0,0,0,0,0,0,0,0,0,0,0,0,0,0,0,0,0],"sum_hessian":[1.14E2,1.07E2,7E0,2.7E1,8E1,3E0,4E0,2.6E1,1E0,1.9E1,6.1E1,1E0,3E0,2.2E1,4E0,1.8E1,1E0,5.4E1,7E0],"tree_param":{"num_deleted":"0","num_feature":"31","num_nodes":"19","size_leaf_vector":"1"}},{"base_weights":[3.4008505E2,-3.8834111E3,3.0163453E4,-6.212501E3,2.826642E3,3.4852504E4,-2.1024739E2,1.1855154E4,-7.0816865E3,8.551366E3,-8.288362E2,4.084348E4,1.0527891E3,2.2267949E2,-2.3844804E2,8.220859E2,2.422864E2,-5.594748E2,-2.3609183E2,2.0611295E2,4.8485E2,-2.9538644E2,7.895125E1,2.1956543E3,4.8390625E2],"categories":[],"categories_nodes":[],"categories_segments":[],"categories_sizes":[],"default_left":[0,0,0,0,0,0,0,0,0,0,0,0,0,0,0,0,0,0,0,0,0,0,0,0,0],"id":22,"left_children":[1,3,5,7,9,11,13,15,17,19,21,23,-1,-1,-1,-1,-1,-1,-1,-1,-1,-1,-1,-1,-1],"loss_changes":[1.5232203E10,1.6741619E9,2.1436856E9,1.3245827E9,5.9303264E8,2.1453414E8,8.502229E7,4.892461E7,6.838945E8,1.584192E7,2.2945526E8,3.4032742E8,0E0,0E0,0E0,0E0,0E0,0E0,0E0,0E0,0E0,0E0,0E0,0E0,0E0],"parents":[2147483647,0,0,1,1,2,2,3,3,4,4,5,5,6,6,7,7,8,8,9,9,10,10,11,11],"right_children":[2,4,6,8,10,12,14,16,18,20,22,24,-1,-1,-1,-1,-1,-1,-1,-1,-1,-1,-1,-1,-1],"split_conditions":[9.3098E4,6.005E4,1.6E4,6.233E3,1.6E1,6.572E3,1.8162E4,2E1,3.55E4,7.1E3,2.1E1,2.4E1,1.0527891E3,2.2267949E2,-2.3844804E2,8.220859E2,2.422864E2,-5.594748E2,-2.3609183E2,2.0611295E2,4.8485E2,-2.9538644E2,7.895125E1,2.1956543E3,4.8390625E2],"split_indices":[3,3,1,3,6,1,1,1,5,1,6,6,0,0,0,0,0,0,0,0,0,0,0,0,0],"split_type":[0,0,0,0,0,0,0,0,0,0,0,0,0,0,0,0,0,0,0,0,0,0,0,0,0],"sum_hessian":[1.19E2,1.05E2,1.4E1,7.8E1,2.7E1,1.2E1,2E0,3E0,7.5E1,1E1,1.7E1,7E0,5E0,1E0,1E0,1E0,2E0,2.6E1,4.9E1,3E0,7E0,5E0,1.2E1,6E0,1E0],"tree_param":{"num_deleted":"0","num_feature":"31","num_nodes":"25","size_leaf_vector":"1"}},{"base_weights":[6.056567E2,-3.0044346E3,3.69797E4,-5.934655E3,3.8062004E3,1.9395219E3,4.718086E2,1.152849E4,-6.7868936E3,1.2306027E3,1.2023067E4,8.015337E2,2.3421024E2,-5.560765E2,-1.9839647E2,2.8325818E2,-1.3473619E2,-2.3248692E2,7.534573E2],"categories":[],"categories_nodes":[],"categories_segments":[],"categories_sizes":[],"default_left":[0,0,0,0,0,0,0,0,0,0,0,0,0,0,0,0,0,0,0],"id":23,"left_children":[1,3,5,7,9,-1,-1,11,13,15,17,-1,-1,-1,-1,-1,-1,-1,-1],"loss_changes":[1.6000051E10,2.2377774E9,1.8258022E8,1.2390991E9,7.04758E8,0E0,0E0,4.8165984E7,8.72309E8,4.8525773E8,4.7636096E8,0E0,0E0,0E0,0E0,0E0,0E0,0E0,0E0],"parents":[2147483647,0,0,1,1,2,2,3,3,4,4,7,7,8,8,9,9,10,10],"right_children":[2,4,6,8,10,-1,-1,12,14,16,18,-1,-1,-1,-1,-1,-1,-1,-1],"split_conditions":[1.18485E5,6.234E4,3E0,6.233E3,9.13E4,1.9395219E3,4.718086E2,2.014E3,2.022E3,7.1605E4,2.019E3,8.015337E2,2.3421024E2,-5.560765E2,-1.9839647E2,2.8325818E2,-1.3473619E2,-2.3248692E2,7.534573E2],"split_indices":[3,3,2,3,3,0,0,0,0,3,0,0,0,0,0,0,0,0,0],"split_type":[0,0,0,0,0,0,0,0,0,0,0,0,0,0,0,0,0,0,0],"sum_hessian":[1.2E2,1.1E2,1E1,7.7E1,3.3E1,9E0,1E0,3E0,7.4E1,2.6E1,7E0,1E0,2E0,2.8E1,4.6E1,1.2E1,1.4E1,1E0,6E0],"tree_param":{"num_deleted":"0","num_feature":"31","num_nodes":"19","size_leaf_vector":"1"}},{"base_weights":[3.4784497E2,-3.3559316E3,2.6251092E4,-6.0037827E3,2.3499863E3,1.637413E4,2.1365095E3,-1.0417275E4,-3.1241917E3,4.1257666E2,-1.6962826E3,-2.266748E2,9.459121E2,-7.1929584E2,-3.8901202E2,-3.3429816E2,-8.1319855E1,-1.4690129E2,3.36676E2],"categories":[],"categories_nodes":[],"categories_segments":[],"categories_sizes":[],"default_left":[0,0,0,0,0,0,0,0,0,0,0,0,0,0,0,0,0,0,0],"id":24,"left_children":[1,3,5,7,9,11,-1,13,15,-1,17,-1,-1,-1,-1,-1,-1,-1,-1],"loss_changes":[1.1504937E10,1.6004927E9,1.741781E9,8.825065E8,8.258913E8,6.708708E8,0E0,1.8110643E8,2.2919197E8,0E0,2.396039E8,0E0,0E0,0E0,0E0,0E0,0E0,0E0,0E0],"parents":[2147483647,0,0,1,1,2,2,3,3,4,4,5,5,7,7,8,8,10,10],"right_children":[2,4,6,8,10,12,-1,14,16,-1,18,-1,-1,-1,-1,-1,-1,-1,-1],"split_conditions":[9.6323E4,6.005E4,5.667E3,2.023E3,1.6E1,2.019E3,2.1365095E3,2.02E3,3.773E4,4.1257666E2,5E1,-2.266748E2,9.459121E2,-7.1929584E2,-3.8901202E2,-3.3429816E2,-8.1319855E1,-1.4690129E2,3.36676E2],"split_indices":[3,3,4,0,6,0,0,0,3,0,6,0,0,0,0,0,0,0,0],"split_type":[0,0,0,0,0,0,0,0,0,0,0,0,0,0,0,0,0,0,0],"sum_hessian":[1.18E2,1.04E2,1.4E1,7.1E1,3.3E1,1E1,4E0,2.7E1,4.4E1,1.3E1,2E1,1E0,9E0,9E0,1.8E1,1.2E1,3.2E1,1.8E1,2E0],"tree_param":{"num_deleted":"0","num_feature":"31","num_nodes":"19","size_leaf_vector":"1"}},{"base_weights":[4.3754544E0,-3.2206719E3,2.5804416E4,3.1541316E3,-4.871575E3,3.0664783E4,-6.1839716E2,4.329495E3,-5.382126E2,-1.0553075E4,-3.135882E3,3.804949E4,9.08464E2,-2.2100792E2,1.7462813E2,7.994777E2,1.4735072E2,-3.5188254E2,-6.0086346E2,-1.9507188E2,1.8823206E2,2.108423E3,4.3636545E2],"categories":[],"categories_nodes":[],"categories_segments":[],"categories_sizes":[],"default_left":[0,0,0,0,0,0,0,0,0,0,0,0,0,0,0,0,0,0,0,0,0,0,0],"id":25,"left_children":[1,3,5,7,9,11,13,15,-1,17,19,21,-1,-1,-1,-1,-1,-1,-1,-1,-1,-1,-1],"loss_changes":[9.735044E9,1.109881E9,1.6884818E9,4.0650528E8,7.853984E8,3.236997E8,6.232434E7,2.9139456E8,0E0,1.3224576E7,3.580652E8,3.5664794E8,0E0,0E0,0E0,0E0,0E0,0E0,0E0,0E0,0E0,0E0,0E0],"parents":[2147483647,0,0,1,1,2,2,3,3,4,4,5,5,6,6,7,7,9,9,10,10,11,11],"right_children":[2,4,6,8,10,12,14,16,-1,18,20,22,-1,-1,-1,-1,-1,-1,-1,-1,-1,-1,-1],"split_conditions":[9.6323E4,1.9E4,1.6E4,1E0,3.14E4,3.847E3,2.019E3,2.014E3,-5.382126E2,3E0,2.024E3,3E0,9.08464E2,-2.2100792E2,1.7462813E2,7.994777E2,1.4735072E2,-3.5188254E2,-6.0086346E2,-1.9507188E2,1.8823206E2,2.108423E3,4.3636545E2],"split_indices":[3,1,1,20,3,1,0,0,0,6,0,2,0,0,0,0,0,0,0,0,0,0,0],"split_type":[0,0,0,0,0,0,0,0,0,0,0,0,0,0,0,0,0,0,0,0,0,0,0],"sum_hessian":[1.15E2,1.03E2,1.2E1,2.1E1,8.2E1,1E1,2E0,2E1,1E0,1.8E1,6.4E1,5E0,5E0,1E0,1E0,1E0,1.9E1,7E0,1.1E1,5.8E1,6E0,4E0,1E0],"tree_param":{"num_deleted":"0","num_feature":"31","num_nodes":"23","size_leaf_vector":"1"}},{"base_weights":[-4.2936844E2,-2.887881E3,1.5946141E3,-5.1359253E3,3.1806455E3,1.1284429E4,-5.9541074E3,4.0286386E2,-7.3564014E2,7.7949084E2,2.3263469E2,-6.274029E2,-2.1031924E2,-3.35598E2,1.5671744E2],"categories":[],"categories_nodes":[],"categories_segments":[],"categories_sizes":[],"default_left":[0,0,0,0,0,0,0,0,0,0,0,0,0,0,0],"id":26,"left_children":[1,3,-1,5,7,9,11,-1,13,-1,-1,-1,-1,-1,-1],"loss_changes":[8.991978E9,1.4487786E9,0E0,1.1016716E9,5.597774E8,4.167408E7,8.000233E8,0E0,4.1421856E8,0E0,0E0,0E0,0E0,0E0,0E0],"parents":[2147483647,0,0,1,1,3,3,4,4,5,5,6,6,8,8],"right_children":[2,4,-1,6,8,10,12,-1,14,-1,-1,-1,-1,-1,-1],"split_conditions":[1.18485E5,6.005E4,1.5946141E3,6.233E3,1.6E1,2.014E3,2.021E3,4.0286386E2,2.1E1,7.7949084E2,2.3263469E2,-6.274029E2,-2.1031924E2,-3.35598E2,1.5671744E2],"split_indices":[3,3,0,3,6,0,0,0,6,0,0,0,0,0,0],"split_type":[0,0,0,0,0,0,0,0,0,0,0,0,0,0,0],"sum_hessian":[1.11E2,1.04E2,7E0,7.6E1,2.8E1,3E0,7.3E1,1.2E1,1.6E1,1E0,2E0,1.4E1,5.9E1,6E0,1E1],"tree_param":{"num_deleted":"0","num_feature":"31","num_nodes":"15","size_leaf_vector":"1"}},{"base_weights":[7.08471E2,-2.5174543E3,3.2903316E4,-4.8807837E3,3.1448833E3,1.8147059E3,5.881573E2,1.0973239E4,-5.6612544E3,9.548913E2,7.438059E3,7.6000354E2,2.2488028E2,-6.043197E2,-2.0595532E2,2.3860123E2,-2.2422923E2,4.5512906E2,1.1247505E2],"categories":[],"categories_nodes":[],"categories_segments":[],"categories_sizes":[],"default_left":[0,0,0,0,0,0,0,0,0,0,0,0,0,0,0,0,0,0,0],"id":27,"left_children":[1,3,5,7,9,-1,-1,11,13,15,17,-1,-1,-1,-1,-1,-1,-1,-1],"loss_changes":[1.2545812E10,1.4873661E9,3.6157133E8,1.0272632E9,3.0316413E8,0E0,0E0,4.112176E7,6.933537E8,4.9895424E8,7.452493E7,0E0,0E0,0E0,0E0,0E0,0E0,0E0,0E0],"parents":[2147483647,0,0,1,1,2,2,3,3,4,4,7,7,8,8,9,9,10,10],"right_children":[2,4,6,8,10,-1,-1,12,14,16,18,-1,-1,-1,-1,-1,-1,-1,-1],"split_conditions":[1.03045E5,6.005E4,6.572E3,6.233E3,8.0836E4,1.8147059E3,5.881573E2,2.014E3,2.021E3,7.1605E4,1.8162E4,7.6000354E2,2.2488028E2,-6.043197E2,-2.0595532E2,2.3860123E2,-2.2422923E2,4.5512906E2,1.1247505E2],"split_indices":[3,3,1,3,3,0,0,0,0,3,1,0,0,0,0,0,0,0,0],"split_type":[0,0,0,0,0,0,0,0,0,0,0,0,0,0,0,0,0,0,0],"sum_hessian":[1.19E2,1.09E2,1E1,7.7E1,3.2E1,8E0,2E0,3E0,7.4E1,2.2E1,1E1,1E0,2E0,1.3E1,6.1E1,1.3E1,9E0,7E0,3E0],"tree_param":{"num_deleted":"0","num_feature":"31","num_nodes":"19","size_leaf_vector":"1"}},{"base_weights":[4.7667078E2,-2.6949492E3,2.8717227E4,-4.27038E3,7.2523833E3,9.187267E2,1.799875E3,-8.112703E3,-2.4025662E3,4.4961432E2,3.9793103E3,-4.354077E2,7.453776E0,-3.6192737E2,-6.3114777E1,1.1627184E2,2.704665E2],"categories":[],"categories_nodes":[],"categories_segments":[],"categories_sizes":[],"default_left":[0,0,0,0,0,0,0,0,0,0,0,0,0,0,0,0,0],"id":28,"left_children":[1,3,5,7,9,-1,-1,11,13,-1,15,-1,-1,-1,-1,-1,-1],"loss_changes":[1.0646453E10,1.7078029E9,2.4213402E8,6.47946E8,4.9639296E7,0E0,0E0,1.4888282E8,3.4377974E8,0E0,3.976448E6,0E0,0E0,0E0,0E0,0E0,0E0],"parents":[2147483647,0,0,1,1,2,2,3,3,4,4,7,7,8,8,10,10],"right_children":[2,4,6,8,10,-1,-1,12,14,-1,16,-1,-1,-1,-1,-1,-1],"split_conditions":[1.03045E5,8.0836E4,5.667E3,2.022E3,1.6E4,9.187267E2,1.799875E3,6.005E4,3.687E4,4.4961432E2,9.13E4,-4.354077E2,7.453776E0,-3.6192737E2,-6.3114777E1,1.1627184E2,2.704665E2],"split_indices":[3,3,4,0,1,0,0,3,3,0,3,0,0,0,0,0,0],"split_type":[0,0,0,0,0,0,0,0,0,0,0,0,0,0,0,0,0],"sum_hessian":[1.17E2,1.06E2,1.1E1,9.2E1,1.4E1,6E0,5E0,2.9E1,6.3E1,8E0,6E0,2.7E1,2E0,1.1E1,5.2E1,4E0,2E0],"tree_param":{"num_deleted":"0","num_feature":"31","num_nodes":"17","size_leaf_vector":"1"}},{"base_weights":[1.1983514E3,-1.7543857E3,2.8903432E4,7.253684E3,-3.425124E3,1.6235002E3,6.826393E2,5.2316924E3,7.8098724E2,-7.641784E3,-1.3926758E3,7.518886E2,1.7877179E2,-2.570588E2,-5.354345E2,-4.6127002E2,-1.5350333E1],"categories":[],"categories_nodes":[],"categories_segments":[],"categories_sizes":[],"default_left":[0,0,0,0,0,0,0,0,0,0,0,0,0,0,0,0,0],"id":29,"left_children":[1,3,5,7,9,-1,-1,11,-1,13,15,-1,-1,-1,-1,-1,-1],"loss_changes":[1.019463E10,1.7255091E9,2.094039E8,2.2277216E8,8.1209114E8,0E0,0E0,2.0609552E8,0E0,1.8268774E8,5.584151E8,0E0,0E0,0E0,0E0,0E0,0E0],"parents":[2147483647,0,0,1,1,2,2,3,3,4,4,7,7,9,9,10,10],"right_children":[2,4,6,8,10,-1,-1,12,-1,14,16,-1,-1,-1,-1,-1,-1],"split_conditions":[1.15114E5,1.6E4,1.9E1,9.3938E4,2.022E3,1.6235002E3,6.826393E2,2.014E3,7.8098724E2,4.8905E4,3.2E4,7.518886E2,1.7877179E2,-2.570588E2,-5.354345E2,-4.6127002E2,-1.5350333E1],"split_indices":[5,1,6,5,0,0,0,0,0,1,5,0,0,0,0,0,0],"split_type":[0,0,0,0,0,0,0,0,0,0,0,0,0,0,0,0,0],"sum_hessian":[1.23E2,1.12E2,1.1E1,1.7E1,9.5E1,8E0,3E0,1.5E1,2E0,3E1,6.5E1,1E0,1.4E1,1.8E1,1.2E1,7E0,5.8E1],"tree_param":{"num_deleted":"0","num_feature":"31","num_nodes":"17","size_leaf_vector":"1"}},{"base_weights":[-4.3357367E2,-3.2889248E3,1.2776075E4,1.0683255E4,-3.848497E3,1.1777174E3,7.9357188E3,7.3309143E2,4.4697876E3,-8.04662E3,-2.2108203E3,5.595592E2,2.1513806E3,-1.945918E1,3.5469327E2,3.0423878E1,-4.2085815E2,-3.4584604E2,-4.4357082E1,-2.313789E2,2.026235E2],"categories":[],"categories_nodes":[],"categories_segments":[],"categories_sizes":[],"default_left":[0,0,0,0,0,0,0,0,0,0,0,0,0,0,0,0,0,0,0,0,0],"id":30,"left_children":[1,3,5,7,9,-1,11,-1,13,15,17,-1,19,-1,-1,-1,-1,-1,-1,-1,-1],"loss_changes":[4.455047E9,7.995037E8,9.086633E8,3.3347648E7,6.2847616E8,0E0,2.7721498E8,0E0,4.101177E7,8.850586E7,4.2368992E8,0E0,1.0896496E8,0E0,0E0,0E0,0E0,0E0,0E0,0E0,0E0],"parents":[2147483647,0,0,1,1,2,2,3,3,4,4,6,6,8,8,9,9,10,10,12,12],"right_children":[2,4,6,8,10,-1,12,-1,14,16,18,-1,20,-1,-1,-1,-1,-1,-1,-1,-1],"split_conditions":[7.7363E4,7E2,6.572E3,2.014E3,3.55E4,1.1777174E3,1.6E4,7.3309143E2,2.026E3,9.98E2,2.022E3,5.595592E2,2.019E3,-1.945918E1,3.5469327E2,3.0423878E1,-4.2085815E2,-3.4584604E2,-4.4357082E1,-2.313789E2,2.026235E2],"split_indices":[5,4,1,0,5,0,1,0,0,4,0,0,0,0,0,0,0,0,0,0,0],"split_type":[0,0,0,0,0,0,0,0,0,0,0,0,0,0,0,0,0,0,0,0,0],"sum_hessian":[1.16E2,9.6E1,2E1,3E0,9.3E1,5E0,1.5E1,1E0,2E0,2.5E1,6.8E1,9E0,6E0,1E0,1E0,1E0,2.4E1,1.4E1,5.4E1,1E0,5E0],"tree_param":{"num_deleted":"0","num_feature":"31","num_nodes":"21","size_leaf_vector":"1"}},{"base_weights":[5.1152094E2,-2.455096E3,2.2232611E4,-5.0297275E3,1.3755876E3,-2.2559444E2,2.4465209E4,-1.1281867E4,-3.9728484E3,6.458918E3,-1.9413958E3,2.8656666E4,7.050246E2,-7.036462E2,-2.1374083E2,-2.1426163E2,3.45826E2,1.4880376E2,3.62072E2,-3.905984E1,-3.561036E2,1.544251E3,2.707461E2],"categories":[],"categories_nodes":[],"categories_segments":[],"categories_sizes":[],"default_left":[0,0,0,0,0,0,0,0,0,0,0,0,0,0,0,0,0,0,0,0,0,0,0],"id":31,"left_children":[1,3,5,7,9,-1,11,13,15,17,19,21,-1,-1,-1,-1,-1,-1,-1,-1,-1,-1,-1],"loss_changes":[8.044914E9,1.0918047E9,1.00603034E9,3.9129075E8,7.712989E8,0E0,2.0413338E8,1.1585446E8,2.2693549E8,2.7506112E7,1.627335E8,2.9887693E8,0E0,0E0,0E0,0E0,0E0,0E0,0E0,0E0,0E0,0E0,0E0],"parents":[2147483647,0,0,1,1,2,2,3,3,4,4,6,6,7,7,8,8,9,9,10,10,11,11],"right_children":[2,4,6,8,10,-1,12,14,16,18,20,22,-1,-1,-1,-1,-1,-1,-1,-1,-1,-1,-1],"split_conditions":[9.6323E4,5.1766E4,2.019E3,2.02E3,1.6E1,-2.2559444E2,6.572E3,1E0,2.026E3,7.1E3,6.9E4,3E0,7.050246E2,-7.036462E2,-2.1374083E2,-2.1426163E2,3.45826E2,1.4880376E2,3.62072E2,-3.905984E1,-3.561036E2,1.544251E3,2.707461E2],"split_indices":[3,3,0,0,6,0,1,26,0,1,1,2,0,0,0,0,0,0,0,0,0,0,0],"split_type":[0,0,0,0,0,0,0,0,0,0,0,0,0,0,0,0,0,0,0,0,0,0,0],"sum_hessian":[1.23E2,1.09E2,1.4E1,6.5E1,4.4E1,1E0,1.3E1,8E0,5.7E1,1.7E1,2.7E1,8E0,5E0,5E0,3E0,5.6E1,1E0,4E0,1.3E1,2.3E1,4E0,7E0,1E0],"tree_param":{"num_deleted":"0","num_feature":"31","num_nodes":"23","size_leaf_vector":"1"}},{"base_weights":[3.152342E2,-1.8591364E3,2.7097445E4,5.6463604E3,-3.5707441E3,2.9164738E4,2.6397736E2,6.8475503E3,-4.5943585E2,-8.0358804E3,-2.1997776E3,4.206551E2,3.0927387E4,3.78625E2,-1.7316231E2,-5.1483386E2,-2.9262848E2,-2.7356318E1,-2.7067114E2,1.6591747E3,4.3476895E2],"categories":[],"categories_nodes":[],"categories_segments":[],"categories_sizes":[],"default_left":[0,0,0,0,0,0,0,0,0,0,0,0,0,0,0,0,0,0,0,0,0],"id":32,"left_children":[1,3,5,7,9,11,-1,13,-1,15,17,-1,19,-1,-1,-1,-1,-1,-1,-1,-1],"loss_changes":[6.980278E9,1.4461194E9,2.519593E8,4.3713485E8,5.3938406E8,3.2427008E7,0E0,1.7572154E8,0E0,4.339443E7,3.7412166E8,0E0,6.256128E7,0E0,0E0,0E0,0E0,0E0,0E0,0E0,0E0],"parents":[2147483647,0,0,1,1,2,2,3,3,4,4,5,5,7,7,9,9,10,10,12,12],"right_children":[2,4,6,8,10,12,-1,14,-1,16,18,-1,20,-1,-1,-1,-1,-1,-1,-1,-1],"split_conditions":[1.18485E5,1.6E4,3E0,1E0,3.14E4,1.69E5,2.6397736E2,1E0,-4.5943585E2,2.4593E4,4.7057E4,4.206551E2,6.572E3,3.78625E2,-1.7316231E2,-5.1483386E2,-2.9262848E2,-2.7356318E1,-2.7067114E2,1.6591747E3,4.3476895E2],"split_indices":[3,1,2,20,3,3,0,24,0,3,1,0,1,0,0,0,0,0,0,0,0],"split_type":[0,0,0,0,0,0,0,0,0,0,0,0,0,0,0,0,0,0,0,0,0],"sum_hessian":[1.18E2,1.1E2,8E0,2E1,9E1,7E0,1E0,1.9E1,1E0,2E1,7E1,1E0,6E0,1.8E1,1E0,8E0,1.2E1,4.7E1,2.3E1,5E0,1E0],"tree_param":{"num_deleted":"0","num_feature":"31","num_nodes":"21","size_leaf_vector":"1"}},{"base_weights":[-5.2895264E2,-2.301887E3,9.24717E2,-3.9429902E3,1.8486562E3,9.330772E3,-4.4213677E3,4.5269365E3,-8.1149055E1,7.2288965E2,-2.308174E1,-3.379417E2,-3.4493664E1,3.7892693E1,3.824657E2,-2.2028394E2,2.1257475E2],"categories":[],"categories_nodes":[],"categories_segments":[],"categories_sizes":[],"default_left":[0,0,0,0,0,0,0,0,0,0,0,0,0,0,0,0,0],"id":33,"left_children":[1,3,-1,5,7,9,11,13,15,-1,-1,-1,-1,-1,-1,-1,-1],"loss_changes":[3.9549094E9,7.361165E8,0E0,5.3019443E8,1.605927E8,1.5729182E8,6.4950554E8,1.4719344E8,3.7472704E8,0E0,0E0,0E0,0E0,0E0,0E0,0E0,0E0],"parents":[2147483647,0,0,1,1,3,3,4,4,5,5,6,6,7,7,8,8],"right_children":[2,4,-1,6,8,10,12,14,16,-1,-1,-1,-1,-1,-1,-1,-1],"split_conditions":[1.03045E5,6.005E4,9.24717E2,6.233E3,7.1605E4,2.014E3,1E0,6.7856E4,8.0836E4,7.2288965E2,-2.308174E1,-3.379417E2,-3.4493664E1,3.7892693E1,3.824657E2,-2.2028394E2,2.1257475E2],"split_indices":[3,3,0,3,3,0,27,3,3,0,0,0,0,0,0,0,0],"split_type":[0,0,0,0,0,0,0,0,0,0,0,0,0,0,0,0,0],"sum_hessian":[1.15E2,1.06E2,9E0,7.6E1,3E1,2E0,7.4E1,1.2E1,1.8E1,1E0,1E0,4.5E1,2.9E1,6E0,6E0,9E0,9E0],"tree_param":{"num_deleted":"0","num_feature":"31","num_nodes":"17","size_leaf_vector":"1"}},{"base_weights":[5.437416E2,-1.4778737E3,2.5641205E4,-3.4808494E3,3.219566E3,2.8155115E4,5.614172E2,1.0106045E4,-4.1501484E3,6.564845E3,8.3606696E2,3.8702072E2,1.5133749E3,7.048174E2,2.0385808E2,-3.5821774E2,-1.17152405E2,1.12407974E2,4.033352E2,3.1038766E2,-1.14659355E2],"categories":[],"categories_nodes":[],"categories_segments":[],"categories_sizes":[],"default_left":[0,0,0,0,0,0,0,0,0,0,0,0,0,0,0,0,0,0,0,0,0],"id":34,"left_children":[1,3,5,7,9,11,-1,13,15,17,19,-1,-1,-1,-1,-1,-1,-1,-1,-1,-1],"loss_changes":[6.126384E9,1.0649988E9,9.958912E6,7.603435E8,2.6560931E8,6.758195E7,0E0,3.87552E7,3.971835E8,7.262752E7,3.672323E8,0E0,0E0,0E0,0E0,0E0,0E0,0E0,0E0,0E0,0E0],"parents":[2147483647,0,0,1,1,2,2,3,3,4,4,5,5,7,7,8,8,9,9,10,10],"right_children":[2,4,6,8,10,12,-1,14,16,18,20,-1,-1,-1,-1,-1,-1,-1,-1,-1,-1],"split_conditions":[1.15114E5,6.0272E4,6.572E3,7E2,1.8162E4,3.473E3,5.614172E2,2E1,3.8917E4,6.8872E4,6.8872E4,3.8702072E2,1.5133749E3,7.048174E2,2.0385808E2,-3.5821774E2,-1.17152405E2,1.12407974E2,4.033352E2,3.1038766E2,-1.14659355E2],"split_indices":[5,5,1,4,1,4,0,1,5,5,5,0,0,0,0,0,0,0,0,0,0],"split_type":[0,0,0,0,0,0,0,0,0,0,0,0,0,0,0,0,0,0,0,0,0],"sum_hessian":[1.19E2,1.11E2,8E0,7.8E1,3.3E1,6E0,2E0,3E0,7.5E1,1.3E1,2E1,1E0,5E0,1E0,2E0,2.7E1,4.8E1,4E0,9E0,7E0,1.3E1],"tree_param":{"num_deleted":"0","num_feature":"31","num_nodes":"21","size_leaf_vector":"1"}},{"base_weights":[-2.0487334E2,-1.8500176E3,1.7418656E4,9.82791E3,-2.28138E3,9.2405304E2,1.9642558E2,6.871969E2,3.9412551E3,-4.0991133E3,8.5328125E2,-2.7601171E1,3.231953E2,-3.0019647E2,-7.308996E1,2.4276624E2,-7.9103806E1],"categories":[],"categories_nodes":[],"categories_segments":[],"categories_sizes":[],"default_left":[0,0,0,0,0,0,0,0,0,0,0,0,0,0,0,0,0],"id":35,"left_children":[1,3,5,7,9,-1,-1,-1,11,13,15,-1,-1,-1,-1,-1,-1],"loss_changes":[3.3954417E9,5.6142515E8,7.071693E7,3.8040864E7,5.960875E8,0E0,0E0,0E0,3.7573144E7,3.2278093E8,3.8779133E8,0E0,0E0,0E0,0E0,0E0,0E0],"parents":[2147483647,0,0,1,1,2,2,3,3,4,4,8,8,9,9,10,10],"right_children":[2,4,6,8,10,-1,-1,-1,12,14,16,-1,-1,-1,-1,-1,-1],"split_conditions":[1.03045E5,6.233E3,3E0,2.014E3,5.1766E4,9.2405304E2,1.9642558E2,6.871969E2,2.026E3,5.5E1,1.6E1,-2.7601171E1,3.231953E2,-3.0019647E2,-7.308996E1,2.4276624E2,-7.9103806E1],"split_indices":[3,3,2,0,3,0,0,0,0,6,6,0,0,0,0,0,0],"split_type":[0,0,0,0,0,0,0,0,0,0,0,0,0,0,0,0,0],"sum_hessian":[1.15E2,1.06E2,9E0,3E0,1.03E2,8E0,1E0,1E0,2E0,6.5E1,3.8E1,1E0,1E0,3.7E1,2.8E1,1.4E1,2.4E1],"tree_param":{"num_deleted":"0","num_feature":"31","num_nodes":"17","size_leaf_vector":"1"}},{"base_weights":[6.0127386E2,-1.0771052E3,2.3603828E4,-2.1593198E3,5.920875E3,1.4883344E3,4.9996475E2,-3.323555E3,2.7301154E2,-2.5654062E2,7.076768E3,-1.1340702E2,-4.149243E2,2.457473E2,-1.03018265E2,5.7046924E2,2.4289641E2],"categories":[],"categories_nodes":[],"categories_segments":[],"categories_sizes":[],"default_left":[0,0,0,0,0,0,0,0,0,0,0,0,0,0,0,0,0],"id":36,"left_children":[1,3,5,7,9,-1,-1,11,13,-1,15,-1,-1,-1,-1,-1,-1],"loss_changes":[4.5424435E9,8.458498E8,3.7309645E8,2.7276074E8,2.279281E8,0E0,0E0,3.2246778E8,3.5673085E8,0E0,7.916141E7,0E0,0E0,0E0,0E0,0E0,0E0],"parents":[2147483647,0,0,1,1,2,2,3,3,4,4,7,7,8,8,10,10],"right_children":[2,4,6,8,10,-1,-1,12,14,-1,16,-1,-1,-1,-1,-1,-1],"split_conditions":[1.18485E5,8.0836E4,1.9E1,5.1766E4,2.019E3,1.4883344E3,4.9996475E2,4.6872E4,1.6E1,-2.5654062E2,2.391E3,-1.1340702E2,-4.149243E2,2.457473E2,-1.03018265E2,5.7046924E2,2.4289641E2],"split_indices":[3,3,6,3,0,0,0,1,6,0,4,0,0,0,0,0,0],"split_type":[0,0,0,0,0,0,0,0,0,0,0,0,0,0,0,0,0],"sum_hessian":[1.16E2,1.09E2,7E0,9.5E1,1.4E1,4E0,3E0,6.4E1,3.1E1,1E0,1.3E1,5.4E1,1E1,1E1,2.1E1,3E0,1E1],"tree_param":{"num_deleted":"0","num_feature":"31","num_nodes":"17","size_leaf_vector":"1"}},{"base_weights":[4.4734598E2,-1.8554637E3,1.998395E4,-3.382425E3,2.51137E3,3.179573E2,2.2072996E4,9.667268E3,-4.051142E3,1.7153511E3,5.801967E2,2.6033238E4,4.8121622E2,6.728522E2,1.9591641E2,-2.8214722E2,-5.6509235E1,1.5954771E2,-2.5601868E2,1.4097933E3,3.2643674E2],"categories":[],"categories_nodes":[],"categories_segments":[],"categories_sizes":[],"default_left":[0,0,0,0,0,0,0,0,0,0,0,0,0,0,0,0,0,0,0,0,0],"id":37,"left_children":[1,3,5,7,9,-1,11,13,15,17,-1,19,-1,-1,-1,-1,-1,-1,-1,-1,-1],"loss_changes":[5.1208453E9,6.886291E8,2.0118886E8,7.023814E8,1.7551726E8,0E0,2.4244531E8,3.441965E7,3.3304218E8,2.7859613E8,0E0,1.1118336E8,0E0,0E0,0E0,0E0,0E0,0E0,0E0,0E0,0E0],"parents":[2147483647,0,0,1,1,2,2,3,3,4,4,6,6,7,7,8,8,9,9,11,11],"right_children":[2,4,6,8,10,-1,12,14,16,18,-1,20,-1,-1,-1,-1,-1,-1,-1,-1,-1],"split_conditions":[1.03045E5,6.005E4,8E0,6.233E3,5E1,3.179573E2,2.4E1,2.014E3,1E0,1E0,5.801967E2,3.847E3,4.8121622E2,6.728522E2,1.9591641E2,-2.8214722E2,-5.6509235E1,1.5954771E2,-2.5601868E2,1.4097933E3,3.2643674E2],"split_indices":[3,3,6,3,6,0,6,0,27,30,0,1,0,0,0,0,0,0,0,0,0],"split_type":[0,0,0,0,0,0,0,0,0,0,0,0,0,0,0,0,0,0,0,0,0],"sum_hessian":[1.12E2,1.01E2,1.1E1,7.5E1,2.6E1,2E0,9E0,3E0,7.2E1,2.5E1,1E0,6E0,3E0,1E0,2E0,4.6E1,2.6E1,2.1E1,4E0,5E0,1E0],"tree_param":{"num_deleted":"0","num_feature":"31","num_nodes":"21","size_leaf_vector":"1"}},{"base_weights":[6.6105505E2,-1.2375927E3,1.9932645E4,3.1084966E3,-2.2746956E3,2.1257967E4,1.6698555E2,4.043477E3,-4.1315225E2,-4.400599E2,-1.6260443E3,6.691168E2,2.645713E4,5.0564377E2,1.0102541E2,-2.217813E2,-1.8018175E1,1.4944329E3,3.182758E2],"categories":[],"categories_nodes":[],"categories_segments":[],"categories_sizes":[],"default_left":[0,0,0,0,0,0,0,0,0,0,0,0,0,0,0,0,0,0,0],"id":38,"left_children":[1,3,5,7,9,11,-1,13,-1,-1,15,-1,17,-1,-1,-1,-1,-1,-1],"loss_changes":[4.4886436E9,5.1189325E8,1.7090509E8,2.673191E8,3.709305E8,5.540915E7,0E0,2.3740909E8,0E0,0E0,2.971084E8,0E0,1.5446784E8,0E0,0E0,0E0,0E0,0E0,0E0],"parents":[2147483647,0,0,1,1,2,2,3,3,4,4,5,5,7,7,10,10,12,12],"right_children":[2,4,6,8,10,12,-1,14,-1,-1,16,-1,18,-1,-1,-1,-1,-1,-1],"split_conditions":[1.18485E5,1.9E4,3E0,1E0,2.4593E4,1.8153E5,1.6698555E2,2.887E3,-4.1315225E2,-4.400599E2,2.022E3,6.691168E2,3.847E3,5.0564377E2,1.0102541E2,-2.217813E2,-1.8018175E1,1.4944329E3,3.182758E2],"split_indices":[3,1,2,20,3,3,0,1,0,0,0,0,1,0,0,0,0,0,0],"split_type":[0,0,0,0,0,0,0,0,0,0,0,0,0,0,0,0,0,0,0],"sum_hessian":[1.21E2,1.11E2,1E1,2.1E1,9E1,9E0,1E0,2E1,1E0,7E0,8.3E1,5E0,4E0,4E0,1.6E1,2.5E1,5.8E1,3E0,1E0],"tree_param":{"num_deleted":"0","num_feature":"31","num_nodes":"19","size_leaf_vector":"1"}},{"base_weights":[5.828258E2,-1.2207736E3,1.9642695E4,-3.0649417E3,1.5524248E3,2.1101613E4,1.6281094E2,7.987705E3,-3.934913E3,5.1271167E3,-1.2264379E3,2.9235938E2,2.227752E4,6.4338983E2,1.7753665E2,-2.897347E2,-4.5189762E1,2.0198673E1,3.179845E2,-1.4882315E2,1.1077179E2,1.4383915E3,6.314884E2],"categories":[],"categories_nodes":[],"categories_segments":[],"categories_sizes":[],"default_left":[0,0,0,0,0,0,0,0,0,0,0,0,0,0,0,0,0,0,0,0,0,0,0],"id":39,"left_children":[1,3,5,7,9,11,-1,13,15,17,19,-1,21,-1,-1,-1,-1,-1,-1,-1,-1,-1,-1],"loss_changes":[3.9772616E9,5.46868E8,1.7035392E8,6.468222E8,4.3343194E8,3.1179008E7,0E0,6.257405E7,3.3299584E8,1.080417E8,1.571783E8,0E0,1.3760384E8,0E0,0E0,0E0,0E0,0E0,0E0,0E0,0E0,0E0,0E0],"parents":[2147483647,0,0,1,1,2,2,3,3,4,4,5,5,7,7,8,8,9,9,10,10,12,12],"right_children":[2,4,6,8,10,12,-1,14,16,18,20,-1,22,-1,-1,-1,-1,-1,-1,-1,-1,-1,-1],"split_conditions":[1.18485E5,5.1766E4,3E0,9.98E2,1.6E1,1.69E5,1.6281094E2,2.014E3,4.2E1,7.1E3,2.813E3,2.9235938E2,3.847E3,6.4338983E2,1.7753665E2,-2.897347E2,-4.5189762E1,2.0198673E1,3.179845E2,-1.4882315E2,1.1077179E2,1.4383915E3,6.314884E2],"split_indices":[3,3,2,4,6,3,0,0,6,1,4,0,1,0,0,0,0,0,0,0,0,0,0],"split_type":[0,0,0,0,0,0,0,0,0,0,0,0,0,0,0,0,0,0,0,0,0,0,0],"sum_hessian":[1.14E2,1.05E2,9E0,6.3E1,4.2E1,8E0,1E0,4E0,5.9E1,1.8E1,2.4E1,1E0,7E0,1E0,3E0,3.6E1,2.3E1,4E0,1.4E1,1.6E1,8E0,3E0,4E0],"tree_param":{"num_deleted":"0","num_feature":"31","num_nodes":"23","size_leaf_vector":"1"}},{"base_weights":[7.098795E2,-1.5249922E3,1.7739979E4,-1.0483918E3,-8.1837993E3,2.1821691E4,4.3303745E2,-3.8570269E3,-7.374831E1,-4.6575034E2,-3.4913868E1,7.497792E2,1.523769E3,1.7087906E2,-2.4772398E2,1.4178185E2,-5.466457E1],"categories":[],"categories_nodes":[],"categories_segments":[],"categories_sizes":[],"default_left":[0,0,0,0,0,0,0,0,0,0,0,0,0,0,0,0,0],"id":40,"left_children":[1,3,5,7,9,11,-1,13,15,-1,-1,-1,-1,-1,-1,-1,-1],"loss_changes":[4.594264E9,3.3099434E8,3.298309E8,2.7619475E8,5.276925E7,7.46432E7,0E0,2.2450426E8,2.285347E8,0E0,0E0,0E0,0E0,0E0,0E0,0E0,0E0],"parents":[2147483647,0,0,1,1,2,2,3,3,4,4,5,5,7,7,8,8],"right_children":[2,4,6,8,10,12,-1,14,16,-1,-1,-1,-1,-1,-1,-1,-1],"split_conditions":[9.3098E4,7.2185E4,6.572E3,1.542E3,3.45567E5,1.89401E5,4.3303745E2,9.98E2,1.4E1,-4.6575034E2,-3.4913868E1,7.497792E2,1.523769E3,1.7087906E2,-2.4772398E2,1.4178185E2,-5.466457E1],"split_indices":[3,1,1,4,1,3,0,4,6,0,0,0,0,0,0,0,0],"split_type":[0,0,0,0,0,0,0,0,0,0,0,0,0,0,0,0,0],"sum_hessian":[1.19E2,1.06E2,1.3E1,1E2,6E0,8E0,5E0,2.5E1,7.5E1,5E0,1E0,6E0,2E0,3E0,2.2E1,1.9E1,5.6E1],"tree_param":{"num_deleted":"0","num_feature":"31","num_nodes":"17","size_leaf_vector":"1"}},{"base_weights":[6.3544415E2,-1.4030275E3,1.6169803E4,6.23033E2,-1.6513704E3,1.1499886E4,1.4729769E3,-3.2361345E3,1.0443942E3,1.265726E4,1.9043373E2,-2.4709207E2,-3.4191715E1,2.0737808E2,-5.9859955E1,6.763708E2,1.20646484E2],"categories":[],"categories_nodes":[],"categories_segments":[],"categories_sizes":[],"default_left":[0,0,0,0,0,0,0,0,0,0,0,0,0,0,0,0,0],"id":41,"left_children":[1,3,5,-1,7,9,-1,11,13,15,-1,-1,-1,-1,-1,-1,-1],"loss_changes":[3.8226486E9,3.8897264E8,5.3008614E8,0E0,4.5622774E8,5.861184E7,0E0,2.883036E8,2.8320698E8,5.6500864E7,0E0,0E0,0E0,0E0,0E0,0E0,0E0],"parents":[2147483647,0,0,1,1,2,2,4,4,5,5,7,7,8,8,9,9],"right_children":[2,4,6,-1,8,10,-1,12,14,16,-1,-1,-1,-1,-1,-1,-1],"split_conditions":[9.6323E4,6.233E3,1.93266E5,6.23033E2,5.1766E4,1.6E4,1.4729769E3,1E0,1.6E1,1.89401E5,1.9043373E2,-2.4709207E2,-3.4191715E1,2.0737808E2,-5.9859955E1,6.763708E2,1.20646484E2],"split_indices":[3,3,3,0,3,1,0,27,6,3,0,0,0,0,0,0,0],"split_type":[0,0,0,0,0,0,0,0,0,0,0,0,0,0,0,0,0],"sum_hessian":[1.19E2,1.06E2,1.3E1,1E0,1.05E2,1.1E1,2E0,6.6E1,3.9E1,9E0,2E0,3.9E1,2.7E1,1.6E1,2.3E1,8E0,1E0],"tree_param":{"num_deleted":"0","num_feature":"31","num_nodes":"17","size_leaf_vector":"1"}},{"base_weights":[-6.020991E2,-2.5976436E3,7.4051655E3,-4.7764634E3,-1.5349001E3,9.84208E3,1.3010757E3,2.195778E3,-5.890713E3,-9.4351276E2,-7.2915215E3,3.922004E3,1.1981945E4,1.5180428E2,-2.7109982E2,-5.8842773E0,2.862408E2,-1.532835E2,-3.686085E2,-1.973293E1,-2.26517E2,-4.2447348E2,-3.2544533E1,2.2817813E2,1.7855274E1,6.3217334E2,1.1763027E2],"categories":[],"categories_nodes":[],"categories_segments":[],"categories_sizes":[],"default_left":[0,0,0,0,0,0,0,0,0,0,0,0,0,0,0,0,0,0,0,0,0,0,0,0,0,0,0],"id":42,"left_children":[1,3,5,7,9,11,13,15,17,19,21,23,25,-1,-1,-1,-1,-1,-1,-1,-1,-1,-1,-1,-1,-1,-1],"loss_changes":[1.9207192E9,2.1495917E8,3.4419827E8,2.53768E8,2.1781032E8,1.683657E8,1.097784E8,4.1495236E7,9.039923E7,1.1829939E8,4.2205056E7,1.209288E7,4.669504E7,0E0,0E0,0E0,0E0,0E0,0E0,0E0,0E0,0E0,0E0,0E0,0E0,0E0,0E0],"parents":[2147483647,0,0,1,1,2,2,3,3,4,4,5,5,6,6,7,7,8,8,9,9,10,10,11,11,12,12],"right_children":[2,4,6,8,10,12,14,16,18,20,22,24,26,-1,-1,-1,-1,-1,-1,-1,-1,-1,-1,-1,-1,-1,-1],"split_conditions":[8.0836E4,3.55E4,1.6E4,1.1E3,7.2185E4,9.6323E4,4.0343E4,1E0,3E0,1E0,1E5,9.3098E4,3E0,1.5180428E2,-2.7109982E2,-5.8842773E0,2.862408E2,-1.532835E2,-3.686085E2,-1.973293E1,-2.26517E2,-4.2447348E2,-3.2544533E1,2.2817813E2,1.7855274E1,6.3217334E2,1.1763027E2],"split_indices":[3,5,1,4,1,3,1,28,6,30,1,3,2,0,0,0,0,0,0,0,0,0,0,0,0,0,0],"split_type":[0,0,0,0,0,0,0,0,0,0,0,0,0,0,0,0,0,0,0,0,0,0,0,0,0,0,0],"sum_hessian":[1.18E2,9.5E1,2.3E1,3E1,6.5E1,1.6E1,7E0,4E0,2.6E1,6E1,5E0,5E0,1.1E1,6E0,1E0,3E0,1E0,1E1,1.6E1,5.3E1,7E0,4E0,1E0,4E0,1E0,1E1,1E0],"tree_param":{"num_deleted":"0","num_feature":"31","num_nodes":"27","size_leaf_vector":"1"}},{"base_weights":[6.7124695E2,-9.091157E2,1.7039895E4,-2.284308E3,2.7261855E3,1.2355317E4,1.480027E3,6.256256E3,-2.7209922E3,5.718989E2,2.0065508E3,6.663143E2,1.1468945E2,6.076043E2,1.2014194E1,-3.5541074E2,-1.111007E2,-1.8260928E2,1.6977507E2],"categories":[],"categories_nodes":[],"categories_segments":[],"categories_sizes":[],"default_left":[0,0,0,0,0,0,0,0,0,0,0,0,0,0,0,0,0,0,0],"id":43,"left_children":[1,3,5,7,9,11,-1,13,15,-1,17,-1,-1,-1,-1,-1,-1,-1,-1],"loss_changes":[2.9386204E9,5.261482E8,2.2268902E8,3.0046752E8,1.5885907E8,5.735693E7,0E0,1.3895667E8,1.4401178E8,0E0,2.324728E8,0E0,0E0,0E0,0E0,0E0,0E0,0E0,0E0],"parents":[2147483647,0,0,1,1,2,2,3,3,4,4,5,5,7,7,8,8,10,10],"right_children":[2,4,6,8,10,12,-1,14,16,-1,18,-1,-1,-1,-1,-1,-1,-1,-1],"split_conditions":[1.18485E5,6.7239E4,2.34757E5,9.98E2,6.5047E4,3E0,1.480027E3,2.014E3,2.4593E4,5.718989E2,2.023E3,6.663143E2,1.1468945E2,6.076043E2,1.2014194E1,-3.5541074E2,-1.111007E2,-1.8260928E2,1.6977507E2],"split_indices":[3,3,3,4,5,2,0,0,3,0,0,0,0,0,0,0,0,0,0],"split_type":[0,0,0,0,0,0,0,0,0,0,0,0,0,0,0,0,0,0,0],"sum_hessian":[1.12E2,1.03E2,9E0,7.5E1,2.8E1,8E0,1E0,3E0,7.2E1,1E0,2.7E1,7E0,1E0,1E0,2E0,6E0,6.6E1,5E0,2.2E1],"tree_param":{"num_deleted":"0","num_feature":"31","num_nodes":"19","size_leaf_vector":"1"}},{"base_weights":[9.811131E1,-1.1099381E3,1.8377416E4,-6.242155E3,-2.610991E2,5.910072E2,1.4430262E3,8.071548E1,-6.9186387E3,3.1568555E3,-1.2543761E3,6.4794334E1,-3.8251047E2,-1.3603597E1,2.1227E2,-1.17600334E2,5.704824E0],"categories":[],"categories_nodes":[],"categories_segments":[],"categories_sizes":[],"default_left":[0,0,0,0,0,0,0,0,0,0,0,0,0,0,0,0,0],"id":44,"left_children":[1,3,5,7,9,-1,-1,-1,11,13,15,-1,-1,-1,-1,-1,-1],"loss_changes":[2.4936159E9,4.601513E8,1.4004864E8,9.089043E7,3.1629766E8,0E0,0E0,0E0,9.404678E7,7.953837E7,1.0841793E8,0E0,0E0,0E0,0E0,0E0,0E0],"parents":[2147483647,0,0,1,1,2,2,3,3,4,4,8,8,9,9,10,10],"right_children":[2,4,6,8,10,-1,-1,-1,12,14,16,-1,-1,-1,-1,-1,-1],"split_conditions":[5.405E3,2.021E3,1E0,2.012E3,1.9E4,5.910072E2,1.4430262E3,8.071548E1,1.261E3,2.151E3,3.6E1,6.4794334E1,-3.8251047E2,-1.3603597E1,2.1227E2,-1.17600334E2,5.704824E0],"split_indices":[4,0,23,0,1,0,0,0,4,4,6,0,0,0,0,0,0],"split_type":[0,0,0,0,0,0,0,0,0,0,0,0,0,0,0,0,0],"sum_hessian":[1.11E2,1.05E2,6E0,1.4E1,9.1E1,5E0,1E0,1E0,1.3E1,2E1,7.1E1,1E0,1.2E1,5E0,1.5E1,3.9E1,3.2E1],"tree_param":{"num_deleted":"0","num_feature":"31","num_nodes":"17","size_leaf_vector":"1"}},{"base_weights":[1.9156776E2,-1.1942037E3,9.878285E3,7.124956E3,-1.624008E3,1.845753E2,1.1229997E4,5.907944E2,2.998252E3,-3.9466384E3,-6.7790466E2,5.963468E2,1.06515434E2,2.3694942E2,-5.5598927E1,-5.9605343E1,-2.628838E2,-2.5533647E2,4.211679E0],"categories":[],"categories_nodes":[],"categories_segments":[],"categories_sizes":[],"default_left":[0,0,0,0,0,0,0,0,0,0,0,0,0,0,0,0,0,0,0],"id":45,"left_children":[1,3,5,7,9,-1,11,-1,13,15,17,-1,-1,-1,-1,-1,-1,-1,-1],"loss_changes":[1.5018138E9,3.6198074E8,7.562278E7,6.1363424E7,2.0388474E8,0E0,4.435315E7,0E0,3.3888964E7,9.123725E7,2.299558E8,0E0,0E0,0E0,0E0,0E0,0E0,0E0,0E0],"parents":[2147483647,0,0,1,1,2,2,3,3,4,4,6,6,8,8,9,9,10,10],"right_children":[2,4,6,8,10,-1,12,-1,14,16,18,-1,-1,-1,-1,-1,-1,-1,-1],"split_conditions":[9.13E4,9.98E2,1.03045E5,2.014E3,2.022E3,1.845753E2,3E0,5.907944E2,1E0,2.9429E4,3.17E4,5.963468E2,1.06515434E2,2.3694942E2,-5.5598927E1,-5.9605343E1,-2.628838E2,-2.5533647E2,4.211679E0],"split_indices":[3,4,3,0,0,0,2,0,30,3,3,0,0,0,0,0,0,0,0],"split_type":[0,0,0,0,0,0,0,0,0,0,0,0,0,0,0,0,0,0,0],"sum_hessian":[1.1E2,9.7E1,1.3E1,4E0,9.3E1,3E0,1E1,1E0,3E0,2.6E1,6.7E1,9E0,1E0,2E0,1E0,9E0,1.7E1,9E0,5.8E1],"tree_param":{"num_deleted":"0","num_feature":"31","num_nodes":"19","size_leaf_vector":"1"}},{"base_weights":[5.039545E2,-9.3693677E2,1.4736063E4,-1.6988872E3,3.9512114E3,1.0641502E4,1.3920419E3,7.950162E3,-2.0999448E3,4.990878E3,-2.6510294E2,5.681162E2,1.0385254E2,5.760244E2,1.4599454E2,-3.2604584E2,-8.00635E1,3.4053885E2,1.3873033E2],"categories":[],"categories_nodes":[],"categories_segments":[],"categories_sizes":[],"default_left":[0,0,0,0,0,0,0,0,0,0,0,0,0,0,0,0,0,0,0],"id":46,"left_children":[1,3,5,7,9,11,-1,13,15,17,-1,-1,-1,-1,-1,-1,-1,-1,-1],"loss_changes":[2.4541304E9,4.1268608E8,2.9397274E8,3.843283E8,1.707666E8,3.813427E7,0E0,3.820027E7,1.92384E8,3.757027E7,0E0,0E0,0E0,0E0,0E0,0E0,0E0,0E0,0E0],"parents":[2147483647,0,0,1,1,2,2,3,3,4,4,5,5,7,7,8,8,9,9],"right_children":[2,4,6,8,10,12,-1,14,16,18,-1,-1,-1,-1,-1,-1,-1,-1,-1],"split_conditions":[1.18485E5,7.4276E4,2.34757E5,6.233E3,4.0343E4,3E0,1.3920419E3,2E1,2.4593E4,1E0,-2.6510294E2,5.681162E2,1.0385254E2,5.760244E2,1.4599454E2,-3.2604584E2,-8.00635E1,3.4053885E2,1.3873033E2],"split_indices":[3,3,3,3,1,2,0,1,3,10,0,0,0,0,0,0,0,0,0],"split_type":[0,0,0,0,0,0,0,0,0,0,0,0,0,0,0,0,0,0,0],"sum_hessian":[1.18E2,1.08E2,1E1,9.4E1,1.4E1,9E0,1E0,3E0,9.1E1,1.3E1,1E0,8E0,1E0,1E0,2E0,8E0,8.3E1,6E0,7E0],"tree_param":{"num_deleted":"0","num_feature":"31","num_nodes":"19","size_leaf_vector":"1"}},{"base_weights":[8.7826984E2,-5.292072E2,1.4873197E4,2.9319597E3,-1.4278168E3,1.0931555E4,1.3572406E3,5.6162384E2,2.0440966E3,-6.332078E3,-9.258178E2,5.8480725E2,1.0125625E2,-1.75803E1,2.0349078E2,-1.4027328E2,-3.5200192E2,-6.870453E1,1.4065204E2],"categories":[],"categories_nodes":[],"categories_segments":[],"categories_sizes":[],"default_left":[0,0,0,0,0,0,0,0,0,0,0,0,0,0,0,0,0,0,0],"id":47,"left_children":[1,3,5,7,9,11,-1,-1,13,15,17,-1,-1,-1,-1,-1,-1,-1,-1],"loss_changes":[2.3715756E9,3.4631242E8,2.353385E8,1.465434E8,2.1078782E8,4.441152E7,0E0,0E0,1.0819743E8,2.23008E5,1.3962368E8,0E0,0E0,0E0,0E0,0E0,0E0,0E0,0E0],"parents":[2147483647,0,0,1,1,2,2,3,3,4,4,5,5,8,8,9,9,10,10],"right_children":[2,4,6,8,10,12,-1,-1,14,16,18,-1,-1,-1,-1,-1,-1,-1,-1],"split_conditions":[1.18485E5,1.9E4,2.34757E5,2.014E3,2.4593E4,3E0,1.3572406E3,5.6162384E2,7.1605E4,1.25E3,2.024E3,5.8480725E2,1.0125625E2,-1.75803E1,2.0349078E2,-1.4027328E2,-3.5200192E2,-6.870453E1,1.4065204E2],"split_indices":[3,1,3,0,3,2,0,0,3,4,0,0,0,0,0,0,0,0,0],"split_type":[0,0,0,0,0,0,0,0,0,0,0,0,0,0,0,0,0,0,0],"sum_hessian":[1.19E2,1.09E2,1E1,2.2E1,8.7E1,9E0,1E0,1E0,2.1E1,7E0,8E1,8E0,1E0,1E1,1.1E1,2E0,5E0,7.2E1,8E0],"tree_param":{"num_deleted":"0","num_feature":"31","num_nodes":"19","size_leaf_vector":"1"}},{"base_weights":[3.9383203E2,-5.594172E2,1.716893E4,-1.4372594E3,3.5358215E3,5.0081186E2,1.3233098E3,6.673995E3,-1.902962E3,-2.567578E2,4.302829E3,5.475832E2,1.4333311E2,-2.9166003E2,-5.8345276E1,4.205008E2,1.460362E2],"categories":[],"categories_nodes":[],"categories_segments":[],"categories_sizes":[],"default_left":[0,0,0,0,0,0,0,0,0,0,0,0,0,0,0,0,0],"id":48,"left_children":[1,3,5,7,9,-1,-1,11,13,-1,15,-1,-1,-1,-1,-1,-1],"loss_changes":[1.7845888E9,3.861491E8,1.339113E8,3.4511437E8,1.4845907E8,0E0,0E0,5.0037824E7,2.3619498E8,0E0,7.761478E7,0E0,0E0,0E0,0E0,0E0,0E0],"parents":[2147483647,0,0,1,1,2,2,3,3,4,4,7,7,8,8,10,10],"right_children":[2,4,6,8,10,-1,-1,12,14,-1,16,-1,-1,-1,-1,-1,-1],"split_conditions":[5.405E3,7.4276E4,1.89401E5,9.98E2,2.019E3,5.0081186E2,1.3233098E3,2.014E3,2.02E3,-2.567578E2,2.391E3,5.475832E2,1.4333311E2,-2.9166003E2,-5.8345276E1,4.205008E2,1.460362E2],"split_indices":[4,3,3,4,0,0,0,0,0,0,4,0,0,0,0,0,0],"split_type":[0,0,0,0,0,0,0,0,0,0,0,0,0,0,0,0,0],"sum_hessian":[1.1E2,1.05E2,5E0,8.7E1,1.8E1,4E0,1E0,4E0,8.3E1,1E0,1.7E1,1E0,3E0,1.2E1,7.1E1,3E0,1.4E1],"tree_param":{"num_deleted":"0","num_feature":"31","num_nodes":"17","size_leaf_vector":"1"}},{"base_weights":[4.384036E2,-9.7856213E2,1.3272642E4,-2.0933533E3,7.158645E2,9.787512E3,1.2902269E3,5.434027E3,-2.5380542E3,4.7359494E2,7.338914E1,5.1929834E2,9.507383E1,5.3389355E2,6.339421E0,-3.9275958E2,-9.72123E1,9.311157E1,-9.937245E1],"categories":[],"categories_nodes":[],"categories_segments":[],"categories_sizes":[],"default_left":[0,0,0,0,0,0,0,0,0,0,0,0,0,0,0,0,0,0,0],"id":49,"left_children":[1,3,5,7,9,11,-1,13,15,-1,17,-1,-1,-1,-1,-1,-1,-1,-1],"loss_changes":[2.195269E9,2.073921E8,2.7154125E8,2.347225E8,2.4682845E8,3.2165184E7,0E0,1.0996749E8,1.8364125E8,0E0,1.585347E8,0E0,0E0,0E0,0E0,0E0,0E0,0E0,0E0],"parents":[2147483647,0,0,1,1,2,2,3,3,4,4,5,5,7,7,8,8,10,10],"right_children":[2,4,6,8,10,12,-1,14,16,-1,18,-1,-1,-1,-1,-1,-1,-1,-1],"split_conditions":[1.18485E5,5.1766E4,2.34757E5,9.98E2,1.753E3,3E0,1.2902269E3,2.014E3,2.018E3,4.7359494E2,2.9322E4,5.1929834E2,9.507383E1,5.3389355E2,6.339421E0,-3.9275958E2,-9.72123E1,9.311157E1,-9.937245E1],"split_indices":[3,3,3,4,4,2,0,0,0,0,1,0,0,0,0,0,0,0,0],"split_type":[0,0,0,0,0,0,0,0,0,0,0,0,0,0,0,0,0,0,0],"sum_hessian":[1.19E2,1.08E2,1.1E1,6.5E1,4.3E1,1E1,1E0,3E0,6.2E1,2E0,4.1E1,9E0,1E0,1E0,2E0,5E0,5.7E1,2.2E1,1.9E1],"tree_param":{"num_deleted":"0","num_feature":"31","num_nodes":"19","size_leaf_vector":"1"}},{"base_weights":[5.477068E2,-6.2367053E2,1.4673531E4,-1.7486803E3,2.3971445E3,1.9696572E4,3.357892E2,-1.2709341E3,-3.7145303E2,5.648869E2,1.3578973E3,4.4149948E2,1.1998816E3,2.6486923E2,-8.090945E1,1.8567876E2,-8.2292595E1],"categories":[],"categories_nodes":[],"categories_segments":[],"categories_sizes":[],"default_left":[0,0,0,0,0,0,0,0,0,0,0,0,0,0,0,0,0],"id":50,"left_children":[1,3,5,7,9,11,-1,13,-1,-1,15,-1,-1,-1,-1,-1,-1],"loss_changes":[1.9451118E9,3.746225E8,2.2747098E8,2.0766051E8,2.6215629E8,2.1790336E7,0E0,1.7963813E8,0E0,0E0,2.0423621E8,0E0,0E0,0E0,0E0,0E0,0E0],"parents":[2147483647,0,0,1,1,2,2,3,3,4,4,5,5,7,7,10,10],"right_children":[2,4,6,8,10,12,-1,14,-1,-1,16,-1,-1,-1,-1,-1,-1],"split_conditions":[1.69E5,6.7856E4,3.847E3,7.2021E4,7.1075E4,1.89401E5,3.357892E2,9.98E2,-3.7145303E2,5.648869E2,1.9E4,4.4149948E2,1.1998816E3,2.6486923E2,-8.090945E1,1.8567876E2,-8.2292595E1],"split_indices":[3,3,1,1,3,3,0,4,0,0,1,0,0,0,0,0,0],"split_type":[0,0,0,0,0,0,0,0,0,0,0,0,0,0,0,0,0],"sum_hessian":[1.16E2,1.08E2,8E0,7.9E1,2.9E1,4E0,4E0,7.4E1,5E0,2E0,2.7E1,2E0,2E0,3E0,7.1E1,1.5E1,1.2E1],"tree_param":{"num_deleted":"0","num_feature":"31","num_nodes":"17","size_leaf_vector":"1"}},{"base_weights":[5.350412E2,-8.848624E2,1.1006659E4,-1.9182229E3,9.261976E2,8.284351E3,1.2279742E3,5.0987324E3,-2.302776E3,1.5589324E3,-3.024578E3,6.0993695E2,6.1078145E3,5.139246E2,-2.7009115E0,-4.9361475E2,-9.619082E1,1.3508057E2,-1.1046276E1,-2.6552652E2,5.157757E1,6.27E1,3.233898E2],"categories":[],"categories_nodes":[],"categories_segments":[],"categories_sizes":[],"default_left":[0,0,0,0,0,0,0,0,0,0,0,0,0,0,0,0,0,0,0,0,0,0,0],"id":51,"left_children":[1,3,5,7,9,11,-1,13,15,17,19,-1,21,-1,-1,-1,-1,-1,-1,-1,-1,-1,-1],"loss_changes":[1.8683254E9,2.0951069E8,3.4996506E8,2.0332699E8,1.0720664E8,4.476973E7,0E0,1.0731526E8,1.7606835E8,7.381389E7,6.1110796E7,0E0,1.1109504E7,0E0,0E0,0E0,0E0,0E0,0E0,0E0,0E0,0E0,0E0],"parents":[2147483647,0,0,1,1,2,2,3,3,4,4,5,5,7,7,8,8,9,9,10,10,12,12],"right_children":[2,4,6,8,10,12,-1,14,16,18,20,-1,22,-1,-1,-1,-1,-1,-1,-1,-1,-1,-1],"split_conditions":[9.6323E4,5.1766E4,2.34757E5,9.98E2,6.9E4,2.887E3,1.2279742E3,2.014E3,2.015E3,7.1605E4,2.29E3,6.0993695E2,3.2E3,5.139246E2,-2.7009115E0,-4.9361475E2,-9.619082E1,1.3508057E2,-1.1046276E1,-2.6552652E2,5.157757E1,6.27E1,3.233898E2],"split_indices":[3,3,3,4,1,1,0,0,0,3,4,0,1,0,0,0,0,0,0,0,0,0,0],"split_type":[0,0,0,0,0,0,0,0,0,0,0,0,0,0,0,0,0,0,0,0,0,0,0],"sum_hessian":[1.24E2,1.1E2,1.4E1,7E1,4E1,1.3E1,1E0,3E0,6.7E1,3.5E1,5E0,3E0,1E1,1E0,2E0,2E0,6.5E1,2.1E1,1.4E1,3E0,2E0,1E0,9E0],"tree_param":{"num_deleted":"0","num_feature":"31","num_nodes":"23","size_leaf_vector":"1"}},{"base_weights":[8.843313E1,-1.2888904E3,1.1312115E4,-6.619553E3,-6.6465936E2,8.263874E3,1.197275E3,-7.7090537E3,1.0688633E2,-1.4836477E3,6.244189E2,5.870643E2,5.8001504E3,-7.486052E1,-4.5374316E2,-8.4416374E1,2.5969434E2,1.3015897E2,-3.1916187E1,6.1132423E1,3.1097534E2],"categories":[],"categories_nodes":[],"categories_segments":[],"categories_sizes":[],"default_left":[0,0,0,0,0,0,0,0,0,0,0,0,0,0,0,0,0,0,0,0,0],"id":52,"left_children":[1,3,5,7,9,11,-1,13,-1,15,17,-1,19,-1,-1,-1,-1,-1,-1,-1,-1],"loss_changes":[1.8386996E9,3.4832218E8,3.0274214E8,1.2143155E8,1.0227747E8,3.470733E7,0E0,7.125498E7,0E0,8.9407544E7,9.661094E7,0E0,9.67216E6,0E0,0E0,0E0,0E0,0E0,0E0,0E0,0E0],"parents":[2147483647,0,0,1,1,2,2,3,3,4,4,5,5,7,7,9,9,10,10,12,12],"right_children":[2,4,6,8,10,12,-1,14,-1,16,18,-1,20,-1,-1,-1,-1,-1,-1,-1,-1],"split_conditions":[9.6323E4,2.02E3,2.34757E5,6.005E4,5.1766E4,2.887E3,1.197275E3,1.261E3,1.0688633E2,1E0,7.1075E4,5.870643E2,3.2E3,-7.486052E1,-4.5374316E2,-8.4416374E1,2.5969434E2,1.3015897E2,-3.1916187E1,6.1132423E1,3.1097534E2],"split_indices":[3,0,3,3,3,1,0,4,0,28,3,0,1,0,0,0,0,0,0,0,0],"split_type":[0,0,0,0,0,0,0,0,0,0,0,0,0,0,0,0,0,0,0,0,0],"sum_hessian":[1.17E2,1.05E2,1.2E1,1E1,9.5E1,1.1E1,1E0,9E0,1E0,5.8E1,3.7E1,3E0,8E0,2E0,7E0,5.7E1,1E0,1.4E1,2.3E1,1E0,7E0],"tree_param":{"num_deleted":"0","num_feature":"31","num_nodes":"21","size_leaf_vector":"1"}},{"base_weights":[4.6405176E2,-5.3717737E2,1.2315992E4,-1.7276254E3,1.2065919E3,8.0187764E3,1.167343E3,-1.0749939E3,-4.4661123E3,3.7066792E3,-6.668024E2,4.4118604E2,5.9604103E1,-1.9237299E2,-2.1022814E1,-2.6506424E2,-9.675E0,9.0345695E1,3.352645E2,-2.139148E2,4.4446064E1],"categories":[],"categories_nodes":[],"categories_segments":[],"categories_sizes":[],"default_left":[0,0,0,0,0,0,0,0,0,0,0,0,0,0,0,0,0,0,0,0,0],"id":53,"left_children":[1,3,5,7,9,11,-1,13,15,17,19,-1,-1,-1,-1,-1,-1,-1,-1,-1,-1],"loss_changes":[1.3712644E9,2.2420226E8,2.394048E8,1.0958123E8,2.0855222E8,3.3442304E7,0E0,9.456053E7,4.1794624E7,9.612059E7,1.4988371E8,0E0,0E0,0E0,0E0,0E0,0E0,0E0,0E0,0E0,0E0],"parents":[2147483647,0,0,1,1,2,2,3,3,4,4,5,5,7,7,8,8,9,9,10,10],"right_children":[2,4,6,8,10,12,-1,14,16,18,20,-1,-1,-1,-1,-1,-1,-1,-1,-1,-1],"split_conditions":[1.69E5,5.1766E4,2.34757E5,4.6872E4,1.6E1,3E0,1.167343E3,2.4593E4,1E0,1.45E4,2.1E1,4.4118604E2,5.9604103E1,-1.9237299E2,-2.1022814E1,-2.6506424E2,-9.675E0,9.0345695E1,3.352645E2,-2.139148E2,4.4446064E1],"split_indices":[3,3,3,1,6,2,0,3,8,1,6,0,0,0,0,0,0,0,0,0,0],"split_type":[0,0,0,0,0,0,0,0,0,0,0,0,0,0,0,0,0,0,0,0,0],"sum_hessian":[1.14E2,1.06E2,8E0,6.3E1,4.3E1,7E0,1E0,5.2E1,1.1E1,1.8E1,2.5E1,6E0,1E0,9E0,4.3E1,9E0,2E0,1.2E1,6E0,7E0,1.8E1],"tree_param":{"num_deleted":"0","num_feature":"31","num_nodes":"21","size_leaf_vector":"1"}},{"base_weights":[2.4470415E2,-3.1409894E2,1.6668219E4,-1.4267472E3,1.9763103E3,1.1381594E3,3.5244168E2,7.8816807E3,-1.8917727E3,-3.1903586E2,2.3641458E3,5.764358E2,-7.648565E1,-2.73177E2,-6.992365E1,8.293672E1,3.3440567E2],"categories":[],"categories_nodes":[],"categories_segments":[],"categories_sizes":[],"default_left":[0,0,0,0,0,0,0,0,0,0,0,0,0,0,0,0,0],"id":54,"left_children":[1,3,5,7,9,-1,-1,11,13,-1,15,-1,-1,-1,-1,-1,-1],"loss_changes":[1.1157142E9,3.0353325E8,7.406554E7,3.6120285E8,1.4148984E8,0E0,0E0,1.5493032E8,1.2802966E8,0E0,1.0481286E8,0E0,0E0,0E0,0E0,0E0,0E0],"parents":[2147483647,0,0,1,1,2,2,3,3,4,4,7,7,8,8,10,10],"right_children":[2,4,6,8,10,-1,-1,12,14,-1,16,-1,-1,-1,-1,-1,-1],"split_conditions":[5.667E3,2.335E3,7E3,2.887E3,2.015E3,1.1381594E3,3.5244168E2,2.4E1,2.02E3,-3.1903586E2,6.1E1,5.764358E2,-7.648565E1,-2.73177E2,-6.992365E1,8.293672E1,3.3440567E2],"split_indices":[4,4,4,1,0,0,0,6,0,0,6,0,0,0,0,0,0],"split_type":[0,0,0,0,0,0,0,0,0,0,0,0,0,0,0,0,0],"sum_hessian":[1.2E2,1.17E2,3E0,7.9E1,3.8E1,1E0,2E0,3E0,7.6E1,1E0,3.7E1,2E0,1E0,8E0,6.8E1,3.3E1,4E0],"tree_param":{"num_deleted":"0","num_feature":"31","num_nodes":"17","size_leaf_vector":"1"}},{"base_weights":[9.921671E1,-7.7026965E2,1.1933566E4,-3.2635728E3,2.1786536E2,7.2971875E3,1.1097054E3,-4.4860934E2,-2.5604895E3,-7.6507043E2,3.36214E3,5.6040627E1,8.1397812E3,9.914844E1,-1.3967882E2,-5.4748707E1,2.1049004E2,4.1692114E2,1.14309975E2,4.7513223E2,1.8046849E2],"categories":[],"categories_nodes":[],"categories_segments":[],"categories_sizes":[],"default_left":[0,0,0,0,0,0,0,0,0,0,0,0,0,0,0,0,0,0,0,0,0],"id":55,"left_children":[1,3,5,7,9,11,-1,-1,13,15,17,-1,19,-1,-1,-1,-1,-1,-1,-1,-1],"loss_changes":[1.2028095E9,2.6925654E8,2.1861965E8,1.0144931E8,2.4673126E8,2.7306048E7,0E0,0E0,3.6251136E7,1.0472456E8,8.266619E7,0E0,2.747456E6,0E0,0E0,0E0,0E0,0E0,0E0,0E0,0E0],"parents":[2147483647,0,0,1,1,2,2,3,3,4,4,5,5,8,8,9,9,10,10,12,12],"right_children":[2,4,6,8,10,12,-1,-1,14,16,18,-1,20,-1,-1,-1,-1,-1,-1,-1,-1],"split_conditions":[1.69E5,3.55E4,2.34757E5,2.015E3,2.024E3,1E0,1.1097054E3,-4.4860934E2,2.016E3,1E0,1.753E3,5.6040627E1,6.572E3,9.914844E1,-1.3967882E2,-5.4748707E1,2.1049004E2,4.1692114E2,1.14309975E2,4.7513223E2,1.8046849E2],"split_indices":[3,5,3,0,0,9,0,0,0,9,4,0,1,0,0,0,0,0,0,0,0],"split_type":[0,0,0,0,0,0,0,0,0,0,0,0,0,0,0,0,0,0,0,0,0],"sum_hessian":[1.15E2,1.08E2,7E0,3E1,7.8E1,6E0,1E0,2E0,2.8E1,6E1,1.8E1,1E0,5E0,1E0,2.7E1,5.7E1,3E0,2E0,1.6E1,3E0,2E0],"tree_param":{"num_deleted":"0","num_feature":"31","num_nodes":"21","size_leaf_vector":"1"}},{"base_weights":[-5.4652813E1,-8.697631E2,7.6943604E3,5.0456174E2,-1.093723E3,4.1532233E2,5.463965E1,-4.6820933E3,-6.107969E2,1.1180469E2,-2.7987607E2,-5.665348E1,1.1643876E2],"categories":[],"categories_nodes":[],"categories_segments":[],"categories_sizes":[],"default_left":[0,0,0,0,0,0,0,0,0,0,0,0,0],"id":56,"left_children":[1,3,5,-1,7,-1,-1,9,11,-1,-1,-1,-1],"loss_changes":[6.635875E8,2.4424531E8,3.1330048E7,0E0,1.600345E8,0E0,0E0,8.218069E7,1.3160038E8,0E0,0E0,0E0,0E0],"parents":[2147483647,0,0,1,1,2,2,4,4,7,7,8,8],"right_children":[2,4,6,-1,8,-1,-1,10,12,-1,-1,-1,-1],"split_conditions":[1.18485E5,6.233E3,3E0,5.0456174E2,2.02E3,4.1532233E2,5.463965E1,2.012E3,8.0836E4,1.1180469E2,-2.7987607E2,-5.665348E1,1.1643876E2],"split_indices":[3,3,2,0,0,0,0,0,3,0,0,0,0],"split_type":[0,0,0,0,0,0,0,0,0,0,0,0,0],"sum_hessian":[1.03E2,9.4E1,9E0,1E0,9.3E1,8E0,1E0,1E1,8.3E1,1E0,9E0,7.1E1,1.2E1],"tree_param":{"num_deleted":"0","num_feature":"31","num_nodes":"13","size_leaf_vector":"1"}},{"base_weights":[3.217611E2,-5.7899255E2,7.11877E3,5.980053E3,-8.94838E2,8.838448E3,1.6763959E2,4.9194766E2,2.5555898E3,-3.8088186E3,1.0072476E2,4.9420172E2,3.4525964E3,-6.816973E1,2.1581914E2,-4.104212E2,-1.3178902E2,2.2194735E1,-2.4648506E2,2.3564961E2,2.3295118E1],"categories":[],"categories_nodes":[],"categories_segments":[],"categories_sizes":[],"default_left":[0,0,0,0,0,0,0,0,0,0,0,0,0,0,0,0,0,0,0,0,0],"id":57,"left_children":[1,3,5,7,9,11,-1,-1,13,15,17,-1,19,-1,-1,-1,-1,-1,-1,-1,-1],"loss_changes":[7.32691E8,2.249455E8,6.1034304E7,4.092899E7,2.962908E8,1.65568E7,0E0,0E0,3.3487014E7,1.125479E8,1.3511267E8,0E0,9.097456E6,0E0,0E0,0E0,0E0,0E0,0E0,0E0,0E0],"parents":[2147483647,0,0,1,1,2,2,3,3,4,4,5,5,8,8,9,9,10,10,12,12],"right_children":[2,4,6,8,10,12,-1,-1,14,16,18,-1,20,-1,-1,-1,-1,-1,-1,-1,-1],"split_conditions":[9.6323E4,9.98E2,2.4E1,2.014E3,4.0571E4,6.572E3,1.6763959E2,4.9194766E2,2.937E3,2.018E3,7.2185E4,4.9420172E2,2.022E3,-6.816973E1,2.1581914E2,-4.104212E2,-1.3178902E2,2.2194735E1,-2.4648506E2,2.3564961E2,2.3295118E1],"split_indices":[3,4,6,0,3,1,0,0,1,0,1,0,0,0,0,0,0,0,0,0,0],"split_type":[0,0,0,0,0,0,0,0,0,0,0,0,0,0,0,0,0,0,0,0,0],"sum_hessian":[1.18E2,1.05E2,1.3E1,4E0,1.01E2,8E0,5E0,1E0,3E0,2.5E1,7.6E1,6E0,2E0,1E0,2E0,4E0,2.1E1,7.2E1,4E0,1E0,1E0],"tree_param":{"num_deleted":"0","num_feature":"31","num_nodes":"21","size_leaf_vector":"1"}},{"base_weights":[4.4791553E2,-3.5055615E2,1.4612675E4,4.832605E2,-6.3338226E2,3.492334E2,9.95623E2,-1.141679E3,2.2653733E3,-2.4415569E2,-4.081507E1,1.5494093E2,-2.5590762E2],"categories":[],"categories_nodes":[],"categories_segments":[],"categories_sizes":[],"default_left":[0,0,0,0,0,0,0,0,0,0,0,0,0],"id":58,"left_children":[1,3,5,-1,7,-1,-1,9,11,-1,-1,-1,-1],"loss_changes":[1.2718604E9,3.0922282E8,1.0347878E8,0E0,1.5729627E8,0E0,0E0,1.0557803E8,1.1432045E8,0E0,0E0,0E0,0E0],"parents":[2147483647,0,0,1,1,2,2,4,4,7,7,8,8],"right_children":[2,4,6,-1,8,-1,-1,10,12,-1,-1,-1,-1],"split_conditions":[1.18485E5,6.233E3,1.89401E5,4.832605E2,8.0836E4,3.492334E2,9.95623E2,2.4593E4,4.0343E4,-2.4415569E2,-4.081507E1,1.5494093E2,-2.5590762E2],"split_indices":[3,3,3,0,3,0,0,3,1,0,0,0,0],"split_type":[0,0,0,0,0,0,0,0,0,0,0,0,0],"sum_hessian":[1.11E2,1.06E2,5E0,2E0,1.04E2,3E0,2E0,8.9E1,1.5E1,6E0,8.3E1,1.4E1,1E0],"tree_param":{"num_deleted":"0","num_feature":"31","num_nodes":"13","size_leaf_vector":"1"}},{"base_weights":[-1.7956805E2,-1.048543E3,3.4124358E3,4.6715182E2,-1.3591223E3,-2.4950996E2,3.994733E3,-2.5506673E2,-1.01137994E3,5.4937617E3,1.4966191E3,-1.2264904E2,-1.9370089E1,6.1533596E1,2.8635123E2,9.1578636E1,5.2268233E0],"categories":[],"categories_nodes":[],"categories_segments":[],"categories_sizes":[],"default_left":[0,0,0,0,0,0,0,0,0,0,0,0,0,0,0,0,0],"id":59,"left_children":[1,3,5,-1,7,-1,9,-1,11,13,15,-1,-1,-1,-1,-1,-1],"loss_changes":[3.8438416E8,3.322119E8,1.3736243E8,0E0,1.2106925E8,0E0,7.790704E7,0E0,8.000719E7,6.873824E6,4.471366E6,0E0,0E0,0E0,0E0,0E0,0E0],"parents":[2147483647,0,0,1,1,2,2,4,4,6,6,8,8,9,9,10,10],"right_children":[2,4,6,-1,8,-1,10,-1,12,14,16,-1,-1,-1,-1,-1,-1],"split_conditions":[7.4276E4,6.233E3,2.019E3,4.6715182E2,2.4593E4,-2.4950996E2,1E0,-2.5506673E2,2.022E3,8.284E4,9.3098E4,-1.2264904E2,-1.9370089E1,6.1533596E1,2.8635123E2,9.1578636E1,5.2268233E0],"split_indices":[3,3,0,0,3,0,10,0,0,3,3,0,0,0,0,0,0],"split_type":[0,0,0,0,0,0,0,0,0,0,0,0,0,0,0,0,0],"sum_hessian":[1.21E2,9.8E1,2.3E1,2E0,9.6E1,1E0,2.2E1,7E0,8.9E1,1.3E1,9E0,2.6E1,6.3E1,1E0,1.2E1,7E0,2E0],"tree_param":{"num_deleted":"0","num_feature":"31","num_nodes":"17","size_leaf_vector":"1"}},{"base_weights":[4.1772598E2,-4.353531E2,9.930439E3,4.5158023E2,-6.895851E2,6.468597E3,1.0271754E3,-1.7671934E3,9.062312E2,3.5784326E2,2.4061329E1,-3.9960095E2,-7.238961E1,3.8706903E2,2.0414259E1],"categories":[],"categories_nodes":[],"categories_segments":[],"categories_sizes":[],"default_left":[0,0,0,0,0,0,0,0,0,0,0,0,0,0,0],"id":60,"left_children":[1,3,5,-1,7,9,-1,11,13,-1,-1,-1,-1,-1,-1],"loss_changes":[9.862499E8,2.7579005E8,2.3451994E8,0E0,1.9076462E8,3.364416E7,0E0,1.1965147E8,1.4999838E8,0E0,0E0,0E0,0E0,0E0,0E0],"parents":[2147483647,0,0,1,1,2,2,4,4,5,5,7,7,8,8],"right_children":[2,4,6,-1,8,10,-1,12,14,-1,-1,-1,-1,-1,-1],"split_conditions":[1.69E5,6.233E3,2.34757E5,4.5158023E2,5.1766E4,3E0,1.0271754E3,2.015E3,1.753E3,3.5784326E2,2.4061329E1,-3.9960095E2,-7.238961E1,3.8706903E2,2.0414259E1],"split_indices":[3,3,3,0,3,2,0,0,4,0,0,0,0,0,0],"split_type":[0,0,0,0,0,0,0,0,0,0,0,0,0,0,0],"sum_hessian":[1.2E2,1.11E2,9E0,2E0,1.09E2,8E0,1E0,6.5E1,4.4E1,7E0,1E0,2E0,6.3E1,2E0,4.2E1],"tree_param":{"num_deleted":"0","num_feature":"31","num_nodes":"15","size_leaf_vector":"1"}},{"base_weights":[6.6188544E2,1.963756E2,9.2980707E2,-6.2491223E2,3.771251E3,4.4459943E2,-8.1869E2,4.969315E3,1.4885681E3,-2.2620027E2,-1.8915987E1,5.9484962E1,2.5842697E2,9.3845955E1,4.3113284E0],"categories":[],"categories_nodes":[],"categories_segments":[],"categories_sizes":[],"default_left":[0,0,0,0,0,0,0,0,0,0,0,0,0,0,0],"id":61,"left_children":[1,3,-1,5,7,-1,9,11,13,-1,-1,-1,-1,-1,-1],"loss_changes":[9.898282E8,3.458689E8,0E0,1.843195E8,5.276845E7,0E0,1.5330102E8,4.392896E6,4.739566E6,0E0,0E0,0E0,0E0,0E0,0E0],"parents":[2147483647,0,0,1,1,3,3,4,4,6,6,7,7,8,8],"right_children":[2,4,-1,6,8,-1,10,12,14,-1,-1,-1,-1,-1,-1],"split_conditions":[1.88942E5,7.1869E4,9.2980707E2,7E2,1E0,4.4459943E2,2.02E3,7.778E4,2.732E3,-2.2620027E2,-1.8915987E1,5.9484962E1,2.5842697E2,9.3845955E1,4.3113284E0],"split_indices":[5,5,0,4,10,0,0,5,4,0,0,0,0,0,0],"split_type":[0,0,0,0,0,0,0,0,0,0,0,0,0,0,0],"sum_hessian":[1.18E2,1.16E2,2E0,9.5E1,2.1E1,1E0,9.4E1,1.3E1,8E0,9E0,8.5E1,1E0,1.2E1,6E0,2E0],"tree_param":{"num_deleted":"0","num_feature":"31","num_nodes":"15","size_leaf_vector":"1"}},{"base_weights":[5.8729584E2,2.4920168E2,9.782508E2,-3.0182434E2,4.9580747E3,8.374949E1,-4.8909824E3,3.2279666E2,2.3842278E3,2.375985E2,-8.543422E0,-2.765636E2,-1.0223926E1,2.3351954E1,1.3371289E2],"categories":[],"categories_nodes":[],"categories_segments":[],"categories_sizes":[],"default_left":[0,0,0,0,0,0,0,0,0,0,0,0,0,0,0],"id":62,"left_children":[1,3,-1,5,7,9,11,-1,13,-1,-1,-1,-1,-1,-1],"loss_changes":[7.329938E8,2.9729363E8,0E0,1.8266394E8,3.0870688E7,1.1491876E8,2.2874704E7,0E0,2.087272E6,0E0,0E0,0E0,0E0,0E0,0E0],"parents":[2147483647,0,0,1,1,3,3,4,4,5,5,6,6,8,8],"right_children":[2,4,-1,6,8,10,12,-1,14,-1,-1,-1,-1,-1,-1],"split_conditions":[1.93266E5,9.6323E4,9.782508E2,6.9E4,2.4E1,9.98E2,2.023E3,3.2279666E2,3.2E3,2.375985E2,-8.543422E0,-2.765636E2,-1.0223926E1,2.3351954E1,1.3371289E2],"split_indices":[3,3,0,1,6,4,0,0,1,0,0,0,0,0,0],"split_type":[0,0,0,0,0,0,0,0,0,0,0,0,0,0,0],"sum_hessian":[1.14E2,1.13E2,1E0,1.02E2,1.1E1,9.5E1,7E0,6E0,5E0,4E0,9.1E1,6E0,1E0,1E0,4E0],"tree_param":{"num_deleted":"0","num_feature":"31","num_nodes":"15","size_leaf_vector":"1"}},{"base_weights":[1.4104689E2,5.181191E3,-3.4493857E2,7.250074E3,1.3267383E1,3.65794E2,-2.8638574E3,4.390891E2,-4.8504395E1,-3.0604912E3,7.775612E2,-3.3909443E3,1.7803698E3,-2.2043687E2,1.9313692E2,2.0351728E1,2.1329414E2,-2.0881827E2,4.9559326E1,1.2571563E2,7.8121095E0],"categories":[],"categories_nodes":[],"categories_segments":[],"categories_sizes":[],"default_left":[0,0,0,0,0,0,0,0,0,0,0,0,0,0,0,0,0,0,0,0,0],"id":63,"left_children":[1,3,5,7,-1,9,11,-1,-1,13,15,17,19,-1,-1,-1,-1,-1,-1,-1,-1],"loss_changes":[2.785736E8,9.977923E7,1.8723646E8,9.665533E7,0E0,1.1806794E8,6.233909E7,0E0,0E0,1.01037736E8,9.390982E7,7.641771E7,3.183208E6,0E0,0E0,0E0,0E0,0E0,0E0,0E0,0E0],"parents":[2147483647,0,0,1,1,2,2,3,3,5,5,6,6,9,9,10,10,11,11,12,12],"right_children":[2,4,6,8,-1,10,12,-1,-1,14,16,18,20,-1,-1,-1,-1,-1,-1,-1,-1],"split_conditions":[2.887E3,1E0,4.6872E4,1E0,1.3267383E1,2.4593E4,1E0,4.390891E2,-4.8504395E1,1E0,1E0,1E0,5.5E4,-2.2043687E2,1.9313692E2,2.0351728E1,2.1329414E2,-2.0881827E2,4.9559326E1,1.2571563E2,7.8121095E0],"split_indices":[1,10,1,28,0,3,28,0,0,28,26,8,1,0,0,0,0,0,0,0,0],"split_type":[0,0,0,0,0,0,0,0,0,0,0,0,0,0,0,0,0,0,0,0,0],"sum_hessian":[1.12E2,9E0,1.03E2,6E0,3E0,8.1E1,2.2E1,5E0,1E0,8E0,7.3E1,2E1,2E0,7E0,1E0,6.7E1,6E0,1.7E1,3E0,1E0,1E0],"tree_param":{"num_deleted":"0","num_feature":"31","num_nodes":"21","size_leaf_vector":"1"}},{"base_weights":[-7.230086E1,-1.021337E3,3.8920369E3,-1.7692021E3,5.296809E2,6.94435E3,2.6583748E3,-2.1507988E3,1.6998566E3,-1.4146635E2,5.3338116E2,4.4860157E1,3.9871695E2,1.9373935E2,1.7272699E3,-2.8490375E2,-8.208548E1,1.661528E2,1.9298283E1,-1.6944356E2,9.967511E0,3.7083725E1,1.1626565E2],"categories":[],"categories_nodes":[],"categories_segments":[],"categories_sizes":[],"default_left":[0,0,0,0,0,0,0,0,0,0,0,0,0,0,0,0,0,0,0,0,0,0,0],"id":64,"left_children":[1,3,5,7,9,11,13,15,17,19,-1,-1,-1,-1,21,-1,-1,-1,-1,-1,-1,-1,-1],"loss_changes":[4.4792646E8,1.12292536E8,6.814634E7,8.970184E7,2.1923878E8,3.0216352E7,1.3694128E7,9.719235E7,1.3646364E7,3.498542E7,0E0,0E0,0E0,0E0,5.34852E6,0E0,0E0,0E0,0E0,0E0,0E0,0E0,0E0],"parents":[2147483647,0,0,1,1,2,2,3,3,4,4,5,5,6,6,7,7,8,8,9,9,14,14],"right_children":[2,4,6,8,10,12,14,16,18,20,-1,-1,-1,-1,22,-1,-1,-1,-1,-1,-1,-1,-1],"split_conditions":[7.4276E4,5.7E1,2.887E3,1E0,6.005E4,8E0,1.4E1,2.02E3,2.019E3,2.02E3,5.3338116E2,4.4860157E1,3.9871695E2,1.9373935E2,3.1E1,-2.8490375E2,-8.208548E1,1.661528E2,1.9298283E1,-1.6944356E2,9.967511E0,3.7083725E1,1.1626565E2],"split_indices":[3,6,1,10,3,6,6,0,0,0,0,0,0,0,6,0,0,0,0,0,0,0,0],"split_type":[0,0,0,0,0,0,0,0,0,0,0,0,0,0,0,0,0,0,0,0,0,0,0],"sum_hessian":[1.17E2,9.5E1,2.2E1,6.4E1,3.1E1,5E0,1.7E1,5.8E1,6E0,3E1,1E0,1E0,4E0,6E0,1.1E1,6E0,5.2E1,2E0,4E0,2E0,2.8E1,5E0,6E0],"tree_param":{"num_deleted":"0","num_feature":"31","num_nodes":"23","size_leaf_vector":"1"}},{"base_weights":[2.6740598E2,-4.521334E1,9.523586E2,-7.596006E2,3.0317234E3,-5.2810864E2,-2.5030135E2,3.2591537E2,1.954637E3,-4.1230423E1,1.1983675E2,7.034065E1,1.8286368E2],"categories":[],"categories_nodes":[],"categories_segments":[],"categories_sizes":[],"default_left":[0,0,0,0,0,0,0,0,0,0,0,0,0],"id":65,"left_children":[1,3,-1,5,7,9,-1,-1,11,-1,-1,-1,-1],"loss_changes":[7.1711315E8,2.6827594E8,0E0,9.467461E7,7.363222E7,8.436184E7,0E0,0E0,1.2577056E7,0E0,0E0,0E0,0E0],"parents":[2147483647,0,0,1,1,3,3,4,4,5,5,8,8],"right_children":[2,4,-1,6,8,10,-1,-1,12,-1,-1,-1,-1],"split_conditions":[2.29089E5,7.7363E4,9.523586E2,7.2185E4,2.887E3,2.813E3,-2.5030135E2,3.2591537E2,5.405E3,-4.1230423E1,1.1983675E2,7.034065E1,1.8286368E2],"split_indices":[5,5,0,1,1,4,0,0,4,0,0,0,0],"split_type":[0,0,0,0,0,0,0,0,0,0,0,0,0],"sum_hessian":[1.21E2,1.2E2,1E0,9.8E1,2.2E1,9.4E1,4E0,4E0,1.8E1,8.6E1,8E0,1.5E1,3E0],"tree_param":{"num_deleted":"0","num_feature":"31","num_nodes":"13","size_leaf_vector":"1"}},{"base_weights":[2.3127412E2,2.543176E3,-5.971583E2,3.0025854E3,-2.6949258E2,-3.9855938E3,-2.854121E2,1.5395874E3,4.946867E3,-6.956895E1,-2.372502E2,-6.099803E2,3.7110696E3,4.2472052E2,3.1540455E1,3.697314E2,1.399329E2,1.898485E2,-4.2654602E1,-8.2764946E1,2.5577017E2],"categories":[],"categories_nodes":[],"categories_segments":[],"categories_sizes":[],"default_left":[0,0,0,0,0,0,0,0,0,0,0,0,0,0,0,0,0,0,0,0,0],"id":66,"left_children":[1,3,5,7,-1,9,11,13,15,-1,-1,17,19,-1,-1,-1,-1,-1,-1,-1,-1],"loss_changes":[2.1794245E8,1.2551875E8,8.759435E7,7.487379E7,0E0,7.188416E6,1.0343989E8,1.084087E8,4.2404576E7,0E0,0E0,8.144999E7,5.368455E7,0E0,0E0,0E0,0E0,0E0,0E0,0E0,0E0],"parents":[2147483647,0,0,1,1,2,2,3,3,5,5,6,6,7,7,8,8,11,11,12,12],"right_children":[2,4,6,8,-1,10,12,14,16,-1,-1,18,20,-1,-1,-1,-1,-1,-1,-1,-1],"split_conditions":[1.6E4,1E0,2.4593E4,9.6323E4,-2.6949258E2,1.25E3,2.024E3,2.014E3,2.887E3,-6.956895E1,-2.372502E2,2.016E3,5.1766E4,4.2472052E2,3.1540455E1,3.697314E2,1.399329E2,1.898485E2,-4.2654602E1,-8.2764946E1,2.5577017E2],"split_indices":[1,20,3,3,0,4,0,0,1,0,0,0,3,0,0,0,0,0,0,0,0],"split_type":[0,0,0,0,0,0,0,0,0,0,0,0,0,0,0,0,0,0,0,0,0],"sum_hessian":[1.12E2,2.9E1,8.3E1,2.8E1,1E0,6E0,7.7E1,1.7E1,1.1E1,2E0,4E0,7.2E1,5E0,1E0,1.6E1,4E0,7E0,3E0,6.9E1,1E0,4E0],"tree_param":{"num_deleted":"0","num_feature":"31","num_nodes":"21","size_leaf_vector":"1"}},{"base_weights":[-2.1498228E1,-6.092416E2,4.0941384E3,-3.5964172E2,-4.0522625E3,5.3297393E3,2.3467705E3,4.0445012E3,-4.9214468E2,-2.3792468E2,4.628125E0,3.0052914E2,1.4095899E1,3.2186692E3,-1.7928386E2,4.1410254E2,-1.10764946E2,-1.9921326E2,-8.813285E0,1.9063956E2,6.768086E1,5.234375E-1,-1.3969727E1],"categories":[],"categories_nodes":[],"categories_segments":[],"categories_sizes":[],"default_left":[0,0,0,0,0,0,0,0,0,0,0,0,0,0,0,0,0,0,0,0,0,0,0],"id":67,"left_children":[1,3,5,7,9,11,13,15,17,-1,-1,-1,-1,19,21,-1,-1,-1,-1,-1,-1,-1,-1],"loss_changes":[2.9034797E8,8.877728E7,1.9878048E7,5.976312E7,2.0930904E7,2.5799728E7,1.8196764E7,9.792587E7,1.062972E8,0E0,0E0,0E0,0E0,1.487348E6,5.9913695E4,0E0,0E0,0E0,0E0,0E0,0E0,0E0,0E0],"parents":[2147483647,0,0,1,1,2,2,3,3,4,4,5,5,6,6,7,7,8,8,13,13,14,14],"right_children":[2,4,6,8,10,12,14,16,18,-1,-1,-1,-1,20,22,-1,-1,-1,-1,-1,-1,-1,-1],"split_conditions":[9.3938E4,7.2185E4,6.572E3,4.945E3,2.022E3,2.4E1,2.024E3,2.014E3,2.3343E4,-2.3792468E2,4.628125E0,3.0052914E2,1.4095899E1,2.022E3,1.1E4,4.1410254E2,-1.10764946E2,-1.9921326E2,-8.813285E0,1.9063956E2,6.768086E1,5.234375E-1,-1.3969727E1],"split_indices":[5,1,1,5,0,6,0,0,5,0,0,0,0,0,1,0,0,0,0,0,0,0,0],"split_type":[0,0,0,0,0,0,0,0,0,0,0,0,0,0,0,0,0,0,0,0,0,0,0],"sum_hessian":[1.18E2,1.04E2,1.4E1,9.8E1,6E0,7E0,7E0,2E0,9.6E1,5E0,1E0,6E0,1E0,5E0,2E0,1E0,1E0,7E0,8.9E1,3E0,2E0,1E0,1E0],"tree_param":{"num_deleted":"0","num_feature":"31","num_nodes":"23","size_leaf_vector":"1"}},{"base_weights":[-7.90561E1,-4.3081543E2,4.268093E3,4.4888975E3,-6.5668225E2,3.1079745E2,2.258173E3,4.0375E2,1.5736216E3,-2.9393574E3,-2.230321E2,1.6223613E2,1.9004948E2,-1.07995804E2,1.7690532E2,4.956975E1,-1.9262376E2,-1.11125145E2,1.1657752E1,1.3743555E1,5.101563E-1],"categories":[],"categories_nodes":[],"categories_segments":[],"categories_sizes":[],"default_left":[0,0,0,0,0,0,0,0,0,0,0,0,0,0,0,0,0,0,0,0,0],"id":68,"left_children":[1,3,5,7,9,-1,11,-1,13,15,17,-1,19,-1,-1,-1,-1,-1,-1,-1,-1],"loss_changes":[1.8380763E8,1.2629095E8,2.1198624E7,3.956539E7,1.0526184E8,0E0,1.1625178E7,0E0,3.6979916E7,6.4836416E7,8.352229E7,0E0,4.2960023E4,0E0,0E0,0E0,0E0,0E0,0E0,0E0,0E0],"parents":[2147483647,0,0,1,1,2,2,3,3,4,4,6,6,8,8,9,9,10,10,12,12],"right_children":[2,4,6,8,10,-1,12,-1,14,16,18,-1,20,-1,-1,-1,-1,-1,-1,-1,-1],"split_conditions":[1.69E5,9.98E2,1.97E3,2.014E3,2.021E3,3.1079745E2,1.8153E5,4.0375E2,2.937E3,1.261E3,3.17E4,1.6223613E2,2.023E3,-1.07995804E2,1.7690532E2,4.956975E1,-1.9262376E2,-1.11125145E2,1.1657752E1,1.3743555E1,5.101563E-1],"split_indices":[3,4,1,0,0,0,3,0,1,4,3,0,0,0,0,0,0,0,0,0,0],"split_type":[0,0,0,0,0,0,0,0,0,0,0,0,0,0,0,0,0,0,0,0,0],"sum_hessian":[1.18E2,1.1E2,8E0,4E0,1.06E2,3E0,5E0,1E0,3E0,1.6E1,9E1,3E0,2E0,1E0,2E0,3E0,1.3E1,1.6E1,7.4E1,1E0,1E0],"tree_param":{"num_deleted":"0","num_feature":"31","num_nodes":"21","size_leaf_vector":"1"}},{"base_weights":[3.9383182E2,7.264657E1,9.1719415E2,-4.8651694E2,3.050816E3,3.8840366E2,-7.447856E2,3.9298293E3,1.1081049E3,-2.0765985E1,-1.4807628E2,4.5131054E1,2.4193037E2,7.292526E1,-2.4857422E1],"categories":[],"categories_nodes":[],"categories_segments":[],"categories_sizes":[],"default_left":[0,0,0,0,0,0,0,0,0,0,0,0,0,0,0],"id":69,"left_children":[1,3,-1,5,7,-1,9,11,13,-1,-1,-1,-1,-1,-1],"loss_changes":[6.5591066E8,1.8966131E8,0E0,2.1044811E8,2.6383376E7,0E0,6.7422E7,2.8645312E7,4.662462E6,0E0,0E0,0E0,0E0,0E0,0E0],"parents":[2147483647,0,0,1,1,3,3,4,4,6,6,7,7,8,8],"right_children":[2,4,-1,6,8,-1,10,12,14,-1,-1,-1,-1,-1,-1],"split_conditions":[2.34757E5,8.0836E4,9.1719415E2,6.233E3,1E0,3.8840366E2,7.1605E4,8E0,9.3098E4,-2.0765985E1,-1.4807628E2,4.5131054E1,2.4193037E2,7.292526E1,-2.4857422E1],"split_indices":[3,3,0,3,10,0,3,6,3,0,0,0,0,0,0],"split_type":[0,0,0,0,0,0,0,0,0,0,0,0,0,0,0],"sum_hessian":[1.13E2,1.12E2,1E0,9.5E1,1.7E1,2E0,9.3E1,1.1E1,6E0,8.2E1,1.1E1,3E0,8E0,5E0,1E0],"tree_param":{"num_deleted":"0","num_feature":"31","num_nodes":"15","size_leaf_vector":"1"}},{"base_weights":[2.2046321E2,2.2075396E3,-4.594544E2,2.6384204E3,-2.5720026E2,-1.6014362E3,3.2490024E2,1.2610702E3,4.4845776E3,1.8500691E2,-2.195523E3,-1.0052198E1,2.9553958E2,3.839461E2,2.1592413E1,3.238029E2,1.339665E2,-3.2210598E1,-1.6523442E2,-8.762399E1,4.182785E1],"categories":[],"categories_nodes":[],"categories_segments":[],"categories_sizes":[],"default_left":[0,0,0,0,0,0,0,0,0,0,0,0,0,0,0,0,0,0,0,0,0],"id":70,"left_children":[1,3,5,7,-1,9,11,13,15,-1,17,19,-1,-1,-1,-1,-1,-1,-1,-1,-1],"loss_changes":[1.590869E8,1.0860128E8,7.934355E7,6.808597E7,0E0,1.2150915E8,9.922284E7,9.247669E7,2.5789888E7,0E0,5.4652864E7,7.669898E7,0E0,0E0,0E0,0E0,0E0,0E0,0E0,0E0,0E0],"parents":[2147483647,0,0,1,1,2,2,3,3,5,5,6,6,7,7,8,8,10,10,11,11],"right_children":[2,4,6,8,-1,10,12,14,16,-1,18,20,-1,-1,-1,-1,-1,-1,-1,-1,-1],"split_conditions":[1.6E4,1E0,2.023E3,9.3938E4,-2.5720026E2,2.016E3,1E0,2.014E3,2.887E3,1.8500691E2,3.9939E4,3.7E4,2.9553958E2,3.839461E2,2.1592413E1,3.238029E2,1.339665E2,-3.2210598E1,-1.6523442E2,-8.762399E1,4.182785E1],"split_indices":[1,20,0,5,0,0,26,0,1,0,1,1,0,0,0,0,0,0,0,0,0],"split_type":[0,0,0,0,0,0,0,0,0,0,0,0,0,0,0,0,0,0,0,0,0],"sum_hessian":[1.16E2,2.9E1,8.7E1,2.8E1,1E0,3.5E1,5.2E1,1.7E1,1.1E1,3E0,3.2E1,5E1,2E0,1E0,1.6E1,4E0,7E0,1.4E1,1.8E1,1.6E1,3.4E1],"tree_param":{"num_deleted":"0","num_feature":"31","num_nodes":"21","size_leaf_vector":"1"}},{"base_weights":[1.5782498E2,-2.604718E2,7.791099E2,-5.5303345E2,3.5753887E3,-3.2086682E3,-2.0442433E2,2.0125871E2,1.0672266E1,1.581892E2,-2.3997685E2,-2.2376657E1,8.2426315E1],"categories":[],"categories_nodes":[],"categories_segments":[],"categories_sizes":[],"default_left":[0,0,0,0,0,0,0,0,0,0,0,0,0],"id":71,"left_children":[1,3,-1,5,7,9,11,-1,-1,-1,-1,-1,-1],"loss_changes":[7.331309E8,1.2654436E8,0E0,9.562504E7,1.123808E7,1.368375E8,4.2631356E7,0E0,0E0,0E0,0E0,0E0,0E0],"parents":[2147483647,0,0,1,1,3,3,4,4,5,5,6,6],"right_children":[2,4,-1,6,8,10,12,-1,-1,-1,-1,-1,-1],"split_conditions":[1.93266E5,1.69E5,7.791099E2,2.02E3,3E0,2.75E4,8.0836E4,2.0125871E2,1.0672266E1,1.581892E2,-2.3997685E2,-2.2376657E1,8.2426315E1],"split_indices":[3,3,0,0,2,3,3,0,0,0,0,0,0],"split_type":[0,0,0,0,0,0,0,0,0,0,0,0,0],"sum_hessian":[1.12E2,1.1E2,2E0,1.03E2,7E0,1.1E1,9.2E1,6E0,1E0,2E0,9E0,8.2E1,1E1],"tree_param":{"num_deleted":"0","num_feature":"31","num_nodes":"13","size_leaf_vector":"1"}},{"base_weights":[3.4644934E2,-6.3630005E2,1.4283068E3,4.0328977E3,-1.0278464E3,3.0893625E3,-1.091129E1,3.703928E2,1.3371943E3,-4.2002227E3,-5.1006494E2,1.6607153E3,5.209127E3,-3.5492556E3,9.8026154E2,-1.1498643E2,1.6580391E2,-5.3866505E1,-2.5308157E2,1.34315E1,-1.403457E2,-1.6781805E1,1.260249E2,2.7928293E2,4.5508595E1,-2.0951878E2,7.436621E0,7.7278075E0,5.199298E2],"categories":[],"categories_nodes":[],"categories_segments":[],"categories_sizes":[],"default_left":[0,0,0,0,0,0,0,0,0,0,0,0,0,0,0,0,0,0,0,0,0,0,0,0,0,0,0,0,0],"id":72,"left_children":[1,3,5,7,9,11,13,-1,15,17,19,21,23,25,27,-1,-1,-1,-1,-1,-1,-1,-1,-1,-1,-1,-1,-1,-1],"loss_changes":[1.25302616E8,1.1749406E8,1.3390852E8,3.558368E7,9.3128264E7,7.008739E7,1.1219963E8,0E0,3.6414268E7,1.6067664E7,9.196981E7,3.0025252E7,1.1103008E7,1.7219224E7,1.9281206E8,0E0,0E0,0E0,0E0,0E0,0E0,0E0,0E0,0E0,0E0,0E0,0E0,0E0,0E0],"parents":[2147483647,0,0,1,1,2,2,3,3,4,4,5,5,6,6,8,8,9,9,10,10,11,11,12,12,13,13,14,14],"right_children":[2,4,6,8,10,12,14,-1,16,18,20,22,24,26,28,-1,-1,-1,-1,-1,-1,-1,-1,-1,-1,-1,-1,-1,-1],"split_conditions":[5.0375E4,9.98E2,1.9E1,2E1,2E4,9E0,2.1E1,3.703928E2,2.937E3,1.25E3,4.6872E4,3.56E3,1E0,5.21E4,1E0,-1.1498643E2,1.6580391E2,-5.3866505E1,-2.5308157E2,1.34315E1,-1.403457E2,-1.6781805E1,1.260249E2,2.7928293E2,4.5508595E1,-2.0951878E2,7.436621E0,7.7278075E0,5.199298E2],"split_indices":[3,4,6,1,1,6,6,0,1,4,1,1,12,1,30,0,0,0,0,0,0,0,0,0,0,0,0,0,0],"split_type":[0,0,0,0,0,0,0,0,0,0,0,0,0,0,0,0,0,0,0,0,0,0,0,0,0,0,0,0,0],"sum_hessian":[1.16E2,6.1E1,5.5E1,4E0,5.7E1,2.5E1,3E1,1E0,3E0,7E0,5E1,1.6E1,9E0,6E0,2.4E1,1E0,2E0,2E0,5E0,3.8E1,1.2E1,5E0,1.1E1,8E0,1E0,5E0,1E0,2.3E1,1E0],"tree_param":{"num_deleted":"0","num_feature":"31","num_nodes":"29","size_leaf_vector":"1"}},{"base_weights":[2.8852783E2,-7.072956E0,8.644555E2,3.5749765E2,-1.953537E2,-2.1282117E3,3.9990216E2,-2.6384677E2,-8.326181E1,2.5864996E1,-2.4534258E2],"categories":[],"categories_nodes":[],"categories_segments":[],"categories_sizes":[],"default_left":[0,0,0,0,0,0,0,0,0,0,0],"id":73,"left_children":[1,3,-1,-1,5,7,9,-1,-1,-1,-1],"loss_changes":[5.880924E8,1.5771027E8,0E0,0E0,1.3201322E8,3.0572752E7,5.736241E7,0E0,0E0,0E0,0E0],"parents":[2147483647,0,0,1,1,4,4,5,5,6,6],"right_children":[2,4,-1,-1,6,8,10,-1,-1,-1,-1],"split_conditions":[2.34757E5,6.233E3,8.644555E2,3.5749765E2,3.4875E4,2.0475E4,1E0,-2.6384677E2,-8.326181E1,2.5864996E1,-2.4534258E2],"split_indices":[3,3,0,0,5,3,22,0,0,0,0],"split_type":[0,0,0,0,0,0,0,0,0,0,0],"sum_hessian":[1.16E2,1.15E2,1E0,2E0,1.13E2,2.6E1,8.7E1,2E0,2.4E1,8.6E1,1E0],"tree_param":{"num_deleted":"0","num_feature":"31","num_nodes":"11","size_leaf_vector":"1"}},{"base_weights":[3.5395593E2,2.2398079E3,-3.255954E2,2.6574612E3,-2.3636221E2,1.3475584E2,-2.5383303E3,4.9255522E3,2.0742146E3,-2.3177937E2,8.153612E3,-2.3082947E2,-4.025625E2,3.8037814E2,3.008457E1,-2.4213142E1,1.476972E2,-2.0786336E2,4.4265294E0,5.0628497E2,1.0523594E2,4.2156887E1,-6.5930504E1],"categories":[],"categories_nodes":[],"categories_segments":[],"categories_sizes":[],"default_left":[0,0,0,0,0,0,0,0,0,0,0,0,0,0,0,0,0,0,0,0,0,0,0],"id":74,"left_children":[1,3,5,7,-1,9,11,13,15,17,19,-1,21,-1,-1,-1,-1,-1,-1,-1,-1,-1,-1],"loss_changes":[1.4041638E8,9.694706E7,8.285152E7,2.6823328E7,0E0,2.0175498E8,6.0283024E7,5.340579E7,5.5448896E7,8.335465E7,1.4475088E7,0E0,1.0240736E7,0E0,0E0,0E0,0E0,0E0,0E0,0E0,0E0,0E0,0E0],"parents":[2147483647,0,0,1,1,2,2,3,3,5,5,6,6,7,7,8,8,9,9,10,10,12,12],"right_children":[2,4,6,8,-1,10,12,14,16,18,20,-1,22,-1,-1,-1,-1,-1,-1,-1,-1,-1,-1],"split_conditions":[1.6E4,1E0,7.1605E4,1.75E3,-2.3636221E2,6.7856E4,2.1E1,2.887E3,7.1605E4,2.4593E4,2.9322E4,-2.3082947E2,3.4E1,3.8037814E2,3.008457E1,-2.4213142E1,1.476972E2,-2.0786336E2,4.4265294E0,5.0628497E2,1.0523594E2,4.2156887E1,-6.5930504E1],"split_indices":[1,20,3,4,0,3,6,1,3,3,1,0,6,0,0,0,0,0,0,0,0,0,0],"split_type":[0,0,0,0,0,0,0,0,0,0,0,0,0,0,0,0,0,0,0,0,0,0,0],"sum_hessian":[1.08E2,2.8E1,8E1,2.7E1,1E0,6.7E1,1.3E1,4E0,2.3E1,6.5E1,2E0,6E0,7E0,2E0,2E0,6E0,1.7E1,4E0,6.1E1,1E0,1E0,3E0,4E0],"tree_param":{"num_deleted":"0","num_feature":"31","num_nodes":"23","size_leaf_vector":"1"}},{"base_weights":[1.4317511E2,-1.2420799E2,8.3915155E2,-7.3555005E2,2.1219797E3,-3.3069656E2,-5.4616144E2,-2.3343828E2,2.5627302E3,-1.6014109E1,-1.7022844E2,2.3914482E2,7.465214E1],"categories":[],"categories_nodes":[],"categories_segments":[],"categories_sizes":[],"default_left":[0,0,0,0,0,0,0,0,0,0,0,0,0],"id":75,"left_children":[1,3,-1,5,7,-1,9,-1,11,-1,-1,-1,-1],"loss_changes":[5.626858E8,1.7320944E8,0E0,1.0660427E8,9.2776424E7,0E0,6.153811E7,0E0,5.4605904E7,0E0,0E0,0E0,0E0],"parents":[2147483647,0,0,1,1,3,3,4,4,6,6,8,8],"right_children":[2,4,-1,6,8,-1,10,-1,12,-1,-1,-1,-1],"split_conditions":[2.34757E5,8.0836E4,8.3915155E2,2.015E3,2.019E3,-3.3069656E2,7.2185E4,-2.3343828E2,6.572E3,-1.6014109E1,-1.7022844E2,2.3914482E2,7.465214E1],"split_indices":[3,3,0,0,0,0,1,0,1,0,0,0,0],"split_type":[0,0,0,0,0,0,0,0,0,0,0,0,0],"sum_hessian":[1.25E2,1.24E2,1E0,9.8E1,2.6E1,2E0,9.6E1,1E0,2.5E1,9E1,6E0,7E0,1.8E1],"tree_param":{"num_deleted":"0","num_feature":"31","num_nodes":"13","size_leaf_vector":"1"}},{"base_weights":[-8.146026E1,-3.742576E2,3.8814863E3,3.5095352E2,-5.089529E2,4.436587E3,-1.0546875E-1,-3.468001E3,-1.6814383E2,6.445156E1,2.3731706E2,1.1672261E2,-2.1408458E2,1.0151219E1,-9.633802E1],"categories":[],"categories_nodes":[],"categories_segments":[],"categories_sizes":[],"default_left":[0,0,0,0,0,0,0,0,0,0,0,0,0,0,0],"id":76,"left_children":[1,3,5,-1,7,9,-1,11,13,-1,-1,-1,-1,-1,-1],"loss_changes":[1.3489179E8,1.1112381E8,1.7255664E7,0E0,1.07323224E8,7.06592E5,0E0,6.193081E7,6.370721E7,0E0,0E0,0E0,0E0,0E0,0E0],"parents":[2147483647,0,0,1,1,2,2,4,4,5,5,7,7,8,8],"right_children":[2,4,6,-1,8,10,-1,12,14,-1,-1,-1,-1,-1,-1],"split_conditions":[1.62E5,2.014E3,3E0,3.5095352E2,2.02E3,2.021E3,-1.0546875E-1,2.6E4,1E0,6.445156E1,2.3731706E2,1.1672261E2,-2.1408458E2,1.0151219E1,-9.633802E1],"split_indices":[5,0,2,0,0,0,0,5,30,0,0,0,0,0,0],"split_type":[0,0,0,0,0,0,0,0,0,0,0,0,0,0,0],"sum_hessian":[1.14E2,1.07E2,7E0,1E0,1.06E2,6E0,1E0,1E1,9.6E1,1E0,5E0,1E0,9E0,8E1,1.6E1],"tree_param":{"num_deleted":"0","num_feature":"31","num_nodes":"15","size_leaf_vector":"1"}},{"base_weights":[1.4606287E2,6.847454E2,-2.0145099E3,3.3850012E2,4.9147482E2,-2.3328633E2,-7.242741E2,-5.781612E1,2.187531E3,-1.3789425E3,2.6012726E2,1.7002407E1,-1.5066353E2,2.0633443E2,