{"learner":{"attributes":{"best_iteration":"137","best_score":"11006.473434669384","scikit_learn":"{\"_estimator_type\": \"regressor\"}"},"feature_names":[],"feature_types":[],"gradient_booster":{"model":{"cats":{"enc":[],"feature_segments":[],"sorted_idx":[]},"gbtree_model_param":{"num_parallel_tree":"1","num_trees":"158"},"iteration_indptr":[0,1,2,3,4,5,6,7,8,9,10,11,12,13,14,15,16,17,18,19,20,21,22,23,24,25,26,27,28,29,30,31,32,33,34,35,36,37,38,39,40,41,42,43,44,45,46,47,48,49,50,51,52,53,54,55,56,57,58,59,60,61,62,63,64,65,66,67,68,69,70,71,72,73,74,75,76,77,78,79,80,81,82,83,84,85,86,87,88,89,90,91,92,93,94,95,96,97,98,99,100,101,102,103,104,105,106,107,108,109,110,111,112,113,114,115,116,117,118,119,120,121,122,123,124,125,126,127,128,129,130,131,132,133,134,135,136,137,138,139,140,141,142,143,144,145,146,147,148,149,150,151,152,153,154,155,156,157,158],"tree_info":[0,0,0,0,0,0,0,0,0,0,0,0,0,0,0,0,0,0,0,0,0,0,0,0,0,0,0,0,0,0,0,0,0,0,0,0,0,0,0,0,0,0,0,0,0,0,0,0,0,0,0,0,0,0,0,0,0,0,0,0,0,0,0,0,0,0,0,0,0,0,0,0,0,0,0,0,0,0,0,0,0,0,0,0,0,0,0,0,0,0,0,0,0,0,0,0,0,0,0,0,0,0,0,0,0,0,0,0,0,0,0,0,0,0,0,0,0,0,0,0,0,0,0,0,0,0,0,0,0,0,0,0,0,0,0,0,0,0,0,0,0,0,0,0,0,0,0,0,0,0,0,0,0,0,0,0,0,0],"trees":[{"base_weights":[-8.228665E1,-2.0918871E4,8.194135E4,-3.6537867E4,-2.0061432E2,5.6793727E4,1.5762331E5,-4.661641E4,-2.8686041E4,-1.0324496E4,1.2822843E4,4.343857E4,8.5804625E4,1.408587E5,1.2876841E4,-2.665656E3,-4.1937316E4,-3.131019E4,-2.03913E4,-1.3975981E4,-6.653132E3,4.4238237E3,1.9986893E4,3.782375E4,5.34136E4,6.0281555E2,4.384287E3,5.9730386E3,7.968621E3,-2.1031555E3,-4.666346E2,-1.7195719E3,-1.4122698E3,-1.0409319E3,1.1148854E1,-6.6058386E2,-1.0507142E3,1.00836035E3,-3.4821542E2,3.592618E1,3.610545E2,8.157681E2,1.2533143E3,1.9062288E3,1.333604E2,2.7199148E3,8.7781555E2],"categories":[],"categories_nodes":[],"categories_segments":[],"categories_sizes":[],"default_left":[0,0,0,0,0,0,0,0,0,0,0,0,0,0,0,0,0,0,0,0,0,0,0,0,0,0,0,0,0,0,0,0,0,0,0,0,0,0,0,0,0,0,0,0,0,0,0],"id":0,"left_children":[1,3,5,7,9,11,13,15,17,19,21,23,25,27,-1,-1,29,31,33,35,37,39,41,43,45,-1,-1,-1,-1,-1,-1,-1,-1,-1,-1,-1,-1,-1,-1,-1,-1,-1,-1,-1,-1,-1,-1],"loss_changes":[2.6576437E12,4.0125468E11,5.905627E11,5.461115E10,7.05392E10,8.848474E10,9.437459E10,7.415202E9,8.0682025E9,3.9422013E9,1.3991588E10,7.2210186E9,9.208758E9,8.29594E9,0E0,0E0,3.7031117E8,1.88049E9,8.767529E8,5.2927283E8,1.4090199E9,1.1245641E9,1.940824E9,1.05109914E9,1.05753805E9,0E0,0E0,0E0,0E0,0E0,0E0,0E0,0E0,0E0,0E0,0E0,0E0,0E0,0E0,0E0,0E0,0E0,0E0,0E0,0E0,0E0,0E0],"parents":[2147483647,0,0,1,1,2,2,3,3,4,4,5,5,6,6,7,7,8,8,9,9,10,10,11,11,12,12,13,13,16,16,17,17,18,18,19,19,20,20,21,21,22,22,23,23,24,24],"right_children":[2,4,6,8,10,12,14,16,18,20,22,24,26,28,-1,-1,30,32,34,36,38,40,42,44,46,-1,-1,-1,-1,-1,-1,-1,-1,-1,-1,-1,-1,-1,-1,-1,-1,-1,-1,-1,-1,-1,-1],"split_conditions":[1.0056735E5,5.277925E4,1.678328E5,3.577863E4,7.068112E4,1.58235E5,3.24969E5,2.743662E4,4.81819E4,6.107422E4,8.167515E4,1.1835033E5,2.012E3,2.4784564E5,1.2876841E4,-2.665656E3,5.474375E4,4.128842E4,7.924232E4,5.2135E4,1.996E3,8.605982E4,1.079485E5,4.9052E4,2.9951E4,6.0281555E2,4.384287E3,5.9730386E3,7.968621E3,-2.1031555E3,-4.666346E2,-1.7195719E3,-1.4122698E3,-1.0409319E3,1.1148854E1,-6.6058386E2,-1.0507142E3,1.00836035E3,-3.4821542E2,3.592618E1,3.610545E2,8.157681E2,1.2533143E3,1.9062288E3,1.333604E2,2.7199148E3,8.7781555E2],"split_indices":[3,3,3,3,3,4,4,3,3,3,3,3,0,4,0,0,4,3,4,1,0,4,4,1,1,0,0,0,0,0,0,0,0,0,0,0,0,0,0,0,0,0,0,0,0,0,0],"split_type":[0,0,0,0,0,0,0,0,0,0,0,0,0,0,0,0,0,0,0,0,0,0,0,0,0,0,0,0,0,0,0,0,0,0,0,0,0,0,0,0,0,0,0,0,0,0,0],"sum_hessian":[1.553E3,1.239E3,3.14E2,7.06E2,5.33E2,2.37E2,7.7E1,3.07E2,3.99E2,3E2,2.33E2,1.64E2,7.3E1,6.8E1,9E0,1.22E2,1.85E2,3.01E2,9.8E1,1.49E2,1.51E2,1.08E2,1.25E2,1.08E2,5.6E1,2E0,7.1E1,3.5E1,3.3E1,1.84E2,1E0,1.45E2,1.56E2,9.6E1,2E0,1.37E2,1.2E1,1E0,1.5E2,4.7E1,6.1E1,7.5E1,5E1,1.07E2,1E0,5.4E1,2E0],"tree_param":{"num_deleted":"0","num_feature":"111","num_nodes":"47","size_leaf_vector":"1"}},{"base_weights":[3.2415967E2,-1.9480057E4,7.5283625E4,-3.5685305E4,-1.5494185E3,5.2974168E4,1.4690702E5,-4.6192188E4,-2.892803E4,-9.138889E3,1.3229841E4,4.051034E4,8.004401E4,1.3073852E5,1.0631827E4,-2.638661E3,-4.2250703E4,-3.3216977E4,-2.4072832E4,-1.3714367E4,-4.0336816E3,5.480341E3,1.7848834E4,3.2548295E4,4.6677844E4,7.4447555E4,5.7960933E3,5.62807E3,7.3815034E3,-5.140557E2,-2.1190679E3,2.7634967E2,-1.6712412E3,-1.2122489E3,2.330817E2,-6.9325653E2,4.4487506E2,-6.2761607E0,-2.9856927E2,3.0494788E2,-1.4797684E2,1.7221342E3,8.447132E2,1.6445067E3,1.3002641E2,2.3559976E3,8.485551E2,3.7612622E3,4.807901E2],"categories":[],"categories_nodes":[],"categories_segments":[],"categories_sizes":[],"default_left":[0,0,0,0,0,0,0,0,0,0,0,0,0,0,0,0,0,0,0,0,0,0,0,0,0,0,0,0,0,0,0,0,0,0,0,0,0,0,0,0,0,0,0,0,0,0,0,0,0],"id":1,"left_children":[1,3,5,7,9,11,13,15,17,19,21,23,25,27,-1,-1,29,31,33,35,37,39,41,43,45,47,-1,-1,-1,-1,-1,-1,-1,-1,-1,-1,-1,-1,-1,-1,-1,-1,-1,-1,-1,-1,-1,-1,-1],"loss_changes":[2.3796572E12,3.6838805E11,5.2750713E11,4.594834E10,6.7757453E10,8.346763E10,5.6157405E10,4.488495E9,7.696417E9,9.264826E9,7.2401306E9,7.2215757E9,7.432962E9,3.6470784E9,0E0,0E0,2.6178355E8,1.9080479E9,1.077592E9,8.392622E8,1.438092E9,4.252923E8,1.44563E9,7.4368614E8,4.8739123E8,2.9068165E9,0E0,0E0,0E0,0E0,0E0,0E0,0E0,0E0,0E0,0E0,0E0,0E0,0E0,0E0,0E0,0E0,0E0,0E0,0E0,0E0,0E0,0E0,0E0],"parents":[2147483647,0,0,1,1,2,2,3,3,4,4,5,5,6,6,7,7,8,8,9,9,10,10,11,11,12,12,13,13,16,16,17,17,18,18,19,19,20,20,21,21,22,22,23,23,24,24,25,25],"right_children":[2,4,6,8,10,12,14,16,18,20,22,24,26,28,-1,-1,30,32,34,36,38,40,42,44,46,48,-1,-1,-1,-1,-1,-1,-1,-1,-1,-1,-1,-1,-1,-1,-1,-1,-1,-1,-1,-1,-1,-1,-1],"split_conditions":[9.858743E4,5.092846E4,1.678328E5,3.363874E4,7.366313E4,1.3128527E5,2.5287208E5,2.562121E4,4.20971E4,6.132267E4,8.167515E4,1.1132531E5,1E0,2.1234178E5,1.0631827E4,-2.638661E3,7.041E3,1.893E3,1E0,2.026E3,1.5919E4,4.6764E4,9.49E2,4.7875E4,3.5384E4,2.7945E4,5.7960933E3,5.62807E3,7.3815034E3,-5.140557E2,-2.1190679E3,2.7634967E2,-1.6712412E3,-1.2122489E3,2.330817E2,-6.9325653E2,4.4487506E2,-6.2761607E0,-2.9856927E2,3.0494788E2,-1.4797684E2,1.7221342E3,8.447132E2,1.6445067E3,1.3002641E2,2.3559976E3,8.485551E2,3.7612622E3,4.807901E2],"split_indices":[3,3,3,3,3,3,3,3,3,3,3,3,46,3,0,0,1,1,55,0,1,1,1,1,1,1,0,0,0,0,0,0,0,0,0,0,0,0,0,0,0,0,0,0,0,0,0,0,0],"split_type":[0,0,0,0,0,0,0,0,0,0,0,0,0,0,0,0,0,0,0,0,0,0,0,0,0,0,0,0,0,0,0,0,0,0,0,0,0,0,0,0,0,0,0,0,0,0,0,0,0],"sum_hessian":[1.601E3,1.267E3,3.34E2,6.65E2,6.02E2,2.56E2,7.8E1,2.58E2,4.07E2,3.98E2,2.04E2,1.77E2,7.9E1,6.5E1,1.3E1,9.2E1,1.66E2,2.13E2,1.94E2,2.09E2,1.89E2,7.7E1,1.27E2,8E1,9.7E1,7.1E1,8E0,3.5E1,3E1,1E0,1.65E2,1E0,2.12E2,1.93E2,1E0,2.08E2,1E0,6.3E1,1.26E2,7.2E1,5E0,5E0,1.22E2,7.9E1,1E0,9.5E1,2E0,7E1,1E0],"tree_param":{"num_deleted":"0","num_feature":"111","num_nodes":"49","size_leaf_vector":"1"}},{"base_weights":[1.6552283E2,-1.8643637E4,7.470068E4,-3.3179547E4,1.7952002E2,5.1994668E4,1.4388508E5,-4.3926465E4,-2.6786137E4,-6.2550576E3,1.7365436E4,3.8620434E4,7.152545E4,1.277032E5,1.0810793E4,-2.514745E3,-2.0058301E3,-3.0481766E4,-2.104366E4,-1.1083717E4,1.8210715E2,1.2923897E4,2.3270611E4,3.4110656E4,4.5543867E4,3.1017124E3,8.373686E4,5.394589E3,7.0883022E3,-1.531498E3,2.4938072E2,-1.1945521E3,-9.425581E2,-6.407061E2,-3.7851102E2,-1.5759177E2,1.416898E2,5.837719E2,1.8267385E3,7.1534174E2,1.2430537E3,1.7329401E3,6.624824E2,8.2026996E2,2.3166948E3,4.6877036E2,4.270158E3],"categories":[],"categories_nodes":[],"categories_segments":[],"categories_sizes":[],"default_left":[0,0,0,0,0,0,0,0,0,0,0,0,0,0,0,0,0,0,0,0,0,0,0,0,0,0,0,0,0,0,0,0,0,0,0,0,0,0,0,0,0,0,0,0,0,0,0],"id":2,"left_children":[1,3,5,7,9,11,13,15,17,19,21,23,25,27,-1,-1,-1,29,31,33,35,37,39,41,43,-1,45,-1,-1,-1,-1,-1,-1,-1,-1,-1,-1,-1,-1,-1,-1,-1,-1,-1,-1,-1,-1],"loss_changes":[2.2402968E12,3.4913445E11,4.9834898E11,4.82942E10,6.170397E10,6.097273E10,6.48539E10,4.4604785E9,8.993341E9,1.2621666E10,3.6859126E9,3.0362665E9,6.163759E9,3.3711718E9,0E0,0E0,0E0,1.5930163E9,6.7958374E8,1.3134991E9,1.5560328E9,2.196908E9,5.567324E8,6.0421734E8,5.059707E8,0E0,4.1556705E9,0E0,0E0,0E0,0E0,0E0,0E0,0E0,0E0,0E0,0E0,0E0,0E0,0E0,0E0,0E0,0E0,0E0,0E0,0E0,0E0],"parents":[2147483647,0,0,1,1,2,2,3,3,4,4,5,5,6,6,7,7,8,8,9,9,10,10,11,11,12,12,13,13,17,17,18,18,19,19,20,20,21,21,22,22,23,23,24,24,26,26],"right_children":[2,4,6,8,10,12,14,16,18,20,22,24,26,28,-1,-1,-1,30,32,34,36,38,40,42,44,-1,46,-1,-1,-1,-1,-1,-1,-1,-1,-1,-1,-1,-1,-1,-1,-1,-1,-1,-1,-1,-1],"split_conditions":[1.0056735E5,5.277925E4,1.678328E5,3.363874E4,7.92937E4,1.50857E5,2.920158E5,2.562121E4,4.490891E4,6.49064E4,1.06563E5,1.1762056E5,1.77308E5,2.4784564E5,1.0810793E4,-2.514745E3,-2.0058301E3,6.848245E4,4.81819E4,7.1884E4,7.068112E4,1E0,2.021E3,9.63802E3,-1.388951E4,3.1017124E3,2.012E3,5.394589E3,7.0883022E3,-1.531498E3,2.4938072E2,-1.1945521E3,-9.425581E2,-6.407061E2,-3.7851102E2,-1.5759177E2,1.416898E2,5.837719E2,1.8267385E3,7.1534174E2,1.2430537E3,1.7329401E3,6.624824E2,8.2026996E2,2.3166948E3,4.6877036E2,4.270158E3],"split_indices":[3,3,3,3,3,4,4,3,3,3,4,3,4,4,0,0,0,4,3,4,3,12,9,6,6,0,0,0,0,0,0,0,0,0,0,0,0,0,0,0,0,0,0,0,0,0,0],"split_type":[0,0,0,0,0,0,0,0,0,0,0,0,0,0,0,0,0,0,0,0,0,0,0,0,0,0,0,0,0,0,0,0,0,0,0,0,0,0,0,0,0,0,0,0,0,0,0],"sum_hessian":[1.596E3,1.275E3,3.21E2,7.19E2,5.56E2,2.43E2,7.8E1,2.66E2,4.53E2,4.05E2,1.51E2,1.46E2,9.7E1,6.6E1,1.2E1,9.5E1,1.71E2,2.73E2,1.8E2,2.31E2,1.74E2,8.8E1,6.3E1,9.2E1,5.4E1,5.8E1,3.9E1,3.1E1,3.5E1,2.72E2,1E0,7.4E1,1.06E2,1.53E2,7.8E1,7.7E1,9.7E1,8.5E1,3E0,1.1E1,5.2E1,8.9E1,3E0,2E0,5.2E1,1E0,3.8E1],"tree_param":{"num_deleted":"0","num_feature":"111","num_nodes":"47","size_leaf_vector":"1"}},{"base_weights":[5.6945213E1,-1.8274328E4,6.639603E4,-3.1471648E4,-7.736963E2,4.70251E4,1.342125E5,-4.0108316E4,-2.4303998E4,-7.7730566E3,1.1995985E4,3.4778742E4,6.960482E4,1.2053456E5,1.1208211E4,-2.350285E3,-3.650728E4,-2.6902676E4,-1.8521887E4,-1.1628535E4,-3.8515063E3,6.1442593E3,1.6263527E4,2.7407328E4,3.9261234E4,5.5419918E4,7.5930164E4,5.510697E2,1.2363912E5,-1.584244E3,-1.9008895E3,-1.2430122E3,-1.581883E3,-8.383755E2,-1.178849E3,-5.132521E2,-8.743042E2,-1.0479354E1,-3.5131345E2,3.484888E2,-1.23308556E2,9.149023E2,4.3010803E1,3.5570328E2,1.3946218E3,1.4011835E3,2.0735828E3,6.9378815E2,2.8142275E3,3.4959062E3,5.211687E3,5.2109126E3,6.971177E3],"categories":[],"categories_nodes":[],"categories_segments":[],"categories_sizes":[],"default_left":[0,0,0,0,0,0,0,0,0,0,0,0,0,0,0,0,0,0,0,0,0,0,0,0,0,0,0,0,0,0,0,0,0,0,0,0,0,0,0,0,0,0,0,0,0,0,0,0,0,0,0,0,0],"id":3,"left_children":[1,3,5,7,9,11,13,15,17,19,21,23,25,27,-1,-1,29,31,33,35,37,39,41,43,45,47,49,-1,51,-1,-1,-1,-1,-1,-1,-1,-1,-1,-1,-1,-1,-1,-1,-1,-1,-1,-1,-1,-1,-1,-1,-1,-1],"loss_changes":[1.9603182E12,2.9167993E11,4.5215895E11,4.3596513E10,4.871575E10,7.3069036E10,6.7717693E10,6.3562056E9,5.451956E9,5.2772577E9,4.7197614E9,4.838523E9,4.315775E9,2.2096642E10,0E0,0E0,3.833856E8,1.8342871E9,7.221002E8,1.2341555E9,2.0334794E9,6.0715776E8,3.4628076E9,5.00523E8,1.5453389E9,4.043817E8,3.4323825E9,0E0,6.008144E9,0E0,0E0,0E0,0E0,0E0,0E0,0E0,0E0,0E0,0E0,0E0,0E0,0E0,0E0,0E0,0E0,0E0,0E0,0E0,0E0,0E0,0E0,0E0,0E0],"parents":[2147483647,0,0,1,1,2,2,3,3,4,4,5,5,6,6,7,7,8,8,9,9,10,10,11,11,12,12,13,13,16,16,17,17,18,18,19,19,20,20,21,21,22,22,23,23,24,24,25,25,26,26,28,28],"right_children":[2,4,6,8,10,12,14,16,18,20,22,24,26,28,-1,-1,30,32,34,36,38,40,42,44,46,48,50,-1,52,-1,-1,-1,-1,-1,-1,-1,-1,-1,-1,-1,-1,-1,-1,-1,-1,-1,-1,-1,-1,-1,-1,-1,-1],"split_conditions":[1.1448629E5,6.307549E4,2.0657462E5,4.259003E4,8.605982E4,1.50857E5,3.24969E5,2.99985E4,5.532925E4,7.273282E4,9.7177E4,1.27475E5,1.6430044E5,2.012E3,1.1208211E4,-2.350285E3,3.101E4,4.5377E4,4.103E4,3.584E4,1.9704E4,4.103E4,3.7925E4,-4.80906E3,-4.61328E3,2.77E2,1E0,5.510697E2,2.4784564E5,-1.584244E3,-1.9008895E3,-1.2430122E3,-1.581883E3,-8.383755E2,-1.178849E3,-5.132521E2,-8.743042E2,-1.0479354E1,-3.5131345E2,3.484888E2,-1.23308556E2,9.149023E2,4.3010803E1,3.5570328E2,1.3946218E3,1.4011835E3,2.0735828E3,6.9378815E2,2.8142275E3,3.4959062E3,5.211687E3,5.2109126E3,6.971177E3],"split_indices":[4,4,4,4,4,4,4,4,4,4,4,4,4,0,0,0,1,1,1,1,1,1,1,6,6,1,46,0,4,0,0,0,0,0,0,0,0,0,0,0,0,0,0,0,0,0,0,0,0,0,0,0,0],"split_type":[0,0,0,0,0,0,0,0,0,0,0,0,0,0,0,0,0,0,0,0,0,0,0,0,0,0,0,0,0,0,0,0,0,0,0,0,0,0,0,0,0,0,0,0,0,0,0,0,0,0,0,0,0],"sum_hessian":[1.61E3,1.262E3,3.48E2,7.19E2,5.43E2,2.72E2,7.6E1,3.24E2,3.95E2,3.51E2,1.92E2,1.78E2,9.4E1,6.8E1,8E0,1.07E2,2.17E2,2.7E2,1.25E2,1.76E2,1.75E2,8.2E1,1.1E2,7E1,1.08E2,3.2E1,6.2E1,2E0,6.6E1,5.7E1,1.6E2,1.93E2,7.7E1,9.6E1,2.9E1,1.45E2,3.1E1,8.2E1,9.3E1,7.5E1,7E0,9.7E1,1.3E1,2E0,6.8E1,2E1,8.8E1,1E0,3.1E1,5.4E1,8E0,3.3E1,3.3E1],"tree_param":{"num_deleted":"0","num_feature":"111","num_nodes":"53","size_leaf_vector":"1"}},{"base_weights":[1.7493504E2,-1.7085809E4,6.6464125E4,-3.0097422E4,-2.0614575E2,4.7494348E4,1.2823979E5,-3.9863004E4,-2.4362715E4,-6.7434863E3,1.3347139E4,3.446735E4,6.682044E4,1.1695968E5,1.0475034E4,-2.3134365E3,-3.6431043E4,-2.8410688E4,-2.0332166E4,-1.0078806E4,-1.0874154E3,5.3710815E3,1.650783E4,3.0662178E4,4.161666E4,6.785798E4,5.327007E2,4.8565933E3,6.67229E3,-4.114526E2,-1.8273246E3,3.3880377E2,-1.4300714E3,-1.1189265E3,-8.4423596E2,-6.357215E2,-4.0281882E2,7.3106125E1,-2.2629935E2,3.5740627E1,3.9075693E2,1.6643948E3,7.7003265E2,1.5459994E3,1.0913851E2,2.1208955E3,7.4622156E2,2.7007253E3,3.7027605E3],"categories":[],"categories_nodes":[],"categories_segments":[],"categories_sizes":[],"default_left":[0,0,0,0,0,0,0,0,0,0,0,0,0,0,0,0,0,0,0,0,0,0,0,0,0,0,0,0,0,0,0,0,0,0,0,0,0,0,0,0,0,0,0,0,0,0,0,0,0],"id":4,"left_children":[1,3,5,7,9,11,13,15,17,19,21,23,25,27,-1,-1,29,31,33,35,37,39,41,43,45,47,-1,-1,-1,-1,-1,-1,-1,-1,-1,-1,-1,-1,-1,-1,-1,-1,-1,-1,-1,-1,-1,-1,-1],"loss_changes":[1.8055401E12,2.7497254E11,3.7593927E11,3.862279E10,4.846693E10,6.0888908E10,4.5160727E10,4.0302674E9,6.7317105E9,6.95015E9,4.3986903E9,2.8589916E9,5.1045007E9,9.59316E9,0E0,0E0,2.6578125E8,1.6770662E9,1.2306104E9,1.134209E9,1.2164317E9,5.861823E8,1.8468045E9,6.887506E8,4.3628134E8,4.40746E9,0E0,0E0,0E0,0E0,0E0,0E0,0E0,0E0,0E0,0E0,0E0,0E0,0E0,0E0,0E0,0E0,0E0,0E0,0E0,0E0,0E0,0E0,0E0],"parents":[2147483647,0,0,1,1,2,2,3,3,4,4,5,5,6,6,7,7,8,8,9,9,10,10,11,11,12,12,13,13,16,16,17,17,18,18,19,19,20,20,21,21,22,22,23,23,24,24,25,25],"right_children":[2,4,6,8,10,12,14,16,18,20,22,24,26,28,-1,-1,30,32,34,36,38,40,42,44,46,48,-1,-1,-1,-1,-1,-1,-1,-1,-1,-1,-1,-1,-1,-1,-1,-1,-1,-1,-1,-1,-1,-1,-1],"split_conditions":[1.0056735E5,5.277925E4,1.678328E5,3.363874E4,7.529979E4,1.50857E5,3.24969E5,2.486838E4,4.20971E4,6.49064E4,8.167515E4,1.1762056E5,2.7945E4,2.4784564E5,1.0475034E4,-2.3134365E3,7.041E3,1.893E3,5.818422E4,6.8128E4,2.1522E4,8.814337E4,9.49E2,4.7875E4,3.5384E4,1.6430044E5,5.327007E2,4.8565933E3,6.67229E3,-4.114526E2,-1.8273246E3,3.3880377E2,-1.4300714E3,-1.1189265E3,-8.4423596E2,-6.357215E2,-4.0281882E2,7.3106125E1,-2.2629935E2,3.5740627E1,3.9075693E2,1.6643948E3,7.7003265E2,1.5459994E3,1.0913851E2,2.1208955E3,7.4622156E2,2.7007253E3,3.7027605E3],"split_indices":[3,3,3,3,3,4,4,3,3,3,3,3,1,4,0,0,1,1,4,4,1,4,1,1,1,4,0,0,0,0,0,0,0,0,0,0,0,0,0,0,0,0,0,0,0,0,0,0,0],"split_type":[0,0,0,0,0,0,0,0,0,0,0,0,0,0,0,0,0,0,0,0,0,0,0,0,0,0,0,0,0,0,0,0,0,0,0,0,0,0,0,0,0,0,0,0,0,0,0,0,0],"sum_hessian":[1.576E3,1.251E3,3.25E2,7.06E2,5.45E2,2.5E2,7.5E1,2.59E2,4.47E2,3.68E2,1.77E2,1.51E2,9.9E1,6.8E1,7E0,8.6E1,1.73E2,2.2E2,2.27E2,2.31E2,1.37E2,5.1E1,1.26E2,1.02E2,4.9E1,9.7E1,2E0,3.4E1,3.4E1,1E0,1.72E2,1E0,2.19E2,1.39E2,8.8E1,9.8E1,1.33E2,7.9E1,5.8E1,1.8E1,3.3E1,6E0,1.2E2,1.01E2,1E0,4.7E1,2E0,3.3E1,6.4E1],"tree_param":{"num_deleted":"0","num_feature":"111","num_nodes":"49","size_leaf_vector":"1"}},{"base_weights":[5.743297E1,-1.5685214E4,6.543012E4,-2.7932436E4,1.5087078E3,4.5927047E4,1.23342875E5,-3.643575E4,-2.1333121E4,-4.7328027E3,1.5097305E4,3.5078805E4,6.689565E4,1.0920673E5,1.035672E4,-4.1183508E4,-3.1753717E4,-2.4500209E4,-1.6182046E4,-8.847078E3,-1.4206664E2,1.1641201E4,2.0394803E4,2.803167E4,4.0264707E4,8.4680016E4,5.973322E4,3.424567E2,1.1063223E5,-2.2364539E3,-1.8806133E3,-1.5923885E3,-4.0116626E2,-1.2318267E3,2.701856E2,-8.265975E2,9.735061E1,-4.090193E2,-8.7244696E2,-1.4246623E2,1.2680202E2,5.324732E2,1.6886122E3,-5.9548755E2,1.0542826E3,1.4630223E3,7.5023413E2,2.0615857E3,1.0169062E3,3.2889695E3,5.5192056E3,1.440499E3,3.0437678E3,4.7076753E3,6.2378584E3],"categories":[],"categories_nodes":[],"categories_segments":[],"categories_sizes":[],"default_left":[0,0,0,0,0,0,0,0,0,0,0,0,0,0,0,0,0,0,0,0,0,0,0,0,0,0,0,0,0,0,0,0,0,0,0,0,0,0,0,0,0,0,0,0,0,0,0,0,0,0,0,0,0,0,0],"id":5,"left_children":[1,3,5,7,9,11,13,15,17,19,21,23,25,27,-1,29,31,33,35,37,39,41,43,45,47,49,51,-1,53,-1,-1,-1,-1,-1,-1,-1,-1,-1,-1,-1,-1,-1,-1,-1,-1,-1,-1,-1,-1,-1,-1,-1,-1,-1,-1],"loss_changes":[1.6332409E12,2.6937108E11,3.4221392E11,4.1141404E10,4.527698E10,5.042697E10,6.858526E10,5.9167867E9,6.504317E9,6.911587E9,2.838438E9,4.535894E9,4.877353E9,9.164227E9,0E0,3.1822643E8,1.1942298E8,1.1930337E9,1.0725089E9,9.640735E8,1.2687828E9,1.9229491E9,1.7017713E9,6.6545254E8,8.37845E8,2.4554373E9,3.2995738E8,0E0,3.8486016E9,0E0,0E0,0E0,0E0,0E0,0E0,0E0,0E0,0E0,0E0,0E0,0E0,0E0,0E0,0E0,0E0,0E0,0E0,0E0,0E0,0E0,0E0,0E0,0E0,0E0,0E0],"parents":[2147483647,0,0,1,1,2,2,3,3,4,4,5,5,6,6,7,7,8,8,9,9,10,10,11,11,12,12,13,13,15,15,16,16,17,17,18,18,19,19,20,20,21,21,22,22,23,23,24,24,25,25,26,26,28,28],"right_children":[2,4,6,8,10,12,14,16,18,20,22,24,26,28,-1,30,32,34,36,38,40,42,44,46,48,50,52,-1,54,-1,-1,-1,-1,-1,-1,-1,-1,-1,-1,-1,-1,-1,-1,-1,-1,-1,-1,-1,-1,-1,-1,-1,-1,-1,-1],"split_conditions":[1.0147382E5,5.493909E4,2.0657462E5,4.259003E4,7.92937E4,1.58235E5,3.24969E5,2.872144E4,4.670474E4,6.49064E4,1.079485E5,1.1416285E5,1.893E3,2.012E3,1.035672E4,2.349698E4,4.35586E3,6.848245E4,7.924232E4,5.7231E4,7.068112E4,1E0,2.013E3,5.01784E3,2.9951E4,1E0,1.2400436E5,3.424567E2,2.4784564E5,-2.2364539E3,-1.8806133E3,-1.5923885E3,-4.0116626E2,-1.2318267E3,2.701856E2,-8.265975E2,9.735061E1,-4.090193E2,-8.7244696E2,-1.4246623E2,1.2680202E2,5.324732E2,1.6886122E3,-5.9548755E2,1.0542826E3,1.4630223E3,7.5023413E2,2.0615857E3,1.0169062E3,3.2889695E3,5.5192056E3,1.440499E3,3.0437678E3,4.7076753E3,6.2378584E3],"split_indices":[3,3,4,4,3,4,4,3,3,3,4,3,1,0,0,3,6,4,4,1,3,12,0,6,1,33,3,0,4,0,0,0,0,0,0,0,0,0,0,0,0,0,0,0,0,0,0,0,0,0,0,0,0,0,0],"split_type":[0,0,0,0,0,0,0,0,0,0,0,0,0,0,0,0,0,0,0,0,0,0,0,0,0,0,0,0,0,0,0,0,0,0,0,0,0,0,0,0,0,0,0,0,0,0,0,0,0,0,0,0,0,0,0],"sum_hessian":[1.585E3,1.278E3,3.07E2,7.46E2,5.32E2,2.31E2,7.6E1,3.24E2,4.22E2,3.65E2,1.67E2,1.54E2,7.7E1,6.7E1,9E0,1.57E2,1.67E2,2.59E2,1.63E2,1.92E2,1.73E2,1.03E2,6.4E1,6.8E1,8.6E1,1.9E1,5.8E1,1E0,6.6E1,7.3E1,8.4E1,1.66E2,1E0,2.58E2,1E0,1.6E2,3E0,1.8E2,1.2E1,8.6E1,8.7E1,1E2,3E0,1E0,6.3E1,6.1E1,7E0,8.1E1,5E0,1.3E1,6E0,3E0,5.5E1,3.4E1,3.2E1],"tree_param":{"num_deleted":"0","num_feature":"111","num_nodes":"55","size_leaf_vector":"1"}},{"base_weights":[-1.1068663E2,-1.5841794E4,5.8845867E4,-2.7862879E4,-1.6322034E3,4.222662E4,1.1448954E5,-3.43332E4,-2.1481098E4,-7.9491494E3,8.615047E3,3.1226287E4,6.046441E4,1.0491869E5,9.136347E3,-1.9772106E3,-3.073222E4,-2.4006082E4,-1.803242E4,-1.1032325E4,-3.8996802E3,2.3076208E3,1.333977E4,2.6234201E4,3.702154E4,6.1429484E4,5.035288E2,3.98583E3,5.6789194E3,-1.5414052E3,-2.8649518E2,3.6112936E2,-1.2102142E3,-9.1988007E2,-9.759297E0,-6.2559515E2,-4.217089E2,-2.110937E2,6.916033E2,1.484149E2,-3.2110324E2,5.242222E2,9.091457E2,1.3243368E3,8.765414E1,1.1030233E3,1.88986E3,1.8669935E3,3.2086104E3],"categories":[],"categories_nodes":[],"categories_segments":[],"categories_sizes":[],"default_left":[0,0,0,0,0,0,0,0,0,0,0,0,0,0,0,0,0,0,0,0,0,0,0,0,0,0,0,0,0,0,0,0,0,0,0,0,0,0,0,0,0,0,0,0,0,0,0,0,0],"id":6,"left_children":[1,3,5,7,9,11,13,15,17,19,21,23,25,27,-1,-1,29,31,33,35,37,39,41,43,45,47,-1,-1,-1,-1,-1,-1,-1,-1,-1,-1,-1,-1,-1,-1,-1,-1,-1,-1,-1,-1,-1,-1,-1],"loss_changes":[1.4663061E12,2.131313E11,3.0310924E11,2.7175944E10,3.7159535E10,4.987234E10,3.0463295E10,5.0521375E9,2.5539052E9,4.3892326E9,6.4956017E9,3.744432E9,4.0501903E9,6.004605E9,0E0,0E0,3.076096E8,1.381802E9,9.669632E8,6.6714624E8,9.439204E8,5.6697536E8,1.5379538E9,5.1615744E8,1.3312E7,3.8144573E9,0E0,0E0,0E0,0E0,0E0,0E0,0E0,0E0,0E0,0E0,0E0,0E0,0E0,0E0,0E0,0E0,0E0,0E0,0E0,0E0,0E0,0E0,0E0],"parents":[2147483647,0,0,1,1,2,2,3,3,4,4,5,5,6,6,7,7,8,8,9,9,10,10,11,11,12,12,13,13,16,16,17,17,18,18,19,19,20,20,21,21,22,22,23,23,24,24,25,25],"right_children":[2,4,6,8,10,12,14,16,18,20,22,24,26,28,-1,-1,30,32,34,36,38,40,42,44,46,48,-1,-1,-1,-1,-1,-1,-1,-1,-1,-1,-1,-1,-1,-1,-1,-1,-1,-1,-1,-1,-1,-1,-1],"split_conditions":[9.858743E4,5.092846E4,1.678328E5,3.650219E4,7.068112E4,1.50857E5,3.24969E5,2.743662E4,4.41457E4,6.121521E4,7.998019E4,1.1416285E5,2.7945E4,2.2863933E5,9.136347E3,-1.9772106E3,5.474375E4,1.893E3,7.1884E4,6.883567E4,1.637837E4,4.6764E4,1.06563E5,4.7875E4,-5.65214E3,1.2607021E5,5.035288E2,3.98583E3,5.6789194E3,-1.5414052E3,-2.8649518E2,3.6112936E2,-1.2102142E3,-9.1988007E2,-9.759297E0,-6.2559515E2,-4.217089E2,-2.110937E2,6.916033E2,1.484149E2,-3.2110324E2,5.242222E2,9.091457E2,1.3243368E3,8.765414E1,1.1030233E3,1.88986E3,1.8669935E3,3.2086104E3],"split_indices":[3,3,3,3,3,4,4,3,3,3,3,3,1,4,0,0,4,1,4,4,6,1,4,1,6,3,0,0,0,0,0,0,0,0,0,0,0,0,0,0,0,0,0,0,0,0,0,0,0],"split_type":[0,0,0,0,0,0,0,0,0,0,0,0,0,0,0,0,0,0,0,0,0,0,0,0,0,0,0,0,0,0,0,0,0,0,0,0,0,0,0,0,0,0,0,0,0,0,0,0,0],"sum_hessian":[1.579E3,1.247E3,3.32E2,6.75E2,5.72E2,2.57E2,7.5E1,3.33E2,3.42E2,3.54E2,2.18E2,1.62E2,9.5E1,6.8E1,7E0,1.32E2,2.01E2,1.94E2,1.48E2,2E2,1.54E2,9.4E1,1.24E2,9E1,7.2E1,9.3E1,2E0,2E1,4.8E1,2E2,1E0,1E0,1.93E2,1.45E2,3E0,1.25E2,7.5E1,1.52E2,2E0,8.8E1,6E0,8E1,4.4E1,8.9E1,1E0,5E0,6.7E1,1.1E1,8.2E1],"tree_param":{"num_deleted":"0","num_feature":"111","num_nodes":"49","size_leaf_vector":"1"}},{"base_weights":[3.0623594E1,-1.5695488E4,5.476096E4,-2.6671645E4,-2.346157E3,3.9419613E4,1.1643985E5,-3.4141773E4,-2.1588814E4,-7.6214116E3,7.257064E3,2.9223195E4,6.08359E4,1.0281809E5,9.867042E3,-1.9726152E3,-3.1298912E4,-2.4867773E4,-1.8363705E4,-1.0300195E4,-3.929853E3,2.248254E3,1.1326199E4,2.3109484E4,3.4684375E4,5.666502E4,8.895353E4,3.213071E2,5.2146475E3,-3.5260202E2,-1.5696957E3,3.5210104E2,-1.253275E3,-9.343859E2,1.4164505E2,-5.28045E2,1.19829E2,-2.7170053E0,-2.9053207E2,1.3802342E2,-3.505733E2,5.074006E2,1.4930203E3,9.7808704E2,1.3472426E3,1.7565641E3,7.5320526E2,2.4677012E3,3.4864927E3,3.3006953E3,7.3852515E3],"categories":[],"categories_nodes":[],"categories_segments":[],"categories_sizes":[],"default_left":[0,0,0,0,0,0,0,0,0,0,0,0,0,0,0,0,0,0,0,0,0,0,0,0,0,0,0,0,0,0,0,0,0,0,0,0,0,0,0,0,0,0,0,0,0,0,0,0,0,0,0],"id":7,"left_children":[1,3,5,7,9,11,13,15,17,19,21,23,25,27,-1,-1,29,31,33,35,37,39,41,43,45,47,49,-1,-1,-1,-1,-1,-1,-1,-1,-1,-1,-1,-1,-1,-1,-1,-1,-1,-1,-1,-1,-1,-1,-1,-1],"loss_changes":[1.3650618E12,1.804554E11,3.3037792E11,2.4930222E10,2.8272615E10,6.0457484E10,5.6850645E10,2.871591E9,3.8262047E9,3.5195187E9,4.0100762E9,5.7091195E9,5.6314757E9,8.1438966E9,0E0,0E0,1.978368E8,1.4257766E9,1.4814904E9,7.13814E8,1.1149033E9,4.4622115E8,2.0771809E9,7.655629E8,3.5637658E8,4.3909284E9,3.726762E9,0E0,0E0,0E0,0E0,0E0,0E0,0E0,0E0,0E0,0E0,0E0,0E0,0E0,0E0,0E0,0E0,0E0,0E0,0E0,0E0,0E0,0E0,0E0,0E0],"parents":[2147483647,0,0,1,1,2,2,3,3,4,4,5,5,6,6,7,7,8,8,9,9,10,10,11,11,12,12,13,13,16,16,17,17,18,18,19,19,20,20,21,21,22,22,23,23,24,24,25,25,26,26],"right_children":[2,4,6,8,10,12,14,16,18,20,22,24,26,28,-1,-1,30,32,34,36,38,40,42,44,46,48,50,-1,-1,-1,-1,-1,-1,-1,-1,-1,-1,-1,-1,-1,-1,-1,-1,-1,-1,-1,-1,-1,-1,-1,-1],"split_conditions":[9.48452E4,5.092846E4,2.0970322E5,3.363874E4,7.068112E4,1.3128527E5,3.24969E5,2.486838E4,4.128842E4,6.121521E4,7.998019E4,1.1132531E5,1E0,2.012E3,9.867042E3,-1.9726152E3,7.041E3,1.893E3,7.85868E4,8.108273E4,1.6998E4,5.1375E4,1E0,1.2282528E5,3.5384E4,1.8592967E5,2.025E3,3.213071E2,5.2146475E3,-3.5260202E2,-1.5696957E3,3.5210104E2,-1.253275E3,-9.343859E2,1.4164505E2,-5.28045E2,1.19829E2,-2.7170053E0,-2.9053207E2,1.3802342E2,-3.505733E2,5.074006E2,1.4930203E3,9.7808704E2,1.3472426E3,1.7565641E3,7.5320526E2,2.4677012E3,3.4864927E3,3.3006953E3,7.3852515E3],"split_indices":[3,3,4,3,3,3,4,3,3,3,3,3,46,0,0,0,1,1,4,4,1,1,12,4,1,4,0,0,0,0,0,0,0,0,0,0,0,0,0,0,0,0,0,0,0,0,0,0,0,0,0],"split_type":[0,0,0,0,0,0,0,0,0,0,0,0,0,0,0,0,0,0,0,0,0,0,0,0,0,0,0,0,0,0,0,0,0,0,0,0,0,0,0,0,0,0,0,0,0,0,0,0,0,0,0],"sum_hessian":[1.584E3,1.231E3,3.53E2,6.75E2,5.56E2,2.84E2,6.9E1,2.71E2,4.04E2,3.59E2,1.97E2,1.94E2,9E1,6.1E1,8E0,9E1,1.81E2,1.97E2,2.07E2,2.07E2,1.52E2,8.9E1,1.08E2,9.4E1,1E2,8.1E1,9E0,1E0,6E1,1E0,1.8E2,1E0,1.96E2,2.04E2,3E0,2.03E2,4E0,5E1,1.02E2,8.5E1,4E0,1.03E2,5E0,5.2E1,4.2E1,9.7E1,3E0,5.5E1,2.6E1,8E0,1E0],"tree_param":{"num_deleted":"0","num_feature":"111","num_nodes":"51","size_leaf_vector":"1"}},{"base_weights":[-2.0551189E2,-1.4342456E4,5.0720668E4,-2.4940152E4,-1.6149128E3,3.262469E4,9.572247E4,-3.1028014E4,-1.9245057E4,-7.3511763E3,7.3182627E3,2.4473361E4,4.1466645E4,8.781908E4,8.732309E3,-3.5088293E4,-2.704794E4,-1.9532486E4,4.7814956E3,-9.869939E3,-3.6889536E3,2.6004575E3,1.1419533E4,2.0009436E4,2.8380443E4,3.7181215E4,2.5910906E3,7.263487E4,5.103202E3,-1.9632928E3,-1.6282936E3,-1.3574644E3,-2.4800102E2,-1.089091E3,-8.2905975E2,-1.4740648E2,3.7254797E2,-5.681766E2,-3.536158E2,3.374885E1,-2.695119E2,3.7975822E1,2.5677036E2,5.862564E2,-6.160141E2,1.1405538E3,8.100412E2,1.4511351E3,5.424313E2,1.879139E3,6.7049115E2,3.6956836E3,3.1327448E2],"categories":[],"categories_nodes":[],"categories_segments":[],"categories_sizes":[],"default_left":[0,0,0,0,0,0,0,0,0,0,0,0,0,0,0,0,0,0,0,0,0,0,0,0,0,0,0,0,0,0,0,0,0,0,0,0,0,0,0,0,0,0,0,0,0,0,0,0,0,0,0,0,0],"id":8,"left_children":[1,3,5,7,9,11,13,15,17,19,21,23,25,27,-1,29,31,33,35,37,39,41,43,45,47,49,-1,51,-1,-1,-1,-1,-1,-1,-1,-1,-1,-1,-1,-1,-1,-1,-1,-1,-1,-1,-1,-1,-1,-1,-1,-1,-1],"loss_changes":[1.1497526E12,1.6856303E11,2.794571E11,2.3048421E10,2.921109E10,1.6931504E10,4.6415413E10,4.351492E9,2.5450086E9,3.1644099E9,4.2851287E9,1.7343201E9,3.3095844E9,1.248605E10,0E0,3.9672218E8,2.4589107E8,1.9689062E9,1.2513663E8,7.762268E8,1.06531174E9,4.8610182E8,1.0077737E9,3.2401203E8,4.5081805E8,3.2649216E8,0E0,3.6108042E9,0E0,0E0,0E0,0E0,0E0,0E0,0E0,0E0,0E0,0E0,0E0,0E0,0E0,0E0,0E0,0E0,0E0,0E0,0E0,0E0,0E0,0E0,0E0,0E0,0E0],"parents":[2147483647,0,0,1,1,2,2,3,3,4,4,5,5,6,6,7,7,8,8,9,9,10,10,11,11,12,12,13,13,15,15,16,16,17,17,18,18,19,19,20,20,21,21,22,22,23,23,24,24,25,25,27,27],"right_children":[2,4,6,8,10,12,14,16,18,20,22,24,26,28,-1,30,32,34,36,38,40,42,44,46,48,50,-1,52,-1,-1,-1,-1,-1,-1,-1,-1,-1,-1,-1,-1,-1,-1,-1,-1,-1,-1,-1,-1,-1,-1,-1,-1,-1],"split_conditions":[9.685118E4,5.092846E4,1.8592967E5,3.650219E4,7.068112E4,1.1762056E5,3.24969E5,2.915365E4,7.85868E4,6.132267E4,7.998019E4,1.2659859E5,1.4479939E5,1.9467764E5,8.732309E3,2.170725E4,5.007898E4,4.41457E4,1.5166E4,6.883567E4,1.5919E4,8.814337E4,5.9459E4,1.3723E4,4.4497E4,3.5384E4,2.5910906E3,2.6598E4,5.103202E3,-1.9632928E3,-1.6282936E3,-1.3574644E3,-2.4800102E2,-1.089091E3,-8.2905975E2,-1.4740648E2,3.7254797E2,-5.681766E2,-3.536158E2,3.374885E1,-2.695119E2,3.7975822E1,2.5677036E2,5.862564E2,-6.160141E2,1.1405538E3,8.100412E2,1.4511351E3,5.424313E2,1.879139E3,6.7049115E2,3.6956836E3,3.1327448E2],"split_indices":[3,3,4,3,3,3,4,3,4,3,3,4,3,3,0,3,4,3,1,4,1,4,1,1,1,1,0,1,0,0,0,0,0,0,0,0,0,0,0,0,0,0,0,0,0,0,0,0,0,0,0,0,0],"split_type":[0,0,0,0,0,0,0,0,0,0,0,0,0,0,0,0,0,0,0,0,0,0,0,0,0,0,0,0,0,0,0,0,0,0,0,0,0,0,0,0,0,0,0,0,0,0,0,0,0,0,0,0,0],"sum_hessian":[1.595E3,1.249E3,3.46E2,6.81E2,5.68E2,2.48E2,9.8E1,3.27E2,3.54E2,3.46E2,2.22E2,1.31E2,1.17E2,9.1E1,7E0,1.58E2,1.69E2,3.5E2,4E0,2.04E2,1.42E2,1.04E2,1.18E2,6.4E1,6.7E1,8.6E1,3.1E1,4.7E1,4.4E1,5.4E1,1.04E2,1.68E2,1E0,1.95E2,1.55E2,1E0,3E0,1.31E2,7.3E1,4E1,1.02E2,6.1E1,4.3E1,1.17E2,1E0,3.4E1,3E1,6.4E1,3E0,8.4E1,2E0,4.6E1,1E0],"tree_param":{"num_deleted":"0","num_feature":"111","num_nodes":"53","size_leaf_vector":"1"}},{"base_weights":[5.997727E2,-1.39498545E4,4.9486473E4,-2.500362E4,-3.1964429E3,3.520965E4,1.0000361E5,-3.1691531E4,-2.0942031E4,-8.414014E3,6.9309277E3,2.5781428E4,5.220548E4,8.838986E4,7.6083257E3,-1.8138219E3,-2.9281072E4,-2.3381941E4,-1.8226182E4,-1.1311888E4,-5.446141E3,2.7811196E3,1.1467905E4,2.2487611E4,3.3098062E4,4.8429195E4,7.835639E4,3.7562427E3,4.952758E3,-3.0985034E2,-1.4696454E3,3.7052585E2,-1.1789943E3,-7.7422284E2,-1.00446545E3,-5.836955E2,1.3204045E2,-2.28971E2,-6.7993134E2,7.172211E1,2.7734247E2,5.12966E2,1.6189576E3,9.106168E2,1.2689989E3,1.6965461E3,6.998167E2,2.4606206E3,4.6559186E2,2.8788728E3,7.153642E3],"categories":[],"categories_nodes":[],"categories_segments":[],"categories_sizes":[],"default_left":[0,0,0,0,0,0,0,0,0,0,0,0,0,0,0,0,0,0,0,0,0,0,0,0,0,0,0,0,0,0,0,0,0,0,0,0,0,0,0,0,0,0,0,0,0,0,0,0,0,0,0],"id":9,"left_children":[1,3,5,7,9,11,13,15,17,19,21,23,25,27,-1,-1,29,31,33,35,37,39,41,43,45,47,49,-1,-1,-1,-1,-1,-1,-1,-1,-1,-1,-1,-1,-1,-1,-1,-1,-1,-1,-1,-1,-1,-1,-1,-1],"loss_changes":[1.1195389E12,1.4410414E11,2.5684076E11,1.5580135E10,3.2607928E10,4.4002116E10,3.440876E10,1.4133658E9,2.0587479E9,3.438807E9,3.9218985E9,3.6900372E9,6.080561E9,2.0373176E9,0E0,0E0,2.1024768E8,1.3572014E9,6.186189E8,1.0663219E9,1.3721093E9,4.0546726E8,2.195111E9,1.145303E9,4.00085E8,2.2991012E9,6.5543373E9,0E0,0E0,0E0,0E0,0E0,0E0,0E0,0E0,0E0,0E0,0E0,0E0,0E0,0E0,0E0,0E0,0E0,0E0,0E0,0E0,0E0,0E0,0E0,0E0],"parents":[2147483647,0,0,1,1,2,2,3,3,4,4,5,5,6,6,7,7,8,8,9,9,10,10,11,11,12,12,13,13,16,16,17,17,18,18,19,19,20,20,21,21,22,22,23,23,24,24,25,25,26,26],"right_children":[2,4,6,8,10,12,14,16,18,20,22,24,26,28,-1,-1,30,32,34,36,38,40,42,44,46,48,50,-1,-1,-1,-1,-1,-1,-1,-1,-1,-1,-1,-1,-1,-1,-1,-1,-1,-1,-1,-1,-1,-1,-1,-1],"split_conditions":[9.48452E4,4.81819E4,1.678328E5,3.273624E4,6.988821E4,1.50857E5,2.920158E5,2.349698E4,3.998754E4,5.774188E4,8.167515E4,1.1762056E5,1E0,2.4784564E5,7.6083257E3,-1.8138219E3,7.041E3,1.893E3,2.9951E4,8.175473E4,4.6664E4,9.206056E4,1E0,1.2282528E5,2.6212E4,2.7945E4,2.025E3,3.7562427E3,4.952758E3,-3.0985034E2,-1.4696454E3,3.7052585E2,-1.1789943E3,-7.7422284E2,-1.00446545E3,-5.836955E2,1.3204045E2,-2.28971E2,-6.7993134E2,7.172211E1,2.7734247E2,5.12966E2,1.6189576E3,9.106168E2,1.2689989E3,1.6965461E3,6.998167E2,2.4606206E3,4.6559186E2,2.8788728E3,7.153642E3],"split_indices":[3,3,3,3,3,4,4,3,3,3,3,3,46,4,0,0,1,1,1,4,1,4,12,4,1,1,0,0,0,0,0,0,0,0,0,0,0,0,0,0,0,0,0,0,0,0,0,0,0,0,0],"split_type":[0,0,0,0,0,0,0,0,0,0,0,0,0,0,0,0,0,0,0,0,0,0,0,0,0,0,0,0,0,0,0,0,0,0,0,0,0,0,0,0,0,0,0,0,0,0,0,0,0,0,0],"sum_hessian":[1.572E3,1.212E3,3.6E2,5.97E2,6.15E2,2.82E2,7.8E1,2.23E2,3.74E2,4.06E2,2.09E2,1.83E2,9.9E1,6.6E1,1.2E1,7.2E1,1.51E2,1.93E2,1.81E2,2.04E2,2.02E2,1.1E2,9.9E1,1.29E2,5.4E1,8.9E1,1E1,3.3E1,3.3E1,1E0,1.5E2,1E0,1.92E2,7.7E1,1.04E2,1.99E2,5E0,1.84E2,1.8E1,7.5E1,3.5E1,9.5E1,4E0,5.5E1,7.4E1,5.1E1,3E0,8.7E1,2E0,9E0,1E0],"tree_param":{"num_deleted":"0","num_feature":"111","num_nodes":"51","size_leaf_vector":"1"}},{"base_weights":[2.1820348E2,-1.270975E4,4.8100277E4,-2.273835E4,-1.0108511E3,3.3356895E4,9.738429E4,-2.7582602E4,-1.6832846E4,-6.616351E3,7.522564E3,2.493574E4,4.7834164E4,8.659082E4,8.525648E3,-3.1469072E4,-2.3694145E4,-1.8821129E4,-1.4095751E4,-8.769928E3,-3.7108318E3,3.294996E3,1.2262893E4,2.1889533E4,3.0388143E4,4.1591695E4,5.6267625E4,3.3189082E3,4.667416E3,-1.7598021E3,-1.4609556E3,-1.1913918E3,-3.7090616E2,-8.772708E2,-1.0526776E3,-7.1411115E2,2.6762045E2,-3.8316956E2,-6.0802057E2,9.7690234E2,-1.9970949E2,1.3029315E2,5.0686832E2,1.6951819E3,5.557795E2,9.291763E2,1.227218E3,1.5532966E3,6.735734E2,1.913873E3,3.2243918E3,4.5007202E2,2.9321743E3],"categories":[],"categories_nodes":[],"categories_segments":[],"categories_sizes":[],"default_left":[0,0,0,0,0,0,0,0,0,0,0,0,0,0,0,0,0,0,0,0,0,0,0,0,0,0,0,0,0,0,0,0,0,0,0,0,0,0,0,0,0,0,0,0,0,0,0,0,0,0,0,0,0],"id":10,"left_children":[1,3,5,7,9,11,13,15,17,19,21,23,25,27,-1,29,31,33,35,37,39,41,43,45,47,49,51,-1,-1,-1,-1,-1,-1,-1,-1,-1,-1,-1,-1,-1,-1,-1,-1,-1,-1,-1,-1,-1,-1,-1,-1,-1,-1],"loss_changes":[9.928959E11,1.4815666E11,2.4452661E11,1.898899E10,2.7984865E10,3.0992892E10,4.6801486E10,4.8761405E9,1.4163149E9,2.1762652E9,4.608886E9,2.1417574E9,2.713682E9,3.3648148E9,0E0,5.0613453E8,2.3666688E8,1.3183795E8,5.623992E8,6.646497E8,1.0793752E9,5.582797E8,2.3294392E9,5.2688486E8,2.4651366E8,2.008662E9,3.7394432E9,0E0,0E0,0E0,0E0,0E0,0E0,0E0,0E0,0E0,0E0,0E0,0E0,0E0,0E0,0E0,0E0,0E0,0E0,0E0,0E0,0E0,0E0,0E0,0E0,0E0,0E0],"parents":[2147483647,0,0,1,1,2,2,3,3,4,4,5,5,6,6,7,7,8,8,9,9,10,10,11,11,12,12,13,13,15,15,16,16,17,17,18,18,19,19,20,20,21,21,22,22,23,23,24,24,25,25,26,26],"right_children":[2,4,6,8,10,12,14,16,18,20,22,24,26,28,-1,30,32,34,36,38,40,42,44,46,48,50,52,-1,-1,-1,-1,-1,-1,-1,-1,-1,-1,-1,-1,-1,-1,-1,-1,-1,-1,-1,-1,-1,-1,-1,-1,-1,-1],"split_conditions":[9.858743E4,5.092846E4,1.678328E5,3.81628E4,7.068112E4,1.50857E5,2.47E5,3.054757E4,4.513307E4,6.132267E4,9.7177E4,1.1762056E5,1.77308E5,2.2863933E5,8.525648E3,2.223648E4,5.237799E4,4.2995E4,1.759E5,3.5384E4,1.996E3,8.741929E4,9.49E2,1.2659859E5,3.5384E4,3.81057E3,2.012E3,3.3189082E3,4.667416E3,-1.7598021E3,-1.4609556E3,-1.1913918E3,-3.7090616E2,-8.772708E2,-1.0526776E3,-7.1411115E2,2.6762045E2,-3.8316956E2,-6.0802057E2,9.7690234E2,-1.9970949E2,1.3029315E2,5.0686832E2,1.6951819E3,5.557795E2,9.291763E2,1.227218E3,1.5532966E3,6.735734E2,1.913873E3,3.2243918E3,4.5007202E2,2.9321743E3],"split_indices":[3,3,3,3,3,4,2,3,3,3,4,3,4,4,0,3,4,1,2,1,0,3,1,4,1,6,0,0,0,0,0,0,0,0,0,0,0,0,0,0,0,0,0,0,0,0,0,0,0,0,0,0,0],"split_type":[0,0,0,0,0,0,0,0,0,0,0,0,0,0,0,0,0,0,0,0,0,0,0,0,0,0,0,0,0,0,0,0,0,0,0,0,0,0,0,0,0,0,0,0,0,0,0,0,0,0,0,0,0],"sum_hessian":[1.602E3,1.262E3,3.4E2,6.79E2,5.83E2,2.63E2,7.7E1,3.71E2,3.08E2,3.52E2,2.31E2,1.68E2,9.5E1,6.9E1,8E0,1.82E2,1.89E2,1.75E2,1.33E2,2.01E2,1.51E2,1.23E2,1.08E2,1.11E2,5.7E1,5.8E1,3.7E1,2E1,4.9E1,6.3E1,1.19E2,1.87E2,2E0,1.17E2,5.8E1,1.32E2,1E0,1.54E2,4.7E1,1E0,1.5E2,1.13E2,1E1,4E0,1.04E2,5.3E1,5.8E1,5.4E1,3E0,5.3E1,5E0,2E0,3.5E1],"tree_param":{"num_deleted":"0","num_feature":"111","num_nodes":"53","size_leaf_vector":"1"}},{"base_weights":[1.19444374E2,-1.1913514E4,4.6856848E4,-2.1669447E4,-8.4882837E2,3.2691967E4,9.339445E4,-2.7414076E4,-1.729385E4,-6.0201113E3,7.2211157E3,2.4237838E4,4.6976082E4,8.219337E4,1.5910227E5,-1.6288063E3,-2.5404479E4,-1.93785E4,-1.3796484E4,-8.334027E3,-2.8666326E3,2.9895427E3,1.1216196E4,2.009457E4,2.7984465E4,4.3435965E4,8.426384E4,3.3385007E3,4.680993E3,2.2240881E3,8.344772E3,-1.1730562E3,-1.3692645E3,3.9104752E2,-9.7625146E2,-7.0679474E2,3.660133E2,-4.233501E2,4.864395E2,9.524799E2,-1.5654645E2,1.18111244E2,5.057736E2,1.6273748E3,5.100026E2,1.0175791E3,-5.2303123E0,1.4409609E3,8.33029E2,2.2075437E3,4.3506967E2,2.6064053E3,6.926954E3],"categories":[],"categories_nodes":[],"categories_segments":[],"categories_sizes":[],"default_left":[0,0,0,0,0,0,0,0,0,0,0,0,0,0,0,0,0,0,0,0,0,0,0,0,0,0,0,0,0,0,0,0,0,0,0,0,0,0,0,0,0,0,0,0,0,0,0,0,0,0,0,0,0],"id":11,"left_children":[1,3,5,7,9,11,13,15,17,19,21,23,25,27,29,-1,31,33,35,37,39,41,43,45,47,49,51,-1,-1,-1,-1,-1,-1,-1,-1,-1,-1,-1,-1,-1,-1,-1,-1,-1,-1,-1,-1,-1,-1,-1,-1,-1,-1],"loss_changes":[9.009433E11,1.3750523E11,2.1316423E11,1.6543121E10,2.4999186E10,2.9413605E10,4.285871E10,2.1911306E9,2.5541755E9,2.6394706E9,3.922348E9,1.9369001E9,8.616215E9,5.5567647E9,1.5087534E9,0E0,1.8127258E8,1.1092296E9,1.1642307E9,5.867725E8,9.632525E8,4.901792E8,2.2690918E9,4.1744384E8,2.9496934E8,1.7762222E9,4.987425E9,0E0,0E0,0E0,0E0,0E0,0E0,0E0,0E0,0E0,0E0,0E0,0E0,0E0,0E0,0E0,0E0,0E0,0E0,0E0,0E0,0E0,0E0,0E0,0E0,0E0,0E0],"parents":[2147483647,0,0,1,1,2,2,3,3,4,4,5,5,6,6,7,7,8,8,9,9,10,10,11,11,12,12,13,13,14,14,16,16,17,17,18,18,19,19,20,20,21,21,22,22,23,23,24,24,25,25,26,26],"right_children":[2,4,6,8,10,12,14,16,18,20,22,24,26,28,30,-1,32,34,36,38,40,42,44,46,48,50,52,-1,-1,-1,-1,-1,-1,-1,-1,-1,-1,-1,-1,-1,-1,-1,-1,-1,-1,-1,-1,-1,-1,-1,-1,-1,-1],"split_conditions":[9.961011E4,5.092846E4,1.678328E5,3.45888E4,7.130472E4,1.50857E5,3.24969E5,2.390605E4,5.280606E4,6.132267E4,9.7177E4,1.299042E5,1E0,2.4784564E5,1.615E5,-1.6288063E3,5.1375E4,1.893E3,8.175473E4,2.026E3,1.996E3,8.741929E4,9.49E2,4.9052E4,2.9951E4,2.7945E4,2.025E3,3.3385007E3,4.680993E3,2.2240881E3,8.344772E3,-1.1730562E3,-1.3692645E3,3.9104752E2,-9.7625146E2,-7.0679474E2,3.660133E2,-4.233501E2,4.864395E2,9.524799E2,-1.5654645E2,1.18111244E2,5.057736E2,1.6273748E3,5.100026E2,1.0175791E3,-5.2303123E0,1.4409609E3,8.33029E2,2.2075437E3,4.3506967E2,2.6064053E3,6.926954E3],"split_indices":[3,3,3,3,3,4,4,3,4,3,4,4,46,4,2,0,1,1,4,0,0,3,1,1,1,1,0,0,0,0,0,0,0,0,0,0,0,0,0,0,0,0,0,0,0,0,0,0,0,0,0,0,0],"split_type":[0,0,0,0,0,0,0,0,0,0,0,0,0,0,0,0,0,0,0,0,0,0,0,0,0,0,0,0,0,0,0,0,0,0,0,0,0,0,0,0,0,0,0,0,0,0,0,0,0,0,0,0,0],"sum_hessian":[1.6E3,1.273E3,3.27E2,6.76E2,5.97E2,2.52E2,7.5E1,2.9E2,3.86E2,3.64E2,2.33E2,1.6E2,9.2E1,6.6E1,9E0,7.7E1,2.13E2,2.39E2,1.47E2,2.09E2,1.55E2,1.14E2,1.19E2,7.9E1,8.1E1,8.6E1,6E0,3.1E1,3.5E1,1E0,8E0,1.14E2,9.9E1,1E0,2.38E2,1.45E2,2E0,2.08E2,1E0,1E0,1.54E2,1.06E2,8E0,4E0,1.15E2,7.8E1,1E0,7.4E1,7E0,8.4E1,2E0,5E0,1E0],"tree_param":{"num_deleted":"0","num_feature":"111","num_nodes":"53","size_leaf_vector":"1"}},{"base_weights":[2.8121216E2,-1.1157113E4,4.4612535E4,-1.9717566E4,-2.0059526E2,3.0857777E4,8.9405984E4,-2.5443078E4,-1.4891138E4,-4.9468447E3,8.217387E3,2.3865365E4,4.7868203E4,7.826262E4,1.3824545E5,-2.899008E4,-2.2598361E4,-1.6457498E4,-1.0509657E4,-6.881318E3,-1.2096102E3,5.8337163E3,1.393628E4,2.0394207E4,2.9004861E4,4.335197E4,8.425671E4,9.371045E2,7.889978E4,3.4520825E3,7.605121E3,-1.5836926E3,-1.3190968E3,-9.394409E2,-1.1772982E3,-7.571088E2,-1.00194354E3,-5.560172E2,3.9214523E2,-2.9456793E2,-5.4318634E2,9.2866797E2,-7.6072556E1,1.0596652E3,2.5668893E2,-6.4008246E2,7.3089996E2,1.0692118E3,7.542887E2,1.4660697E3,1.711854E2,2.263646E3,1.0209547E3,2.663714E3,6.753781E3,2.2287231E3,4.0526602E3],"categories":[],"categories_nodes":[],"categories_segments":[],"categories_sizes":[],"default_left":[0,0,0,0,0,0,0,0,0,0,0,0,0,0,0,0,0,0,0,0,0,0,0,0,0,0,0,0,0,0,0,0,0,0,0,0,0,0,0,0,0,0,0,0,0,0,0,0,0,0,0,0,0,0,0,0,0],"id":12,"left_children":[1,3,5,7,9,11,13,15,17,19,21,23,25,27,29,31,33,35,37,39,41,43,45,47,49,51,53,-1,55,-1,-1,-1,-1,-1,-1,-1,-1,-1,-1,-1,-1,-1,-1,-1,-1,-1,-1,-1,-1,-1,-1,-1,-1,-1,-1,-1,-1],"loss_changes":[8.158761E11,1.1995701E11,2.0056179E11,1.946216E10,2.2494708E10,2.9069345E10,3.108674E10,2.6443612E9,2.5173197E9,2.5943245E9,2.6859858E9,2.6553385E9,8.3440435E9,9.863496E8,1.9649659E9,1.5832678E8,2.2903194E8,1.04852685E9,1.2752282E9,8.703498E8,7.9323E8,1.4500557E9,1.2625715E9,2.6601472E8,4.745175E8,2.0271022E9,3.8253773E9,0E0,1.117782E9,0E0,0E0,0E0,0E0,0E0,0E0,0E0,0E0,0E0,0E0,0E0,0E0,0E0,0E0,0E0,0E0,0E0,0E0,0E0,0E0,0E0,0E0,0E0,0E0,0E0,0E0,0E0,0E0],"parents":[2147483647,0,0,1,1,2,2,3,3,4,4,5,5,6,6,7,7,8,8,9,9,10,10,11,11,12,12,13,13,14,14,15,15,16,16,17,17,18,18,19,19,20,20,21,21,22,22,23,23,24,24,25,25,26,26,28,28],"right_children":[2,4,6,8,10,12,14,16,18,20,22,24,26,28,30,32,34,36,38,40,42,44,46,48,50,52,54,-1,56,-1,-1,-1,-1,-1,-1,-1,-1,-1,-1,-1,-1,-1,-1,-1,-1,-1,-1,-1,-1,-1,-1,-1,-1,-1,-1,-1,-1],"split_conditions":[9.961011E4,5.277925E4,1.678328E5,3.650219E4,8.605982E4,1.58235E5,2.920158E5,2.789373E4,5.734305E4,6.49064E4,1.06563E5,1.1762056E5,1E0,1.272E5,2.035E5,2.223648E4,3.0219E4,4.5377E4,8.175473E4,3.5384E4,1.996E3,9.49E2,2.013E3,1.3855E5,9.63802E3,1.9704E4,2.025E3,9.371045E2,2.019E3,3.4520825E3,7.605121E3,-1.5836926E3,-1.3190968E3,-9.394409E2,-1.1772982E3,-7.571088E2,-1.00194354E3,-5.560172E2,3.9214523E2,-2.9456793E2,-5.4318634E2,9.2866797E2,-7.6072556E1,1.0596652E3,2.5668893E2,-6.4008246E2,7.3089996E2,1.0692118E3,7.542887E2,1.4660697E3,1.711854E2,2.263646E3,1.0209547E3,2.663714E3,6.753781E3,2.2287231E3,4.0526602E3],"split_indices":[3,3,3,3,4,4,4,3,4,3,4,3,46,2,2,3,1,1,4,1,0,1,0,2,6,1,0,0,0,0,0,0,0,0,0,0,0,0,0,0,0,0,0,0,0,0,0,0,0,0,0,0,0,0,0,0,0],"split_type":[0,0,0,0,0,0,0,0,0,0,0,0,0,0,0,0,0,0,0,0,0,0,0,0,0,0,0,0,0,0,0,0,0,0,0,0,0,0,0,0,0,0,0,0,0,0,0,0,0,0,0,0,0,0,0,0,0],"sum_hessian":[1.607E3,1.278E3,3.29E2,7.17E2,5.61E2,2.53E2,7.6E1,3.26E2,3.91E2,3.59E2,2.02E2,1.81E2,7.2E1,6.4E1,1.2E1,1.41E2,1.85E2,2.86E2,1.05E2,2.36E2,1.23E2,1.44E2,5.8E1,1.11E2,7E1,6.6E1,6E0,1E0,6.3E1,3E0,9E0,6.4E1,7.7E1,4.1E1,1.44E2,2.13E2,7.3E1,1.02E2,3E0,1.91E2,4.5E1,1E0,1.22E2,5E0,1.39E2,1E0,5.7E1,9.1E1,2E1,6.9E1,1E0,6E1,6E0,5E0,1E0,5E0,5.8E1],"tree_param":{"num_deleted":"0","num_feature":"111","num_nodes":"57","size_leaf_vector":"1"}},{"base_weights":[3.630532E2,-1.1077718E4,4.1358105E4,-2.0406535E4,-2.1695383E3,2.9023977E4,8.368107E4,-2.6909953E4,-1.7679646E4,-6.498144E3,5.8789863E3,2.1983271E4,4.443622E4,7.346922E4,1.4577473E5,-1.4949379E3,-1.254807E3,-1.9516213E4,-1.4817295E4,-8.666287E3,-2.8661982E3,2.13465E3,9.409402E3,1.7741793E4,2.5779484E4,3.925636E4,6.39971E4,3.8653558E2,7.531617E4,2.0821838E3,7.635888E3,-1.0095903E3,-8.248304E2,-7.4907324E2,3.354977E2,-5.333903E2,-3.2913544E2,9.0545135E2,-1.5583696E2,-1.3416077E1,1.9011876E2,-6.240803E2,4.855459E2,9.0498456E2,3.947209E2,9.2345404E2,1.355104E3,1.4444623E3,2.1905945E3,5.5815605E3,2.2208796E3,3.1772869E3,4.2758833E3],"categories":[],"categories_nodes":[],"categories_segments":[],"categories_sizes":[],"default_left":[0,0,0,0,0,0,0,0,0,0,0,0,0,0,0,0,0,0,0,0,0,0,0,0,0,0,0,0,0,0,0,0,0,0,0,0,0,0,0,0,0,0,0,0,0,0,0,0,0,0,0,0,0],"id":13,"left_children":[1,3,5,7,9,11,13,15,17,19,21,23,25,27,29,-1,-1,31,33,35,37,39,41,43,45,47,49,-1,51,-1,-1,-1,-1,-1,-1,-1,-1,-1,-1,-1,-1,-1,-1,-1,-1,-1,-1,-1,-1,-1,-1,-1,-1],"loss_changes":[7.4806814E11,1.03584874E11,1.7923316E11,1.0324296E10,2.2300252E10,2.8430189E10,3.8749143E10,2.1460582E8,1.9817923E9,3.250983E9,2.9409848E9,2.5697075E9,5.998805E9,7.7954744E9,8.701051E8,0E0,0E0,1.9730432E8,7.1192986E8,1.014059E9,8.814981E8,4.4184515E8,8.802601E8,1.8135245E8,4.3730534E8,1.9930153E9,9.964032E9,0E0,2.6107904E9,0E0,0E0,0E0,0E0,0E0,0E0,0E0,0E0,0E0,0E0,0E0,0E0,0E0,0E0,0E0,0E0,0E0,0E0,0E0,0E0,0E0,0E0,0E0,0E0],"parents":[2147483647,0,0,1,1,2,2,3,3,4,4,5,5,6,6,7,7,8,8,9,9,10,10,11,11,12,12,13,13,14,14,17,17,18,18,19,19,20,20,21,21,22,22,23,23,24,24,25,25,26,26,28,28],"right_children":[2,4,6,8,10,12,14,16,18,20,22,24,26,28,30,-1,-1,32,34,36,38,40,42,44,46,48,50,-1,52,-1,-1,-1,-1,-1,-1,-1,-1,-1,-1,-1,-1,-1,-1,-1,-1,-1,-1,-1,-1,-1,-1,-1,-1],"split_conditions":[1.1448629E5,4.81819E4,2.0657462E5,3.054757E4,7.130472E4,1.3128527E5,3.24969E5,2.223648E4,4.807454E4,6.121521E4,8.167515E4,1.299042E5,1E0,2.012E3,1.615E5,-1.4949379E3,-1.254807E3,3.998754E4,7.1884E4,6.51945E4,1.996E3,8.605982E4,2.013E3,1E0,-5.65214E3,1.4479939E5,1.3684984E5,3.8653558E2,2.4784564E5,2.0821838E3,7.635888E3,-1.0095903E3,-8.248304E2,-7.4907324E2,3.354977E2,-5.333903E2,-3.2913544E2,9.0545135E2,-1.5583696E2,-1.3416077E1,1.9011876E2,-6.240803E2,4.855459E2,9.0498456E2,3.947209E2,9.2345404E2,1.355104E3,1.4444623E3,2.1905945E3,5.5815605E3,2.2208796E3,3.1772869E3,4.2758833E3],"split_indices":[5,3,5,3,3,3,5,3,5,3,3,5,33,0,2,0,0,3,5,5,0,5,0,20,6,3,3,0,5,0,0,0,0,0,0,0,0,0,0,0,0,0,0,0,0,0,0,0,0,0,0,0,0],"split_type":[0,0,0,0,0,0,0,0,0,0,0,0,0,0,0,0,0,0,0,0,0,0,0,0,0,0,0,0,0,0,0,0,0,0,0,0,0,0,0,0,0,0,0,0,0,0,0,0,0,0,0,0,0],"sum_hessian":[1.593E3,1.246E3,3.47E2,6.08E2,6.38E2,2.7E2,7.7E1,1.77E2,4.31E2,4.15E2,2.23E2,1.87E2,8.3E1,6.8E1,9E0,6.1E1,1.16E2,2.59E2,1.72E2,2.59E2,1.56E2,1.09E2,1.14E2,9.1E1,9.6E1,6.8E1,1.5E1,2E0,6.6E1,1E0,8E0,2.07E2,5.2E1,1.71E2,1E0,1.3E2,1.29E2,1E0,1.55E2,4.5E1,6.4E1,1E0,1.13E2,8.7E1,4E0,1.7E1,7.9E1,2.3E1,4.5E1,3E0,1.2E1,3.4E1,3.2E1],"tree_param":{"num_deleted":"0","num_feature":"111","num_nodes":"53","size_leaf_vector":"1"}},{"base_weights":[-5.298999E1,-1.0782132E4,3.6843484E4,-1.9227266E4,-2.140312E3,2.6912814E4,7.986995E4,-2.5238447E4,-1.6489629E4,-6.45661E3,4.5948364E3,1.9628332E4,3.9647285E4,7.331934E4,6.277191E3,-1.4246727E3,-2.3455555E4,-1.3270059E4,-1.803145E4,-8.649052E3,-4.194093E3,1.381078E3,7.9615977E3,1.6362793E4,2.351546E4,3.2566855E4,4.5162617E4,2.00601E3,7.687997E4,-9.028146E2,-1.205116E3,-6.92782E2,2.890096E2,-9.87126E2,-7.9882196E2,-4.3996426E2,4.8987115E2,-1.7440689E2,-5.2946094E2,-3.571699E2,9.3753204E1,3.510128E2,1.2103185E3,8.389352E2,7.812033E1,1.2045155E3,6.0136816E2,1.4935702E3,3.2419226E3,2.3548472E3,1.0435688E3,3.9000684E3,1.590785E3],"categories":[],"categories_nodes":[],"categories_segments":[],"categories_sizes":[],"default_left":[0,0,0,0,0,0,0,0,0,0,0,0,0,0,0,0,0,0,0,0,0,0,0,0,0,0,0,0,0,0,0,0,0,0,0,0,0,0,0,0,0,0,0,0,0,0,0,0,0,0,0,0,0],"id":14,"left_children":[1,3,5,7,9,11,13,15,17,19,21,23,25,27,-1,-1,29,31,33,35,37,39,41,43,45,47,49,-1,51,-1,-1,-1,-1,-1,-1,-1,-1,-1,-1,-1,-1,-1,-1,-1,-1,-1,-1,-1,-1,-1,-1,-1,-1],"loss_changes":[6.3259764E11,9.030972E10,1.5167187E11,9.885549E9,1.7850132E10,2.6494403E10,1.0840998E10,4.575068E8,1.9101368E9,1.818925E9,2.5857935E9,2.0143063E9,2.6685768E9,4.1263432E9,0E0,0E0,2.2249472E7,1.6864748E9,7.04299E8,6.099835E8,8.027914E8,5.355543E8,1.6192128E9,6.262784E8,2.6498253E8,2.412503E9,1.6952689E9,0E0,2.4723456E8,0E0,0E0,0E0,0E0,0E0,0E0,0E0,0E0,0E0,0E0,0E0,0E0,0E0,0E0,0E0,0E0,0E0,0E0,0E0,0E0,0E0,0E0,0E0,0E0],"parents":[2147483647,0,0,1,1,2,2,3,3,4,4,5,5,6,6,7,7,8,8,9,9,10,10,11,11,12,12,13,13,16,16,17,17,18,18,19,19,20,20,21,21,22,22,23,23,24,24,25,25,26,26,28,28],"right_children":[2,4,6,8,10,12,14,16,18,20,22,24,26,28,-1,-1,30,32,34,36,38,40,42,44,46,48,50,-1,52,-1,-1,-1,-1,-1,-1,-1,-1,-1,-1,-1,-1,-1,-1,-1,-1,-1,-1,-1,-1,-1,-1,-1,-1],"split_conditions":[9.48452E4,4.81819E4,1.7616706E5,3.126678E4,6.876629E4,1.2607021E5,3.0667072E5,2.223648E4,2.844E4,5.774188E4,7.998019E4,1.1132531E5,1.484163E5,2.019E3,6.277191E3,-1.4246727E3,3.4578E4,9.96E4,3.88417E4,2.026E3,4.6664E4,-8.12419E3,1E0,1E0,3.0673E4,1.9161E4,1.3854E4,2.00601E3,1E0,-9.028146E2,-1.205116E3,-6.92782E2,2.890096E2,-9.87126E2,-7.9882196E2,-4.3996426E2,4.8987115E2,-1.7440689E2,-5.2946094E2,-3.571699E2,9.3753204E1,3.510128E2,1.2103185E3,8.389352E2,7.812033E1,1.2045155E3,6.0136816E2,1.4935702E3,3.2419226E3,2.3548472E3,1.0435688E3,3.9000684E3,1.590785E3],"split_indices":[3,3,3,3,3,3,3,3,1,3,3,3,3,0,0,0,1,2,3,0,1,6,12,99,1,1,1,0,20,0,0,0,0,0,0,0,0,0,0,0,0,0,0,0,0,0,0,0,0,0,0,0,0],"split_type":[0,0,0,0,0,0,0,0,0,0,0,0,0,0,0,0,0,0,0,0,0,0,0,0,0,0,0,0,0,0,0,0,0,0,0,0,0,0,0,0,0,0,0,0,0,0,0,0,0,0,0,0,0],"sum_hessian":[1.596E3,1.237E3,3.59E2,6.25E2,6.12E2,2.93E2,6.6E1,1.93E2,4.32E2,3.73E2,2.39E2,1.88E2,1.05E2,6E1,6E0,6.3E1,1.3E2,1.43E2,2.89E2,1.88E2,1.85E2,1.23E2,1.16E2,1.05E2,8.3E1,4.9E1,5.6E1,7E0,5.3E1,1.7E1,1.13E2,1.39E2,4E0,1.53E2,1.36E2,1.87E2,1E0,1.68E2,1.7E1,6E0,1.17E2,1.11E2,5E0,1.02E2,3E0,7.8E1,5E0,4.7E1,2E0,5.1E1,5E0,5.1E1,2E0],"tree_param":{"num_deleted":"0","num_feature":"111","num_nodes":"53","size_leaf_vector":"1"}},{"base_weights":[1.2243141E2,-7.931555E3,4.6656055E4,-1.5116097E4,5.671545E3,3.53634E4,8.550028E4,-2.0680934E4,-9.929713E3,-1.9784647E2,1.2232349E4,2.5941215E4,4.6908105E4,3.6211646E3,6.9966104E3,-2.4770375E4,-1.8102932E4,-1.3100631E4,-7.01913E3,-1.9016906E3,3.610711E3,8.015731E3,1.5911941E4,2.4806008E4,3.5433079E3,4.240534E4,6.926522E4,-1.1268724E3,-1.3560592E3,4.4275845E2,-9.119295E2,-5.9786224E2,-7.841469E2,-2.937356E2,-4.9016626E2,-4.2126476E1,-3.547697E2,2.5892273E2,4.9098038E1,1.476246E3,3.4357776E2,7.017624E2,9.2041956E2,1.3705653E3,1.0374381E3,1.5932765E3,2.5737224E3,6.408058E3,2.613001E3],"categories":[],"categories_nodes":[],"categories_segments":[],"categories_sizes":[],"default_left":[0,0,0,0,0,0,0,0,0,0,0,0,0,0,0,0,0,0,0,0,0,0,0,0,0,0,0,0,0,0,0,0,0,0,0,0,0,0,0,0,0,0,0,0,0,0,0,0,0],"id":15,"left_children":[1,3,5,7,9,11,13,15,17,19,21,23,25,-1,-1,27,29,31,33,35,37,39,41,43,-1,45,47,-1,-1,-1,-1,-1,-1,-1,-1,-1,-1,-1,-1,-1,-1,-1,-1,-1,-1,-1,-1,-1,-1],"loss_changes":[5.9439815E11,1.3221944E11,9.96216E10,2.5336988E10,1.8024129E10,1.8689212E10,2.6879525E10,4.0427028E9,4.1534874E9,1.616185E9,3.3013637E9,3.494994E9,5.2169605E9,0E0,0E0,2.3911629E8,1.1306271E9,4.5908787E8,7.1348634E8,9.401876E8,3.1224723E8,2.3811958E9,2.8978176E8,5.0941952E8,0E0,5.050794E9,5.3207204E9,0E0,0E0,0E0,0E0,0E0,0E0,0E0,0E0,0E0,0E0,0E0,0E0,0E0,0E0,0E0,0E0,0E0,0E0,0E0,0E0,0E0,0E0],"parents":[2147483647,0,0,1,1,2,2,3,3,4,4,5,5,6,6,7,7,8,8,9,9,10,10,11,11,12,12,15,15,16,16,17,17,18,18,19,19,20,20,21,21,22,22,23,23,25,25,26,26],"right_children":[2,4,6,8,10,12,14,16,18,20,22,24,26,-1,-1,28,30,32,34,36,38,40,42,44,-1,46,48,-1,-1,-1,-1,-1,-1,-1,-1,-1,-1,-1,-1,-1,-1,-1,-1,-1,-1,-1,-1,-1,-1],"split_conditions":[1.1416285E5,7.308316E4,1.9467764E5,3.998754E4,8.167515E4,1.6430044E5,3.0667072E5,2.915365E4,4.995897E4,8.605982E4,1.1448629E5,1.637837E4,1E0,3.6211646E3,6.9966104E3,6.689E4,1.893E3,4.5377E4,2.9705E4,4.236E4,2.2501E4,9.49E2,1.27475E5,1.0518E4,3.5433079E3,1.8592967E5,1.3684984E5,-1.1268724E3,-1.3560592E3,4.4275845E2,-9.119295E2,-5.9786224E2,-7.841469E2,-2.937356E2,-4.9016626E2,-4.2126476E1,-3.547697E2,2.5892273E2,4.9098038E1,1.476246E3,3.4357776E2,7.017624E2,9.2041956E2,1.3705653E3,1.0374381E3,1.5932765E3,2.5737224E3,6.408058E3,2.613001E3],"split_indices":[3,4,3,3,3,4,3,3,3,4,4,6,46,0,0,1,1,1,1,1,1,1,4,1,0,4,3,0,0,0,0,0,0,0,0,0,0,0,0,0,0,0,0,0,0,0,0,0,0],"split_type":[0,0,0,0,0,0,0,0,0,0,0,0,0,0,0,0,0,0,0,0,0,0,0,0,0,0,0,0,0,0,0,0,0,0,0,0,0,0,0,0,0,0,0,0,0,0,0,0,0],"sum_hessian":[1.584E3,1.351E3,2.33E2,8.84E2,4.67E2,1.82E2,5.1E1,4.25E2,4.59E2,2.47E2,2.2E2,1.02E2,8E1,4.3E1,8E0,1.61E2,2.64E2,2.18E2,2.41E2,1.71E2,7.6E1,1.04E2,1.16E2,1.01E2,1E0,6.9E1,1.1E1,8.8E1,7.3E1,1E0,2.63E2,1.55E2,6.3E1,1.73E2,6.8E1,1.43E2,2.8E1,4.7E1,2.9E1,4E0,1E2,7E1,4.6E1,5.8E1,4.3E1,3.4E1,3.5E1,1E0,1E1],"tree_param":{"num_deleted":"0","num_feature":"111","num_nodes":"49","size_leaf_vector":"1"}},{"base_weights":[3.1062338E2,-9.769345E3,3.4692133E4,-1.6144709E4,-6.105821E2,2.4106521E4,7.093141E4,-2.100311E4,-1.2380347E4,-3.9410852E3,5.4498965E3,1.7976422E4,3.6503004E4,6.2337277E4,6.68565E3,-1.222786E3,-1.9016887E4,-1.3849242E4,-8.6847E3,-5.606245E3,-9.274698E2,4.825781E3,1.842117E4,1.5675767E4,2.3150322E4,6.1587773E4,3.4065113E4,2.5307463E2,6.385797E4,-7.803016E2,-9.934006E2,-6.241142E2,-8.3723236E2,-4.4225177E2,2.6388766E2,-2.4579155E2,-6.011472E2,8.8822833E2,-6.1821247E1,1.8752393E2,5.290561E2,2.473127E3,3.4602982E2,8.8914026E2,6.2677814E2,1.1874568E3,4.639376E2,1.5100007E3,6.2478564E3,1.4602194E3,2.095185E3,2.827735E3,3.665736E3],"categories":[],"categories_nodes":[],"categories_segments":[],"categories_sizes":[],"default_left":[0,0,0,0,0,0,0,0,0,0,0,0,0,0,0,0,0,0,0,0,0,0,0,0,0,0,0,0,0,0,0,0,0,0,0,0,0,0,0,0,0,0,0,0,0,0,0,0,0,0,0,0,0],"id":16,"left_children":[1,3,5,7,9,11,13,15,17,19,21,23,25,27,-1,-1,29,31,33,35,37,39,41,43,45,47,49,-1,51,-1,-1,-1,-1,-1,-1,-1,-1,-1,-1,-1,-1,-1,-1,-1,-1,-1,-1,-1,-1,-1,-1,-1,-1],"loss_changes":[5.5796125E11,7.268624E10,1.3830947E11,1.3163938E10,1.0355914E10,2.0925415E10,3.590806E10,1.7225155E9,2.137985E9,1.6558075E9,1.3844951E9,1.9225436E9,3.5893166E9,6.122111E9,0E0,0E0,2.9086515E8,9.6252314E8,3.175639E8,8.845235E8,7.091879E8,1.04334234E9,2.5136325E9,6.769275E8,2.5310413E8,1.0149431E10,2.0910326E9,0E0,8.263762E8,0E0,0E0,0E0,0E0,0E0,0E0,0E0,0E0,0E0,0E0,0E0,0E0,0E0,0E0,0E0,0E0,0E0,0E0,0E0,0E0,0E0,0E0,0E0,0E0],"parents":[2147483647,0,0,1,1,2,2,3,3,4,4,5,5,6,6,7,7,8,8,9,9,10,10,11,11,12,12,13,13,16,16,17,17,18,18,19,19,20,20,21,21,22,22,23,23,24,24,25,25,26,26,28,28],"right_children":[2,4,6,8,10,12,14,16,18,20,22,24,26,28,-1,-1,30,32,34,36,38,40,42,44,46,48,50,-1,52,-1,-1,-1,-1,-1,-1,-1,-1,-1,-1,-1,-1,-1,-1,-1,-1,-1,-1,-1,-1,-1,-1,-1,-1],"split_conditions":[9.48452E4,6.373557E4,1.97974E5,3.577863E4,8.551182E4,1.50857E5,3.0667072E5,3.0248E4,4.81819E4,6.49064E4,1E0,1.1762056E5,4.32E2,2.012E3,6.68565E3,-1.222786E3,3.0673E4,4.2995E4,1E0,5.6691E4,1.996E3,1.079485E5,6.58E2,1.4546E4,3.5384E4,2.77E2,1.77308E5,2.5307463E2,2.5139586E5,-7.803016E2,-9.934006E2,-6.241142E2,-8.3723236E2,-4.4225177E2,2.6388766E2,-2.4579155E2,-6.011472E2,8.8822833E2,-6.1821247E1,1.8752393E2,5.290561E2,2.473127E3,3.4602982E2,8.8914026E2,6.2677814E2,1.1874568E3,4.639376E2,1.5100007E3,6.2478564E3,1.4602194E3,2.095185E3,2.827735E3,3.665736E3],"split_indices":[3,4,4,3,4,4,3,4,3,3,12,3,1,0,0,0,1,1,61,1,0,4,1,1,1,1,4,0,4,0,0,0,0,0,0,0,0,0,0,0,0,0,0,0,0,0,0,0,0,0,0,0,0],"split_type":[0,0,0,0,0,0,0,0,0,0,0,0,0,0,0,0,0,0,0,0,0,0,0,0,0,0,0,0,0,0,0,0,0,0,0,0,0,0,0,0,0,0,0,0,0,0,0,0,0,0,0,0,0],"sum_hessian":[1.608E3,1.244E3,3.64E2,7.33E2,5.11E2,2.83E2,8.1E1,3.18E2,4.15E2,3.3E2,1.81E2,1.91E2,9.2E1,7.3E1,8E0,1.12E2,2.06E2,2.95E2,1.2E2,2.12E2,1.18E2,1.74E2,7E0,1.35E2,5.6E1,6E0,8.6E1,2E0,7.1E1,4.5E1,1.61E2,2.04E2,9.1E1,1.19E2,1E0,1.93E2,1.9E1,1E0,1.17E2,1.48E2,2.6E1,1E0,6E0,7.8E1,5.7E1,5.3E1,3E0,5E0,1E0,5.6E1,3E1,4.4E1,2.7E1],"tree_param":{"num_deleted":"0","num_feature":"111","num_nodes":"53","size_leaf_vector":"1"}},{"base_weights":[-4.051037E1,-9.03876E3,3.2081562E4,-1.5472433E4,-5.429235E2,2.261006E4,6.784138E4,-2.0046303E4,-1.2004107E4,-4.3946787E3,4.3061304E3,1.7169223E4,3.348253E4,5.8392004E4,1.2153327E5,-2.2557135E4,-1.7487445E4,-1.3195503E4,-8.529286E3,8.6602264E2,-4.524365E3,1.3198372E3,6.9528325E3,1.3184648E4,1.9697174E4,2.8176861E4,4.0607805E4,1.7200784E3,6.120489E4,1.6350225E3,6.38851E3,-1.2532734E3,-1.0384735E3,-8.8616815E2,-4.3178E2,-6.642808E2,3.4820895E2,-4.4536472E2,3.7720212E2,-2.4677104E2,1.1062606E2,1.5006114E2,-2.031892E0,3.6253253E2,-3.8869064E2,6.84593E2,3.1591913E1,8.742221E2,1.1384882E3,3.4182195E3,1.3101594E3,2.446387E2,2.1254434E3,7.078295E2,3.0901462E3],"categories":[],"categories_nodes":[],"categories_segments":[],"categories_sizes":[],"default_left":[0,0,0,0,0,0,0,0,0,0,0,0,0,0,0,0,0,0,0,0,0,0,0,0,0,0,0,0,0,0,0,0,0,0,0,0,0,0,0,0,0,0,0,0,0,0,0,0,0,0,0,0,0,0,0],"id":17,"left_children":[1,3,5,7,9,11,13,15,17,19,21,23,25,27,29,31,33,35,37,-1,39,41,43,45,47,49,51,-1,53,-1,-1,-1,-1,-1,-1,-1,-1,-1,-1,-1,-1,-1,-1,-1,-1,-1,-1,-1,-1,-1,-1,-1,-1,-1,-1],"loss_changes":[4.63625E11,6.847987E10,1.1734948E11,1.1070161E10,1.012338E10,1.5929475E10,2.9940318E10,1.5715369E9,1.5765258E9,9.288443E8,1.8877414E9,1.6339845E9,2.3338025E9,2.2133146E9,1.362264E9,1.5649178E8,1.7272013E8,6.41151E8,7.17312E8,0E0,8.44459E8,2.6089528E8,6.133688E8,4.752343E8,3.7014323E8,2.6503823E9,2.3041802E9,0E0,7.007109E8,0E0,0E0,0E0,0E0,0E0,0E0,0E0,0E0,0E0,0E0,0E0,0E0,0E0,0E0,0E0,0E0,0E0,0E0,0E0,0E0,0E0,0E0,0E0,0E0,0E0,0E0],"parents":[2147483647,0,0,1,1,2,2,3,3,4,4,5,5,6,6,7,7,8,8,9,9,10,10,11,11,12,12,13,13,14,14,15,15,16,16,17,17,18,18,20,20,21,21,22,22,23,23,24,24,25,25,26,26,28,28],"right_children":[2,4,6,8,10,12,14,16,18,20,22,24,26,28,30,32,34,36,38,-1,40,42,44,46,48,50,52,-1,54,-1,-1,-1,-1,-1,-1,-1,-1,-1,-1,-1,-1,-1,-1,-1,-1,-1,-1,-1,-1,-1,-1,-1,-1,-1,-1],"split_conditions":[9.685118E4,5.277925E4,1.678328E5,4.222966E4,6.988821E4,1.50857E5,3.0667072E5,2.84718E4,5.689512E4,1.996E3,7.998019E4,1.0839376E5,1.77308E5,2.019E3,2.035E5,2.170725E4,3.93922E4,1.759E5,8.175473E4,8.6602264E2,8.334023E4,2.022E3,1E0,1E0,1.1929696E5,1.998E3,2.012E3,1.7200784E3,1.272E5,1.6350225E3,6.38851E3,-1.2532734E3,-1.0384735E3,-8.8616815E2,-4.3178E2,-6.642808E2,3.4820895E2,-4.4536472E2,3.7720212E2,-2.4677104E2,1.1062606E2,1.5006114E2,-2.031892E0,3.6253253E2,-3.8869064E2,6.84593E2,3.1591913E1,8.742221E2,1.1384882E3,3.4182195E3,1.3101594E3,2.446387E2,2.1254434E3,7.078295E2,3.0901462E3],"split_indices":[3,3,3,4,3,4,3,3,4,0,3,3,4,0,2,3,3,2,4,0,4,9,49,99,3,0,0,0,2,0,0,0,0,0,0,0,0,0,0,0,0,0,0,0,0,0,0,0,0,0,0,0,0,0,0],"split_type":[0,0,0,0,0,0,0,0,0,0,0,0,0,0,0,0,0,0,0,0,0,0,0,0,0,0,0,0,0,0,0,0,0,0,0,0,0,0,0,0,0,0,0,0,0,0,0,0,0,0,0,0,0,0,0],"sum_hessian":[1.602E3,1.252E3,3.5E2,7.12E2,5.4E2,2.78E2,7.2E1,3.05E2,4.07E2,3.01E2,2.39E2,1.87E2,9.1E1,6.3E1,9E0,1.5E2,1.55E2,3.01E2,1.06E2,1E0,3E2,1.13E2,1.26E2,7.5E1,1.12E2,5.5E1,3.6E1,8E0,5.5E1,1E0,8E0,5.7E1,9.3E1,1.5E2,5E0,3E2,1E0,1.04E2,2E0,2.83E2,1.7E1,5E1,6.3E1,1.24E2,2E0,7.2E1,3E0,6.9E1,4.3E1,1E0,5.4E1,2E0,3.4E1,1E0,5.4E1],"tree_param":{"num_deleted":"0","num_feature":"111","num_nodes":"55","size_leaf_vector":"1"}},{"base_weights":[1.2974637E2,-7.950673E3,3.3363312E4,-1.425711E4,6.3191846E2,2.542091E4,6.893383E4,-1.8143562E4,-1.0395082E4,-3.178484E3,6.4692085E3,1.8195672E4,3.6080375E4,6.1383004E4,1.1302058E5,-2.0804654E4,-1.5637451E4,-9.106297E3,-1.39416875E4,-4.1563145E3,4.8489523E2,2.613455E4,5.97018E3,1.5240352E4,2.2335176E4,3.3346816E4,5.7894434E4,3.1189402E3,1.2494574E3,1.6732014E3,6.0351323E3,-1.1708821E3,-9.5357416E2,-7.9958954E2,-3.3278387E2,-5.094728E2,-2.8624222E2,-7.122625E2,1.5916303E1,8.443721E2,-2.1516675E2,-1.8342756E0,3.636401E2,1.7725881E3,-2.7835495E2,1.998394E2,5.255659E2,8.096296E2,4.6045938E2,1.166701E3,4.5618066E2,1.363606E3,2.0710725E3,1.8699332E3,6.058906E3],"categories":[],"categories_nodes":[],"categories_segments":[],"categories_sizes":[],"default_left":[0,0,0,0,0,0,0,0,0,0,0,0,0,0,0,0,0,0,0,0,0,0,0,0,0,0,0,0,0,0,0,0,0,0,0,0,0,0,0,0,0,0,0,0,0,0,0,0,0,0,0,0,0,0,0],"id":18,"left_children":[1,3,5,7,9,11,13,15,17,19,21,23,25,27,29,31,33,35,37,39,41,43,45,47,49,51,53,-1,-1,-1,-1,-1,-1,-1,-1,-1,-1,-1,-1,-1,-1,-1,-1,-1,-1,-1,-1,-1,-1,-1,-1,-1,-1,-1,-1],"loss_changes":[4.256344E11,6.901914E10,8.582742E10,1.0843423E10,1.2053714E10,1.8982863E10,1.1704336E10,2.108842E9,1.568809E9,1.1769654E9,1.9440732E9,1.5435694E9,4.1516646E9,2.5324749E8,2.3891149E8,3.413934E8,5.046272E8,9.488937E8,4.2442957E8,8.7398246E8,2.4809842E8,1.6742213E9,1.8398904E9,3.8498714E8,6.052741E8,3.4320794E9,8.4385587E9,0E0,0E0,0E0,0E0,0E0,0E0,0E0,0E0,0E0,0E0,0E0,0E0,0E0,0E0,0E0,0E0,0E0,0E0,0E0,0E0,0E0,0E0,0E0,0E0,0E0,0E0,0E0,0E0],"parents":[2147483647,0,0,1,1,2,2,3,3,4,4,5,5,6,6,7,7,8,8,9,9,10,10,11,11,12,12,13,13,14,14,15,15,16,16,17,17,18,18,19,19,20,20,21,21,22,22,23,23,24,24,25,25,26,26],"right_children":[2,4,6,8,10,12,14,16,18,20,22,24,26,28,30,32,34,36,38,40,42,44,46,48,50,52,54,-1,-1,-1,-1,-1,-1,-1,-1,-1,-1,-1,-1,-1,-1,-1,-1,-1,-1,-1,-1,-1,-1,-1,-1,-1,-1,-1,-1],"split_conditions":[1.0147382E5,5.493909E4,1.8430953E5,4.460253E4,8.605982E4,1.3128527E5,3.24969E5,3.054757E4,4.5377E4,6.906611E4,9.49E2,1.1762056E5,1E0,1E0,1.615E5,2.349698E4,4.172518E4,6.09E4,7.924232E4,1.996E3,8.113639E4,2.024E3,1.079485E5,3.0346E3,1E0,1.8592967E5,2.025E3,3.1189402E3,1.2494574E3,1.6732014E3,6.0351323E3,-1.1708821E3,-9.5357416E2,-7.9958954E2,-3.3278387E2,-5.094728E2,-2.8624222E2,-7.122625E2,1.5916303E1,8.443721E2,-2.1516675E2,-1.8342756E0,3.636401E2,1.7725881E3,-2.7835495E2,1.998394E2,5.255659E2,8.096296E2,4.6045938E2,1.166701E3,4.5618066E2,1.363606E3,2.0710725E3,1.8699332E3,6.058906E3],"split_indices":[3,3,3,4,4,3,4,3,1,3,1,3,46,20,2,3,3,4,4,0,3,0,4,6,77,4,0,0,0,0,0,0,0,0,0,0,0,0,0,0,0,0,0,0,0,0,0,0,0,0,0,0,0,0,0],"split_type":[0,0,0,0,0,0,0,0,0,0,0,0,0,0,0,0,0,0,0,0,0,0,0,0,0,0,0,0,0,0,0,0,0,0,0,0,0,0,0,0,0,0,0,0,0,0,0,0,0,0,0,0,0,0,0],"sum_hessian":[1.583E3,1.274E3,3.09E2,7.34E2,5.4E2,2.54E2,5.5E1,3.64E2,3.7E2,3.27E2,2.13E2,1.53E2,1.01E2,4.9E1,6E0,1.73E2,1.91E2,2.74E2,9.6E1,2.58E2,6.9E1,4E0,2.09E2,9.2E1,6.1E1,9.2E1,9E0,4.7E1,2E0,1E0,5E0,6.4E1,1.09E2,1.83E2,8E0,2.06E2,6.8E1,9.4E1,2E0,1E0,2.57E2,6.5E1,4E0,3E0,1E0,1.47E2,6.2E1,7.8E1,1.4E1,5.6E1,5E0,5.5E1,3.7E1,8E0,1E0],"tree_param":{"num_deleted":"0","num_feature":"111","num_nodes":"55","size_leaf_vector":"1"}},{"base_weights":[1.6986961E2,-7.0950527E3,3.5843258E4,-1.3915086E4,1.530067E3,2.654044E4,6.906827E4,-1.7543643E4,-1.0086607E4,-2.2059143E3,8.898918E3,2.0085504E4,3.7977582E4,6.026925E4,1.10277484E5,-1.5520922E4,-2.062381E4,-8.0114634E3,-1.2186832E4,-3.9871792E3,7.2939667E2,6.44562E3,1.2770961E4,3.2986743E3,1.9262992E4,3.368242E4,6.573293E4,8.5682635E2,3.039989E3,1.6313713E3,5.795265E3,-6.622415E2,-8.297358E2,-1.222452E3,-9.667798E2,-4.5390085E2,-2.0946773E2,-8.2868066E2,-5.712021E2,-2.7867075E2,-7.453585E1,5.48258E1,-4.0403226E2,2.820093E2,9.436001E2,7.1560223E2,4.6580728E2,1.0028063E3,4.6979672E2,1.3463583E3,2.0114752E3,2.2206187E3,5.907433E3],"categories":[],"categories_nodes":[],"categories_segments":[],"categories_sizes":[],"default_left":[0,0,0,0,0,0,0,0,0,0,0,0,0,0,0,0,0,0,0,0,0,0,0,0,0,0,0,0,0,0,0,0,0,0,0,0,0,0,0,0,0,0,0,0,0,0,0,0,0,0,0,0,0],"id":19,"left_children":[1,3,5,7,9,11,13,15,17,19,21,23,25,27,29,31,33,35,37,39,41,43,45,-1,47,49,51,-1,-1,-1,-1,-1,-1,-1,-1,-1,-1,-1,-1,-1,-1,-1,-1,-1,-1,-1,-1,-1,-1,-1,-1,-1,-1],"loss_changes":[4.105115E11,7.743315E10,8.1002004E10,1.0033545E10,1.6042026E10,1.4814495E10,1.4384497E10,2.0224983E9,1.4713405E9,2.026364E9,1.77954E9,3.89999E9,6.7269755E9,1.0223616E8,1.5129805E8,3.447767E8,2.4671027E8,7.120394E8,4.0293786E8,9.460452E8,4.843074E8,1.1146097E9,2.659758E8,0E0,8.7586816E8,1.8799411E9,4.8105144E9,0E0,0E0,0E0,0E0,0E0,0E0,0E0,0E0,0E0,0E0,0E0,0E0,0E0,0E0,0E0,0E0,0E0,0E0,0E0,0E0,0E0,0E0,0E0,0E0,0E0,0E0],"parents":[2147483647,0,0,1,1,2,2,3,3,4,4,5,5,6,6,7,7,8,8,9,9,10,10,11,11,12,12,13,13,14,14,15,15,16,16,17,17,18,18,19,19,20,20,21,21,22,22,24,24,25,25,26,26],"right_children":[2,4,6,8,10,12,14,16,18,20,22,24,26,28,30,32,34,36,38,40,42,44,46,-1,48,50,52,-1,-1,-1,-1,-1,-1,-1,-1,-1,-1,-1,-1,-1,-1,-1,-1,-1,-1,-1,-1,-1,-1,-1,-1,-1,-1],"split_conditions":[1.0839376E5,6.407473E4,1.8430953E5,4.460253E4,7.998019E4,1.6430044E5,3.24969E5,5.6101E4,3.138E4,6.664774E4,1.1448629E5,1.998E3,1E0,1.97974E5,1.615E5,3.0219E4,2.384017E4,8.46E4,2.01E3,7.308316E4,5.1375E4,1E0,1.9585E4,3.2986743E3,1E0,1.8592967E5,2.025E3,8.5682635E2,3.039989E3,1.6313713E3,5.795265E3,-6.622415E2,-8.297358E2,-1.222452E3,-9.667798E2,-4.5390085E2,-2.0946773E2,-8.2868066E2,-5.712021E2,-2.7867075E2,-7.453585E1,5.48258E1,-4.0403226E2,2.820093E2,9.436001E2,7.1560223E2,4.6580728E2,1.0028063E3,4.6979672E2,1.3463583E3,2.0114752E3,2.2206187E3,5.907433E3],"split_indices":[3,4,3,4,3,4,4,1,1,3,4,0,46,4,2,1,4,2,0,4,1,12,1,0,77,4,0,0,0,0,0,0,0,0,0,0,0,0,0,0,0,0,0,0,0,0,0,0,0,0,0,0,0],"split_type":[0,0,0,0,0,0,0,0,0,0,0,0,0,0,0,0,0,0,0,0,0,0,0,0,0,0,0,0,0,0,0,0,0,0,0,0,0,0,0,0,0,0,0,0,0,0,0,0,0,0,0,0,0],"sum_hessian":[1.582E3,1.315E3,2.67E2,7.34E2,5.81E2,2.1E2,5.7E1,3.75E2,3.59E2,3.86E2,1.95E2,1.36E2,7.4E1,4.9E1,8E0,2.3E2,1.45E2,1.83E2,1.76E2,2.4E2,1.46E2,1.21E2,7.4E1,1E0,1.35E2,6.6E1,8E0,1E0,4.8E1,1E0,7E0,7.8E1,1.52E2,3.2E1,1.13E2,1.42E2,4.1E1,2.3E1,1.53E2,1.46E2,9.4E1,1.41E2,5E0,1.15E2,6E0,4.9E1,2.5E1,1.24E2,1.1E1,3.5E1,3.1E1,7E0,1E0],"tree_param":{"num_deleted":"0","num_feature":"111","num_nodes":"53","size_leaf_vector":"1"}},{"base_weights":[2.6715298E2,-6.6918135E3,3.3598625E4,-1.29921045E4,1.4154551E3,2.7178852E4,7.564216E4,-1.6405975E4,-9.205059E3,-2.2601199E3,8.1831064E3,1.9037834E4,3.8863824E4,3.1407473E3,1.0714434E5,-1.9191385E4,-1.4384857E4,-1.0414184E4,-7.0322314E3,-1.4239309E3,-7.5608535E3,6.085018E3,1.1359079E4,3.216207E3,1.8271326E4,4.3470145E4,2.6404988E4,1.5905869E3,5.629222E3,-9.1000653E2,-1.1624916E3,-7.278469E2,1.744141E2,-4.2691455E2,-5.930799E2,-3.6936966E2,1.3189409E1,-1.7331914E2,3.3256664E1,-3.102246E2,-5.964511E2,9.984372E2,2.73051E2,3.51806E2,6.250322E2,9.8848285E2,6.959443E2,2.5560015E3,1.7179843E3,2.2663011E2,1.4861632E3],"categories":[],"categories_nodes":[],"categories_segments":[],"categories_sizes":[],"default_left":[0,0,0,0,0,0,0,0,0,0,0,0,0,0,0,0,0,0,0,0,0,0,0,0,0,0,0,0,0,0,0,0,0,0,0,0,0,0,0,0,0,0,0,0,0,0,0,0,0,0,0],"id":20,"left_children":[1,3,5,7,9,11,13,15,17,19,21,23,25,-1,27,29,31,33,35,37,39,41,43,-1,45,47,49,-1,-1,-1,-1,-1,-1,-1,-1,-1,-1,-1,-1,-1,-1,-1,-1,-1,-1,-1,-1,-1,-1,-1,-1],"loss_changes":[3.7065317E11,6.754372E10,7.243927E10,9.467765E9,1.4421126E10,2.2185853E10,7.8167736E9,1.9194839E9,8.5942886E8,1.6558208E9,1.2902267E9,3.823272E9,4.476322E9,0E0,1.0683187E8,2.2453862E8,7.581819E8,5.123543E8,3.3881344E8,1.393287E9,2.2815002E8,9.738747E8,3.0683853E8,0E0,6.573834E8,3.122094E9,1.9700511E9,0E0,0E0,0E0,0E0,0E0,0E0,0E0,0E0,0E0,0E0,0E0,0E0,0E0,0E0,0E0,0E0,0E0,0E0,0E0,0E0,0E0,0E0,0E0,0E0],"parents":[2147483647,0,0,1,1,2,2,3,3,4,4,5,5,6,6,7,7,8,8,9,9,10,10,11,11,12,12,14,14,15,15,16,16,17,17,18,18,19,19,20,20,21,21,22,22,24,24,25,25,26,26],"right_children":[2,4,6,8,10,12,14,16,18,20,22,24,26,-1,28,30,32,34,36,38,40,42,44,-1,46,48,50,-1,-1,-1,-1,-1,-1,-1,-1,-1,-1,-1,-1,-1,-1,-1,-1,-1,-1,-1,-1,-1,-1,-1,-1],"split_conditions":[1.0839376E5,5.493909E4,2.207754E5,3.88417E4,9.320783E4,1.6430044E5,3.24969E5,2.915365E4,4.81819E4,4.0187E4,1.1350268E5,1.998E3,8.403E3,3.1407473E3,2.022E3,8.2786E4,5.689512E4,3.1148E4,7.024618E4,6.408376E4,6.0135E4,6.58E2,2.021E3,3.216207E3,1.4282E4,1E0,-8.12419E3,1.5905869E3,5.629222E3,-9.1000653E2,-1.1624916E3,-7.278469E2,1.744141E2,-4.2691455E2,-5.930799E2,-3.6936966E2,1.3189409E1,-1.7331914E2,3.3256664E1,-3.102246E2,-5.964511E2,9.984372E2,2.73051E2,3.51806E2,6.250322E2,9.8848285E2,6.959443E2,2.5560015E3,1.7179843E3,2.2663011E2,1.4861632E3],"split_indices":[3,3,3,3,4,4,4,3,3,1,4,0,1,0,9,1,4,1,4,3,1,1,9,0,1,44,6,0,0,0,0,0,0,0,0,0,0,0,0,0,0,0,0,0,0,0,0,0,0,0,0],"split_type":[0,0,0,0,0,0,0,0,0,0,0,0,0,0,0,0,0,0,0,0,0,0,0,0,0,0,0,0,0,0,0,0,0,0,0,0,0,0,0,0,0,0,0,0,0,0,0,0,0,0,0],"sum_hessian":[1.596E3,1.321E3,2.75E2,7.43E2,5.78E2,2.4E2,3.5E1,3.89E2,3.54E2,3.75E2,2.03E2,1.43E2,9.7E1,2.7E1,8E0,1.6E2,2.29E2,2.25E2,1.29E2,3.25E2,5E1,1.24E2,7.9E1,1E0,1.42E2,6.9E1,2.8E1,1E0,7E0,1.33E2,2.7E1,2.27E2,2E0,1.01E2,1.24E2,1.23E2,6E0,1.64E2,1.61E2,4E1,1E1,4E0,1.2E2,1.8E1,6.1E1,1.03E2,3.9E1,3.5E1,3.4E1,4E0,2.4E1],"tree_param":{"num_deleted":"0","num_feature":"111","num_nodes":"51","size_leaf_vector":"1"}},{"base_weights":[3.1472833E2,-6.543271E3,3.1691979E4,-1.2427036E4,1.1985958E3,2.256451E4,5.5207094E4,-1.5725375E4,-8.776803E3,-2.6294202E3,6.9778267E3,1.5462433E4,2.9723877E4,4.4451824E4,7.427458E4,-1.88114E4,-1.3946643E4,-7.1575435E3,-1.0410762E4,-1.900099E3,-7.7588857E3,4.6657295E3,1.1110181E4,1.6033058E4,8.381113E3,2.7402666E4,5.7311344E4,5.79435E2,4.4860945E4,2.8792083E3,4.2829834E3,-1.1524368E3,-8.9527783E2,-6.469008E2,-8.202475E2,-4.2464108E2,-2.379409E2,-5.353121E2,-1.4706377E2,-1.8229364E2,2.7881002E0,-5.6532965E2,-3.067645E2,1.3498295E3,2.004231E2,3.3027728E2,6.202487E2,8.373403E2,4.7908896E2,4.5634283E2,4.1733242E1,3.1358018E3,1.318539E3,5.695847E3,1.4445453E3,1.4461195E3,2.3348777E3],"categories":[],"categories_nodes":[],"categories_segments":[],"categories_sizes":[],"default_left":[0,0,0,0,0,0,0,0,0,0,0,0,0,0,0,0,0,0,0,0,0,0,0,0,0,0,0,0,0,0,0,0,0,0,0,0,0,0,0,0,0,0,0,0,0,0,0,0,0,0,0,0,0,0,0,0,0],"id":21,"left_children":[1,3,5,7,9,11,13,15,17,19,21,23,25,27,29,31,33,35,37,39,41,43,45,47,49,51,53,-1,55,-1,-1,-1,-1,-1,-1,-1,-1,-1,-1,-1,-1,-1,-1,-1,-1,-1,-1,-1,-1,-1,-1,-1,-1,-1,-1,-1,-1],"loss_changes":[3.419214E11,5.9413828E10,5.992484E10,8.783405E9,1.2495714E10,1.0065584E10,1.2899336E10,1.8674565E9,8.6209536E8,1.2572063E9,2.0979016E9,2.939474E8,4.9612227E9,1.9270042E8,1.979351E8,1.208279E8,4.0762982E8,5.393193E8,3.5254067E8,1.0211364E9,1.7255066E8,2.034676E9,3.8466355E8,2.8617728E8,4.8658304E7,1.8443141E9,7.9701135E9,0E0,1.7158963E8,0E0,0E0,0E0,0E0,0E0,0E0,0E0,0E0,0E0,0E0,0E0,0E0,0E0,0E0,0E0,0E0,0E0,0E0,0E0,0E0,0E0,0E0,0E0,0E0,0E0,0E0,0E0,0E0],"parents":[2147483647,0,0,1,1,2,2,3,3,4,4,5,5,6,6,7,7,8,8,9,9,10,10,11,11,12,12,13,13,14,14,15,15,16,16,17,17,18,18,19,19,20,20,21,21,22,22,23,23,24,24,25,25,26,26,28,28],"right_children":[2,4,6,8,10,12,14,16,18,20,22,24,26,28,30,32,34,36,38,40,42,44,46,48,50,52,54,-1,56,-1,-1,-1,-1,-1,-1,-1,-1,-1,-1,-1,-1,-1,-1,-1,-1,-1,-1,-1,-1,-1,-1,-1,-1,-1,-1,-1,-1],"split_conditions":[1.0839376E5,5.493909E4,1.678328E5,3.88417E4,8.9319E4,1.477399E5,2.7373297E5,2.789373E4,3.1148E4,4.0567E4,1.1350268E5,1E0,2.025E3,1.272E5,2.0835E5,1.692408E4,5.6101E4,5.856957E4,6.883567E4,7.402655E4,2.013E3,6.58E2,2.021E3,2.6212E4,1.732E5,1.998E3,2.025E3,5.79435E2,2.019E3,2.8792083E3,4.2829834E3,-1.1524368E3,-8.9527783E2,-6.469008E2,-8.202475E2,-4.2464108E2,-2.379409E2,-5.353121E2,-1.4706377E2,-1.8229364E2,2.7881002E0,-5.6532965E2,-3.067645E2,1.3498295E3,2.004231E2,3.3027728E2,6.202487E2,8.373403E2,4.7908896E2,4.5634283E2,4.1733242E1,3.1358018E3,1.318539E3,5.695847E3,1.4445453E3,1.4461195E3,2.3348777E3],"split_indices":[3,3,3,3,4,4,4,3,1,1,4,77,0,2,2,3,1,4,4,4,0,1,9,1,2,0,9,0,0,0,0,0,0,0,0,0,0,0,0,0,0,0,0,0,0,0,0,0,0,0,0,0,0,0,0,0,0],"split_type":[0,0,0,0,0,0,0,0,0,0,0,0,0,0,0,0,0,0,0,0,0,0,0,0,0,0,0,0,0,0,0,0,0,0,0,0,0,0,0,0,0,0,0,0,0,0,0,0,0,0,0,0,0,0,0,0,0],"sum_hessian":[1.587E3,1.303E3,2.84E2,7.4E2,5.63E2,2.06E2,7.8E1,3.87E2,3.53E2,3.39E2,2.24E2,1.05E2,1.01E2,5.2E1,2.6E1,1.38E2,2.49E2,1.8E2,1.73E2,2.98E2,4.1E1,1.45E2,7.9E1,9.6E1,9E0,9.5E1,6E0,1E0,5.1E1,1.3E1,1.3E1,2E1,1.18E2,1.81E2,6.8E1,1.14E2,6.6E1,1.66E2,7E0,1.57E2,1.41E2,1.1E1,3E1,3E0,1.42E2,1.9E1,6E1,8.5E1,1.1E1,8E0,1E0,1E0,9.4E1,1E0,5E0,7E0,4.4E1],"tree_param":{"num_deleted":"0","num_feature":"111","num_nodes":"57","size_leaf_vector":"1"}},{"base_weights":[1.1226701E2,-6.330476E3,3.0518746E4,-1.1897971E4,1.3352834E3,2.1500105E4,5.2961812E4,-1.4999789E4,-8.332795E3,-1.7449469E3,7.437314E3,1.58944795E4,3.0068197E4,4.734869E4,9.545641E4,-1.3532277E4,-1.858705E4,-9.531701E3,-6.534853E3,-3.640535E3,3.603804E2,6.8267485E3,1.71953E4,1.76403E4,1.2232229E4,2.7043307E4,5.602164E4,8.0418785E1,4.798828E4,1.2896752E3,5.086173E3,5.1624176E2,-6.8265314E2,-1.0715585E3,-8.5079706E2,-4.826052E2,3.7876617E2,-3.3334528E2,3.02111E2,-1.5750603E2,-4.7728482E2,8.571373E1,-9.649727E1,3.1724268E2,8.63964E2,9.616331E2,3.0152698E2,7.229572E2,1.0712693E3,6.2953204E2,-6.156371E1,1.1906356E3,2.0336725E3,1.416778E3,5.553451E3,2.0914543E3,2.8282915E3],"categories":[],"categories_nodes":[],"categories_segments":[],"categories_sizes":[],"default_left":[0,0,0,0,0,0,0,0,0,0,0,0,0,0,0,0,0,0,0,0,0,0,0,0,0,0,0,0,0,0,0,0,0,0,0,0,0,0,0,0,0,0,0,0,0,0,0,0,0,0,0,0,0,0,0,0,0],"id":22,"left_children":[1,3,5,7,9,11,13,15,17,19,21,23,25,27,29,31,33,35,37,39,41,43,45,47,49,51,53,-1,55,-1,-1,-1,-1,-1,-1,-1,-1,-1,-1,-1,-1,-1,-1,-1,-1,-1,-1,-1,-1,-1,-1,-1,-1,-1,-1,-1,-1],"loss_changes":[3.0364405E11,5.4602433E10,5.371332E10,8.069374E9,1.0143839E10,8.887837E9,1.3846856E10,1.8278892E9,6.856909E8,1.4340214E9,9.6098714E8,5.514547E8,4.451463E9,1.9706511E9,8.6882714E8,9.5933235E8,1.357865E8,4.9742234E8,2.761211E8,5.1726797E8,5.3355526E8,7.567319E8,1.1148058E8,6.414377E8,2.1817395E8,2.113794E9,7.521106E9,0E0,1.27923E9,0E0,0E0,0E0,0E0,0E0,0E0,0E0,0E0,0E0,0E0,0E0,0E0,0E0,0E0,0E0,0E0,0E0,0E0,0E0,0E0,0E0,0E0,0E0,0E0,0E0,0E0,0E0,0E0],"parents":[2147483647,0,0,1,1,2,2,3,3,4,4,5,5,6,6,7,7,8,8,9,9,10,10,11,11,12,12,13,13,14,14,15,15,16,16,17,17,18,18,19,19,20,20,21,21,22,22,23,23,24,24,25,25,26,26,28,28],"right_children":[2,4,6,8,10,12,14,16,18,20,22,24,26,28,30,32,34,36,38,40,42,44,46,48,50,52,54,-1,56,-1,-1,-1,-1,-1,-1,-1,-1,-1,-1,-1,-1,-1,-1,-1,-1,-1,-1,-1,-1,-1,-1,-1,-1,-1,-1,-1,-1],"split_conditions":[1.2659859E5,5.493909E4,1.97974E5,3.88417E4,7.998019E4,1.3128527E5,3.0667072E5,6.6177E4,5.591892E4,6.49064E4,1.1307671E5,1.5166E4,1E0,2.012E3,2.035E5,1.893E3,2.515836E4,1.741E5,1E0,5.7231E4,2.3047E4,1E0,2.021E3,1.401665E5,1E0,5.07762E3,2.025E3,8.0418785E1,2.5139586E5,1.2896752E3,5.086173E3,5.1624176E2,-6.8265314E2,-1.0715585E3,-8.5079706E2,-4.826052E2,3.7876617E2,-3.3334528E2,3.02111E2,-1.5750603E2,-4.7728482E2,8.571373E1,-9.649727E1,3.1724268E2,8.63964E2,9.616331E2,3.0152698E2,7.229572E2,1.0712693E3,6.2953204E2,-6.156371E1,1.1906356E3,2.0336725E3,1.416778E3,5.553451E3,2.0914543E3,2.8282915E3],"split_indices":[4,3,4,3,3,3,3,1,4,3,3,1,46,0,2,1,4,2,61,1,1,12,9,4,53,6,0,0,4,0,0,0,0,0,0,0,0,0,0,0,0,0,0,0,0,0,0,0,0,0,0,0,0,0,0,0,0],"split_type":[0,0,0,0,0,0,0,0,0,0,0,0,0,0,0,0,0,0,0,0,0,0,0,0,0,0,0,0,0,0,0,0,0,0,0,0,0,0,0,0,0,0,0,0,0,0,0,0,0,0,0,0,0,0,0,0,0],"sum_hessian":[1.548E3,1.278E3,2.7E2,7.4E2,5.38E2,1.94E2,7.6E1,3.94E2,3.46E2,3.58E2,1.8E2,1.19E2,7.5E1,6.9E1,7E0,2.83E2,1.11E2,2.05E2,1.41E2,1.88E2,1.7E2,1.71E2,9E0,7.8E1,4.1E1,6.9E1,6E0,1E0,6.8E1,1E0,6E0,1E0,2.82E2,3.5E1,7.6E1,2.04E2,1E0,1.4E2,1E0,1.75E2,1.3E1,1.07E2,6.3E1,1.65E2,6E0,7E0,2E0,4.5E1,3.3E1,4E1,1E0,5.8E1,1.1E1,5E0,1E0,4.3E1,2.5E1],"tree_param":{"num_deleted":"0","num_feature":"111","num_nodes":"57","size_leaf_vector":"1"}},{"base_weights":[1.0451409E2,-6.223459E3,2.727847E4,-1.128878E4,6.43749E2,2.110894E4,6.0752E4,-1.4256274E4,-8.306855E3,-1.8125533E3,6.687154E3,1.5086615E4,3.2495625E4,2.5890435E3,9.187988E4,-1.6465867E4,-1.2041368E4,-7.435572E3,-1.1240519E4,-1.3076368E3,-8.811667E3,3.4450637E4,5.927533E3,3.0065652E3,1.4456818E4,5.797161E4,3.023524E4,1.3425022E3,4.832617E3,-9.4955383E2,-7.517938E2,5.033357E2,-6.106713E2,-4.3852765E2,-2.9346143E2,-5.7724945E2,-2.0908911E2,-1.3553152E2,5.8938244E1,-4.5249908E2,-7.134281E1,7.9402386E2,2.2540251E3,3.0699356E2,-6.6930963E2,6.1552686E2,8.663372E2,5.4146147E3,1.3124498E3,1.0644387E3,1.7364398E3],"categories":[],"categories_nodes":[],"categories_segments":[],"categories_sizes":[],"default_left":[0,0,0,0,0,0,0,0,0,0,0,0,0,0,0,0,0,0,0,0,0,0,0,0,0,0,0,0,0,0,0,0,0,0,0,0,0,0,0,0,0,0,0,0,0,0,0,0,0,0,0],"id":23,"left_children":[1,3,5,7,9,11,13,15,17,19,21,23,25,-1,27,29,31,33,35,37,39,41,43,-1,45,47,49,-1,-1,-1,-1,-1,-1,-1,-1,-1,-1,-1,-1,-1,-1,-1,-1,-1,-1,-1,-1,-1,-1,-1,-1],"loss_changes":[2.7220428E11,4.4670714E10,6.046584E10,6.420865E9,8.1171794E9,1.6927621E10,8.087978E9,1.6076308E9,8.647127E8,1.36319E9,3.127962E9,3.8966804E9,3.2571556E9,0E0,1.980416E8,3.7165466E8,8.380805E8,5.52831E8,1.3010022E8,1.2729748E9,3.2843392E7,7.368755E7,7.178491E8,0E0,8.1535795E8,6.7352453E9,2.557182E9,0E0,0E0,0E0,0E0,0E0,0E0,0E0,0E0,0E0,0E0,0E0,0E0,0E0,0E0,0E0,0E0,0E0,0E0,0E0,0E0,0E0,0E0,0E0,0E0],"parents":[2147483647,0,0,1,1,2,2,3,3,4,4,5,5,6,6,7,7,8,8,9,9,10,10,11,11,12,12,14,14,15,15,16,16,17,17,18,18,19,19,20,20,21,21,22,22,24,24,25,25,26,26],"right_children":[2,4,6,8,10,12,14,16,18,20,22,24,26,-1,28,30,32,34,36,38,40,42,44,-1,46,48,50,-1,-1,-1,-1,-1,-1,-1,-1,-1,-1,-1,-1,-1,-1,-1,-1,-1,-1,-1,-1,-1,-1,-1,-1],"split_conditions":[1.0147382E5,6.407473E4,2.1234178E5,3.81628E4,7.998019E4,1.6430044E5,2.28E5,3.054757E4,4.5377E4,5.3004E4,6.58E2,1.998E3,4.32E2,2.5890435E3,2.5287208E5,2.170725E4,1.893E3,4.670474E4,1E0,7.924232E4,7.92937E4,6E1,5.9459E4,3.0065652E3,1.1929696E5,1.3684984E5,1.8592967E5,1.3425022E3,4.832617E3,-9.4955383E2,-7.517938E2,5.033357E2,-6.106713E2,-4.3852765E2,-2.9346143E2,-5.7724945E2,-2.0908911E2,-1.3553152E2,5.8938244E1,-4.5249908E2,-7.134281E1,7.9402386E2,2.2540251E3,3.0699356E2,-6.6930963E2,6.1552686E2,8.663372E2,5.4146147E3,1.3124498E3,1.0644387E3,1.7364398E3],"split_indices":[3,4,3,3,3,4,2,3,1,1,1,0,1,0,3,3,1,3,79,4,3,1,1,0,3,3,4,0,0,0,0,0,0,0,0,0,0,0,0,0,0,0,0,0,0,0,0,0,0,0,0],"split_type":[0,0,0,0,0,0,0,0,0,0,0,0,0,0,0,0,0,0,0,0,0,0,0,0,0,0,0,0,0,0,0,0,0,0,0,0,0,0,0,0,0,0,0,0,0,0,0,0,0,0,0],"sum_hessian":[1.581E3,1.283E3,2.98E2,7.38E2,5.45E2,2.53E2,4.5E1,3.68E2,3.7E2,3.88E2,1.57E2,1.67E2,8.6E1,3.7E1,8E0,1.81E2,1.87E2,2.88E2,8.2E1,3.63E2,2.5E1,3E0,1.54E2,1E0,1.66E2,5E0,8.1E1,1E0,7E0,6.1E1,1.2E2,1E0,1.86E2,1.53E2,1.35E2,7.8E1,4E0,2.32E2,1.31E2,2.4E1,1E0,2E0,1E0,1.53E2,1E0,9.8E1,6.8E1,1E0,4E0,2.9E1,5.2E1],"tree_param":{"num_deleted":"0","num_feature":"111","num_nodes":"51","size_leaf_vector":"1"}},{"base_weights":[2.931886E2,-4.203104E3,3.6517332E4,-9.627447E3,4.52944E3,3.0257572E4,6.1771105E4,-1.3772743E4,-6.5054653E3,5.158656E2,1.0217504E4,2.6447135E4,4.21576E4,2.4926416E3,3.9733435E3,-1.5765676E4,-1.1811709E4,-8.471402E3,-4.7921206E3,-5.854789E2,3.9403647E3,9.119729E3,1.4921669E4,2.10571E4,3.4176117E4,7.000622E4,3.4684406E4,-9.803198E2,-7.3950037E2,-6.3719586E2,-4.6517783E2,-4.3171313E2,3.4191672E2,-2.5150615E2,9.4947044E1,8.254705E2,-3.6217003E1,1.3597627E2,1.2922993E3,3.8771744E2,5.626038E2,5.1654687E0,7.644771E2,1.0882522E3,-7.6831276E1,-5.2497692E1,1.7509873E3,4.367657E2,4.025666E3,9.515301E2,2.0548877E3],"categories":[],"categories_nodes":[],"categories_segments":[],"categories_sizes":[],"default_left":[0,0,0,0,0,0,0,0,0,0,0,0,0,0,0,0,0,0,0,0,0,0,0,0,0,0,0,0,0,0,0,0,0,0,0,0,0,0,0,0,0,0,0,0,0,0,0,0,0,0,0],"id":24,"left_children":[1,3,5,7,9,11,13,15,17,19,21,23,25,-1,-1,27,29,31,33,35,37,39,41,43,45,47,49,-1,-1,-1,-1,-1,-1,-1,-1,-1,-1,-1,-1,-1,-1,-1,-1,-1,-1,-1,-1,-1,-1,-1,-1],"loss_changes":[2.5961234E11,6.7211887E10,2.5953468E10,1.1234247E10,1.2413959E10,5.3692826E9,3.2090358E9,1.2793528E9,1.646934E9,1.2092045E9,1.02584115E9,3.9045448E9,4.439765E9,0E0,0E0,3.957719E8,3.326894E8,6.3750246E8,4.3952384E8,5.887941E8,2.0156815E9,4.513669E8,2.219223E8,1.12111E9,1.3443604E9,3.1593554E9,2.0288901E9,0E0,0E0,0E0,0E0,0E0,0E0,0E0,0E0,0E0,0E0,0E0,0E0,0E0,0E0,0E0,0E0,0E0,0E0,0E0,0E0,0E0,0E0,0E0,0E0],"parents":[2147483647,0,0,1,1,2,2,3,3,4,4,5,5,6,6,7,7,8,8,9,9,10,10,11,11,12,12,15,15,16,16,17,17,18,18,19,19,20,20,21,21,22,22,23,23,24,24,25,25,26,26],"right_children":[2,4,6,8,10,12,14,16,18,20,22,24,26,-1,-1,28,30,32,34,36,38,40,42,44,46,48,50,-1,-1,-1,-1,-1,-1,-1,-1,-1,-1,-1,-1,-1,-1,-1,-1,-1,-1,-1,-1,-1,-1,-1,-1],"split_conditions":[1.477399E5,6.132267E4,2.2559273E5,4.495266E4,8.995E4,1E0,2.1765E5,3.054757E4,4.81819E4,9.400193E4,1.1929696E5,1.8772233E5,1.3684984E5,2.4926416E3,3.9733435E3,1.844104E4,1.3622E3,7.1884E4,8.073224E4,1.996E3,1E0,1.2522693E5,1.015E5,1E0,2.012E3,1.2428581E5,1.6146598E5,-9.803198E2,-7.3950037E2,-6.3719586E2,-4.6517783E2,-4.3171313E2,3.4191672E2,-2.5150615E2,9.4947044E1,8.254705E2,-3.6217003E1,1.3597627E2,1.2922993E3,3.8771744E2,5.626038E2,5.1654687E0,7.644771E2,1.0882522E3,-7.6831276E1,-5.2497692E1,1.7509873E3,4.367657E2,4.025666E3,9.515301E2,2.0548877E3],"split_indices":[5,3,3,5,3,33,2,3,3,5,3,5,3,0,0,3,6,5,5,0,12,5,2,85,0,3,3,0,0,0,0,0,0,0,0,0,0,0,0,0,0,0,0,0,0,0,0,0,0,0,0],"split_type":[0,0,0,0,0,0,0,0,0,0,0,0,0,0,0,0,0,0,0,0,0,0,0,0,0,0,0,0,0,0,0,0,0,0,0,0,0,0,0,0,0,0,0,0,0,0,0,0,0,0,0],"sum_hessian":[1.592E3,1.417E3,1.75E2,8.74E2,5.43E2,1.42E2,3.3E1,3.74E2,5E2,3.19E2,2.24E2,1.1E2,3.2E1,2.2E1,1.1E1,1.82E2,1.92E2,2.31E2,2.69E2,2.42E2,7.7E1,1.84E2,4E1,6.7E1,4.3E1,5E0,2.7E1,3.3E1,1.49E2,1.37E2,5.5E1,2.29E2,2E0,2.6E2,9E0,1E0,2.41E2,7.4E1,3E0,1.15E2,6.9E1,1E0,3.9E1,6.5E1,2E0,1E0,4.2E1,1E0,4E0,9E0,1.8E1],"tree_param":{"num_deleted":"0","num_feature":"111","num_nodes":"51","size_leaf_vector":"1"}},{"base_weights":[2.718795E2,-5.245227E3,2.5898754E4,-9.810371E3,1.8554495E3,1.762527E4,4.5905234E4,-1.2772231E4,-6.637296E3,-8.8091284E2,6.846604E3,1.3479641E4,2.490922E4,4.0147633E4,8.750521E4,-1.50681E4,-1.1027731E4,-8.0022397E3,-4.8047954E3,-2.6651617E2,-8.0307427E3,2.1884723E4,6.2918877E3,1.4040686E4,6.184731E3,3.9451867E4,1.9225832E4,-1.983052E2,4.128693E4,1.2810924E3,4.601894E3,-9.808541E2,-7.189739E2,-5.132753E2,-6.640407E2,-3.5882135E2,-5.1044473E2,-2.5332109E2,2.3164165E2,-5.892275E1,1.291906E2,-3.2337585E2,-5.369774E2,1.473296E3,-4.0052914E2,2.1037625E2,4.3572363E2,7.5250745E2,5.344811E2,3.74736E2,1.0092727E2,1.5067806E3,5.178608E3,7.457489E2,1.1564417E3,3.6309807E1,-5.1185196E1,1.860627E3,2.5608193E3],"categories":[],"categories_nodes":[],"categories_segments":[],"categories_sizes":[],"default_left":[0,0,0,0,0,0,0,0,0,0,0,0,0,0,0,0,0,0,0,0,0,0,0,0,0,0,0,0,0,0,0,0,0,0,0,0,0,0,0,0,0,0,0,0,0,0,0,0,0,0,0,0,0,0,0,0,0,0,0],"id":25,"left_children":[1,3,5,7,9,11,13,15,17,19,21,23,25,27,29,31,33,35,37,39,41,43,45,47,49,51,53,55,57,-1,-1,-1,-1,-1,-1,-1,-1,-1,-1,-1,-1,-1,-1,-1,-1,-1,-1,-1,-1,-1,-1,-1,-1,-1,-1,-1,-1,-1,-1],"loss_changes":[2.2267773E11,4.202883E10,4.5371916E10,7.3304064E9,6.9440957E9,5.673345E9,1.5887663E10,1.4639268E9,9.195336E8,1.4431004E9,1.3638426E9,4.411269E8,5.109756E9,3.363709E9,1.6628122E8,2.5984205E8,2.6724352E8,3.2399258E8,4.333476E8,7.932394E8,4.063616E7,1.595895E9,8.4700314E8,2.416681E8,4.4904864E7,8.2286285E9,5.467689E8,3.0326862E6,9.6650854E8,0E0,0E0,0E0,0E0,0E0,0E0,0E0,0E0,0E0,0E0,0E0,0E0,0E0,0E0,0E0,0E0,0E0,0E0,0E0,0E0,0E0,0E0,0E0,0E0,0E0,0E0,0E0,0E0,0E0,0E0],"parents":[2147483647,0,0,1,1,2,2,3,3,4,4,5,5,6,6,7,7,8,8,9,9,10,10,11,11,12,12,13,13,14,14,15,15,16,16,17,17,18,18,19,19,20,20,21,21,22,22,23,23,24,24,25,25,26,26,27,27,28,28],"right_children":[2,4,6,8,10,12,14,16,18,20,22,24,26,28,30,32,34,36,38,40,42,44,46,48,50,52,54,56,58,-1,-1,-1,-1,-1,-1,-1,-1,-1,-1,-1,-1,-1,-1,-1,-1,-1,-1,-1,-1,-1,-1,-1,-1,-1,-1,-1,-1,-1,-1],"split_conditions":[1.0839376E5,6.793162E4,1.97974E5,3.998754E4,8.167515E4,1.58235E5,3.24969E5,3.054757E4,5.01564E4,5.3004E4,9.49E2,1E0,1.893E3,2.012E3,1.615E5,1.692408E4,5.5485E4,4.5377E4,6.519117E4,8.605982E4,6.6177E4,2.024E3,1.1350268E5,1E0,1E0,1E0,1.77308E5,5E0,2.7373297E5,1.2810924E3,4.601894E3,-9.808541E2,-7.189739E2,-5.132753E2,-6.640407E2,-3.5882135E2,-5.1044473E2,-2.5332109E2,2.3164165E2,-5.892275E1,1.291906E2,-3.2337585E2,-5.369774E2,1.473296E3,-4.0052914E2,2.1037625E2,4.3572363E2,7.5250745E2,5.344811E2,3.74736E2,1.0092727E2,1.5067806E3,5.178608E3,7.457489E2,1.1564417E3,3.6309807E1,-5.1185196E1,1.860627E3,2.5608193E3],"split_indices":[3,4,4,3,3,4,4,3,3,1,1,77,1,0,2,3,1,1,3,4,1,0,4,82,33,46,4,7,4,0,0,0,0,0,0,0,0,0,0,0,0,0,0,0,0,0,0,0,0,0,0,0,0,0,0,0,0,0,0],"split_type":[0,0,0,0,0,0,0,0,0,0,0,0,0,0,0,0,0,0,0,0,0,0,0,0,0,0,0,0,0,0,0,0,0,0,0,0,0,0,0,0,0,0,0,0,0,0,0,0,0,0,0,0,0,0,0,0,0,0,0],"sum_hessian":[1.573E3,1.295E3,2.78E2,7.88E2,5.07E2,1.98E2,8E1,4.06E2,3.82E2,3.28E2,1.79E2,1.28E2,7E1,7.2E1,8E0,1.72E2,2.34E2,2.17E2,1.65E2,3.03E2,2.5E1,5E0,1.74E2,1.18E2,1E1,1.8E1,5.2E1,2E0,7E1,1E0,7E0,1.9E1,1.53E2,1.79E2,5.5E1,1.61E2,5.6E1,1.61E2,4E0,2.3E2,7.3E1,1.8E1,7E0,4E0,1E0,9.5E1,7.9E1,8.8E1,3E1,7E0,3E0,1.7E1,1E0,2.7E1,2.5E1,1E0,1E0,5.3E1,1.7E1],"tree_param":{"num_deleted":"0","num_feature":"111","num_nodes":"59","size_leaf_vector":"1"}},{"base_weights":[5.6832504E1,-4.233462E3,2.9609484E4,-8.512083E3,3.8069868E3,2.4151719E4,5.8055848E4,-1.1706221E4,-5.2182925E3,5.4094744E0,7.840951E3,1.6034799E4,2.9429707E4,2.2781245E3,4.4139473E3,-1.0091941E4,-1.4531193E4,-4.2092324E3,-7.857223E3,1.5240624E3,-2.7040657E3,5.985113E3,1.0801225E4,2.8119468E3,1.4595349E4,2.687713E4,4.590883E4,5.14377E2,-5.0992123E2,-8.181763E2,-6.6249176E2,-2.2587979E2,2.417804E2,-6.992695E2,-3.5552386E2,8.063069E2,6.63543E1,-7.589257E1,-3.4660025E2,1.048464E3,2.6451282E2,5.8935864E2,3.570616E2,7.771369E2,2.1272305E2,9.143232E2,1.5689573E3,5.0491426E3,1.5860916E3],"categories":[],"categories_nodes":[],"categories_segments":[],"categories_sizes":[],"default_left":[0,0,0,0,0,0,0,0,0,0,0,0,0,0,0,0,0,0,0,0,0,0,0,0,0,0,0,0,0,0,0,0,0,0,0,0,0,0,0,0,0,0,0,0,0,0,0,0,0],"id":26,"left_children":[1,3,5,7,9,11,13,15,17,19,21,23,25,-1,-1,27,29,31,33,35,37,39,41,-1,43,45,47,-1,-1,-1,-1,-1,-1,-1,-1,-1,-1,-1,-1,-1,-1,-1,-1,-1,-1,-1,-1,-1,-1],"loss_changes":[1.9702958E11,4.671596E10,2.9182788E10,9.260364E9,7.238278E9,6.6825503E9,7.6830065E9,1.9009167E9,1.1332495E9,1.00812064E9,1.19343E9,3.114451E9,2.9725164E9,0E0,0E0,7.3206784E8,1.6118784E8,9.115653E8,4.496978E8,4.3017088E8,4.3081875E8,1.3779589E9,2.297682E8,0E0,5.9026125E8,2.8682854E9,6.1726454E9,0E0,0E0,0E0,0E0,0E0,0E0,0E0,0E0,0E0,0E0,0E0,0E0,0E0,0E0,0E0,0E0,0E0,0E0,0E0,0E0,0E0,0E0],"parents":[2147483647,0,0,1,1,2,2,3,3,4,4,5,5,6,6,7,7,8,8,9,9,10,10,11,11,12,12,15,15,16,16,17,17,18,18,19,19,20,20,21,21,22,22,24,24,25,25,26,26],"right_children":[2,4,6,8,10,12,14,16,18,20,22,24,26,-1,-1,28,30,32,34,36,38,40,42,-1,44,46,48,-1,-1,-1,-1,-1,-1,-1,-1,-1,-1,-1,-1,-1,-1,-1,-1,-1,-1,-1,-1,-1,-1],"split_conditions":[1.1929696E5,7.308316E4,2.2559273E5,4.128842E4,8.167515E4,1.6430044E5,2.47E5,5.6101E4,3.584E4,2.939E4,1.2282528E5,1.998E3,1E0,2.2781245E3,4.4139473E3,1.893E3,2.902449E4,6.664774E4,2.008E3,1.996E3,5.1822E4,9.49E2,1E1,2.8119468E3,1E0,1.8592967E5,1.3684984E5,5.14377E2,-5.0992123E2,-8.181763E2,-6.6249176E2,-2.2587979E2,2.417804E2,-6.992695E2,-3.5552386E2,8.063069E2,6.63543E1,-7.589257E1,-3.4660025E2,1.048464E3,2.6451282E2,5.8935864E2,3.570616E2,7.771369E2,2.1272305E2,9.143232E2,1.5689573E3,5.0491426E3,1.5860916E3],"split_indices":[3,5,3,3,3,5,2,1,1,1,5,0,46,0,0,1,5,3,0,0,1,1,10,0,77,5,3,0,0,0,0,0,0,0,0,0,0,0,0,0,0,0,0,0,0,0,0,0,0],"split_type":[0,0,0,0,0,0,0,0,0,0,0,0,0,0,0,0,0,0,0,0,0,0,0,0,0,0,0,0,0,0,0,0,0,0,0,0,0,0,0,0,0,0,0,0,0,0,0,0,0],"sum_hessian":[1.552E3,1.356E3,1.96E2,8.85E2,4.71E2,1.66E2,3E1,4.48E2,4.37E2,2.43E2,2.28E2,6.7E1,9.9E1,2.3E1,7E0,2.88E2,1.6E2,3.18E2,1.19E2,1.56E2,8.7E1,1.42E2,8.6E1,1E0,6.6E1,8.8E1,1.1E1,1E0,2.87E2,6.1E1,9.9E1,3.08E2,1E1,1.1E1,1.08E2,1E0,1.55E2,6.9E1,1.8E1,5E0,1.37E2,6.6E1,2E1,6E1,6E0,3.2E1,5.6E1,1E0,1E1],"tree_param":{"num_deleted":"0","num_feature":"111","num_nodes":"49","size_leaf_vector":"1"}},{"base_weights":[3.9584137E2,-4.688839E3,2.365149E4,-8.565385E3,1.7923115E3,1.668025E4,4.555013E4,-1.1261637E4,-5.6836245E3,-8.35689E2,6.0128247E3,1.347065E4,2.3227969E4,4.0256945E4,4.296273E3,-1.3894846E4,-1.0068786E4,-5.8798643E3,3.386192E3,-2.107841E3,8.31285E2,4.393351E3,8.1239526E3,2.741648E3,1.281626E4,2.7692014E4,1.978096E4,-3.8170311E0,4.09194E4,-9.4687744E2,-6.580063E2,-5.0738437E2,3.2228207E2,-3.6886508E2,-2.3902312E2,-1.6952126E2,2.9033646E2,-1.2392952E2,1.5055632E2,1.2672831E2,-2.7836283E1,1.8298355E2,7.228241E2,4.2202023E2,-1.4058714E2,6.631649E2,2.682754E2,1.4197078E3,2.1835258E2,7.626701E2,1.170469E3,2.0758748E3,1.2583734E2],"categories":[],"categories_nodes":[],"categories_segments":[],"categories_sizes":[],"default_left":[0,0,0,0,0,0,0,0,0,0,0,0,0,0,0,0,0,0,0,0,0,0,0,0,0,0,0,0,0,0,0,0,0,0,0,0,0,0,0,0,0,0,0,0,0,0,0,0,0,0,0,0,0],"id":27,"left_children":[1,3,5,7,9,11,13,15,17,19,21,23,25,27,-1,29,31,33,35,37,39,41,43,-1,45,47,49,-1,51,-1,-1,-1,-1,-1,-1,-1,-1,-1,-1,-1,-1,-1,-1,-1,-1,-1,-1,-1,-1,-1,-1,-1,-1],"loss_changes":[1.871785E11,3.2652046E10,4.2595828E10,6.252966E9,5.4065915E9,4.2474783E9,1.1073438E10,1.1761828E9,7.2295526E8,6.400663E8,6.036449E8,3.30317E9,5.2935475E8,1.6597074E9,0E0,2.2501376E8,4.4588646E8,6.0184474E8,1.67315E8,3.3199622E8,3.1111782E8,7.44469E8,3.005824E8,0E0,4.1845555E8,3.3456538E8,3.4932224E8,0E0,1.2965724E9,0E0,0E0,0E0,0E0,0E0,0E0,0E0,0E0,0E0,0E0,0E0,0E0,0E0,0E0,0E0,0E0,0E0,0E0,0E0,0E0,0E0,0E0,0E0,0E0],"parents":[2147483647,0,0,1,1,2,2,3,3,4,4,5,5,6,6,7,7,8,8,9,9,10,10,11,11,12,12,13,13,15,15,16,16,17,17,18,18,19,19,20,20,21,21,22,22,24,24,25,25,26,26,28,28],"right_children":[2,4,6,8,10,12,14,16,18,20,22,24,26,28,-1,30,32,34,36,38,40,42,44,-1,46,48,50,-1,52,-1,-1,-1,-1,-1,-1,-1,-1,-1,-1,-1,-1,-1,-1,-1,-1,-1,-1,-1,-1,-1,-1,-1,-1],"split_conditions":[1.27475E5,5.888386E4,2.2112733E5,3.998754E4,9.400193E4,1.4479939E5,3.24969E5,2.743662E4,7.924232E4,6.876629E4,9.48452E4,1.998E3,6E0,2.012E3,4.296273E3,1.528537E4,6.053644E4,4.670474E4,7.39E4,8.334023E4,2.022E3,1E0,1E0,2.741648E3,1E0,1E0,1.8592967E5,-3.8170311E0,1E0,-9.4687744E2,-6.580063E2,-5.0738437E2,3.2228207E2,-3.6886508E2,-2.3902312E2,-1.6952126E2,2.9033646E2,-1.2392952E2,1.5055632E2,1.2672831E2,-2.7836283E1,1.8298355E2,7.228241E2,4.2202023E2,-1.4058714E2,6.631649E2,2.682754E2,1.4197078E3,2.1835258E2,7.626701E2,1.170469E3,2.0758748E3,1.2583734E2],"split_indices":[4,3,4,3,4,3,4,3,4,3,3,0,10,0,0,3,4,3,2,4,9,12,99,0,77,98,4,0,12,0,0,0,0,0,0,0,0,0,0,0,0,0,0,0,0,0,0,0,0,0,0,0,0],"split_type":[0,0,0,0,0,0,0,0,0,0,0,0,0,0,0,0,0,0,0,0,0,0,0,0,0,0,0,0,0,0,0,0,0,0,0,0,0,0,0,0,0,0,0,0,0,0,0,0,0,0,0,0,0],"sum_hessian":[1.581E3,1.298E3,2.83E2,8.12E2,4.86E2,2.16E2,6.7E1,4.18E2,3.94E2,3E2,1.86E2,1.47E2,6.9E1,6.1E1,6E0,1.27E2,2.91E2,3.86E2,8E0,1.7E2,1.3E2,1.07E2,7.9E1,1E0,1.46E2,2.7E1,4.2E1,1E0,6E1,1.3E1,1.14E2,2.9E2,1E0,1.61E2,2.25E2,2E0,6E0,1.59E2,1.1E1,5.8E1,7.2E1,1.01E2,6E0,7.7E1,2E0,1.37E2,9E0,2.6E1,1E0,2.1E1,2.1E1,5.9E1,1E0],"tree_param":{"num_deleted":"0","num_feature":"111","num_nodes":"53","size_leaf_vector":"1"}},{"base_weights":[3.5767108E2,-3.782895E3,2.7162756E4,-7.715025E3,3.5507883E3,2.2438154E4,5.7577508E4,-1.0689981E4,-5.0432427E3,9.3034924E2,8.1424707E3,1.6842537E4,2.9641814E4,2.3366301E3,3.942409E3,-8.334909E3,-1.2043581E4,-3.881713E3,-7.6861904E3,1.4444371E3,-6.9652163E3,8.345294E3,-6.787167E2,1.5087041E4,4.3878848E4,1.463757E4,3.0446928E4,-1.6343251E2,-4.274061E2,-7.759581E2,-5.672193E2,-2.1984326E2,1.09821415E1,-3.537048E2,-5.7889215E2,7.146945E2,5.8442696E1,-8.95196E1,-3.911795E2,4.2448703E2,-1.3590094E2,2.673107E3,7.0888806E2,6.7019604E2,4.906335E3,8.581335E2,5.029926E1,1.5371648E3,2.128936E2],"categories":[],"categories_nodes":[],"categories_segments":[],"categories_sizes":[],"default_left":[0,0,0,0,0,0,0,0,0,0,0,0,0,0,0,0,0,0,0,0,0,0,0,0,0,0,0,0,0,0,0,0,0,0,0,0,0,0,0,0,0,0,0,0,0,0,0,0,0],"id":28,"left_children":[1,3,5,7,9,11,13,15,17,19,21,23,25,-1,-1,27,29,31,33,35,37,39,-1,41,43,45,47,-1,-1,-1,-1,-1,-1,-1,-1,-1,-1,-1,-1,-1,-1,-1,-1,-1,-1,-1,-1,-1,-1],"loss_changes":[1.76685E11,3.9793615E10,2.9315645E10,7.083778E9,5.791956E9,6.9982126E9,2.7741962E9,1.2512584E9,1.4283469E9,1.2602368E9,8.840991E8,4.4164383E9,5.2074086E8,0E0,0E0,1.4272717E8,4.727808E8,7.0242406E8,2.611118E8,1.01020864E9,7.038848E7,3.011369E8,0E0,2.8011807E9,8.603901E9,1.8925952E8,4.5120717E8,0E0,0E0,0E0,0E0,0E0,0E0,0E0,0E0,0E0,0E0,0E0,0E0,0E0,0E0,0E0,0E0,0E0,0E0,0E0,0E0,0E0,0E0],"parents":[2147483647,0,0,1,1,2,2,3,3,4,4,5,5,6,6,7,7,8,8,9,9,10,10,11,11,12,12,15,15,16,16,17,17,18,18,19,19,20,20,21,21,23,23,24,24,25,25,26,26],"right_children":[2,4,6,8,10,12,14,16,18,20,22,24,26,-1,-1,28,30,32,34,36,38,40,-1,42,44,46,48,-1,-1,-1,-1,-1,-1,-1,-1,-1,-1,-1,-1,-1,-1,-1,-1,-1,-1,-1,-1,-1,-1],"split_conditions":[1.401665E5,7.402655E4,2.7373297E5,4.708126E4,1.06563E5,1.8592967E5,2.47E5,4.0821E4,3.584E4,5.1375E4,5.9459E4,2.025E3,2.02E3,2.3366301E3,3.942409E3,9.12E3,2.384017E4,1.0563E5,6.8298E4,9.49E2,7.478563E4,1E0,-6.787167E2,1.998E3,1.618E5,5.655E3,1E0,-1.6343251E2,-4.274061E2,-7.759581E2,-5.672193E2,-2.1984326E2,1.09821415E1,-3.537048E2,-5.7889215E2,7.146945E2,5.8442696E1,-8.95196E1,-3.911795E2,4.2448703E2,-1.3590094E2,2.673107E3,7.0888806E2,6.7019604E2,4.906335E3,8.581335E2,5.029926E1,1.5371648E3,2.128936E2],"split_indices":[4,4,4,4,4,4,2,1,1,1,1,0,9,0,0,1,4,2,1,1,4,99,0,0,2,1,98,0,0,0,0,0,0,0,0,0,0,0,0,0,0,0,0,0,0,0,0,0,0],"split_type":[0,0,0,0,0,0,0,0,0,0,0,0,0,0,0,0,0,0,0,0,0,0,0,0,0,0,0,0,0,0,0,0,0,0,0,0,0,0,0,0,0,0,0,0,0,0,0,0,0],"sum_hessian":[1.59E3,1.378E3,2.12E2,8.97E2,4.81E2,1.85E2,2.7E1,4.23E2,4.74E2,3.07E2,1.74E2,1.06E2,7.9E1,2E1,7E0,1.57E2,2.66E2,3.31E2,1.43E2,2.89E2,1.8E1,1.73E2,1E0,1.01E2,5E0,5E0,7.4E1,7E0,1.5E2,4.1E1,2.25E2,2.94E2,3.7E1,1.26E2,1.7E1,5E0,2.84E2,3E0,1.5E1,1.71E2,2E0,1E0,1E2,4E0,1E0,4E0,1E0,7.3E1,1E0],"tree_param":{"num_deleted":"0","num_feature":"111","num_nodes":"49","size_leaf_vector":"1"}},{"base_weights":[1.8309065E2,-3.5908254E3,2.6299182E4,-7.488333E3,3.3478374E3,2.0814152E4,4.596942E4,-1.00395625E4,-4.641962E3,4.7402444E2,7.8931284E3,1.2627414E4,2.3551686E4,3.856257E4,7.3554055E4,-8.48988E3,-1.2480497E4,-5.608336E3,-2.7306648E3,2.7430845E3,-1.1119346E3,8.071176E3,-6.617487E2,1.3106046E4,2.0364797E3,2.0279727E4,3.382829E4,3.1938678E4,2.2423132E3,3.9098625E3,1.0262897E3,-4.2977173E2,2.2366455E2,-5.888129E2,-7.941462E2,-2.2712491E2,-3.456298E2,-1.4439272E2,4.9368268E2,-4.425126E2,1.5474712E2,-1.9659184E1,-2.8049796E2,3.4210117E2,5.0434372E2,7.4127924E2,4.426821E2,1.3390863E2,1.8824844E1,1.1046804E3,4.7477808E2,3.4327935E3,1.2393138E3,1.6853785E3,7.9969836E2],"categories":[],"categories_nodes":[],"categories_segments":[],"categories_sizes":[],"default_left":[0,0,0,0,0,0,0,0,0,0,0,0,0,0,0,0,0,0,0,0,0,0,0,0,0,0,0,0,0,0,0,0,0,0,0,0,0,0,0,0,0,0,0,0,0,0,0,0,0,0,0,0,0,0,0],"id":29,"left_children":[1,3,5,7,9,11,13,15,17,19,21,23,25,27,29,31,33,35,37,39,41,43,-1,45,47,49,51,53,-1,-1,-1,-1,-1,-1,-1,-1,-1,-1,-1,-1,-1,-1,-1,-1,-1,-1,-1,-1,-1,-1,-1,-1,-1,-1,-1],"loss_changes":[1.5690331E11,3.7642568E10,2.0729446E10,6.423605E9,6.5404785E9,3.2660193E9,5.9491123E9,1.6681165E9,7.659786E8,1.1114303E9,8.3661005E8,1.8621338E8,3.2816701E9,6.6072576E7,3.6469146E8,4.352635E8,2.4425677E8,3.5783373E8,3.1381498E8,5.454496E8,5.8619226E8,4.0916173E8,0E0,1.6122368E8,2.18697E6,1.5898337E9,6.8008755E9,5.3172224E7,0E0,0E0,0E0,0E0,0E0,0E0,0E0,0E0,0E0,0E0,0E0,0E0,0E0,0E0,0E0,0E0,0E0,0E0,0E0,0E0,0E0,0E0,0E0,0E0,0E0,0E0,0E0],"parents":[2147483647,0,0,1,1,2,2,3,3,4,4,5,5,6,6,7,7,8,8,9,9,10,10,11,11,12,12,13,13,14,14,15,15,16,16,17,17,18,18,19,19,20,20,21,21,23,23,24,24,25,25,26,26,27,27],"right_children":[2,4,6,8,10,12,14,16,18,20,22,24,26,28,30,32,34,36,38,40,42,44,-1,46,48,50,52,54,-1,-1,-1,-1,-1,-1,-1,-1,-1,-1,-1,-1,-1,-1,-1,-1,-1,-1,-1,-1,-1,-1,-1,-1,-1,-1,-1],"split_conditions":[1.1929696E5,6.132267E4,2.1234178E5,4.151001E4,8.995E4,1.477399E5,3.24969E5,5.456E4,6.51945E4,1.676E4,5.9459E4,2.9951E4,1E0,2.7373297E5,1E0,6.053644E4,9.3973E4,3.1148E4,2.026E3,2.77E2,4.6764E4,1.27475E5,-6.617487E2,1E1,1E0,1.3854E4,1.3684984E5,1.2E1,2.2423132E3,3.9098625E3,1.0262897E3,-4.2977173E2,2.2366455E2,-5.888129E2,-7.941462E2,-2.2712491E2,-3.456298E2,-1.4439272E2,4.9368268E2,-4.425126E2,1.5474712E2,-1.9659184E1,-2.8049796E2,3.4210117E2,5.0434372E2,7.4127924E2,4.426821E2,1.3390863E2,1.8824844E1,1.1046804E3,4.7477808E2,3.4327935E3,1.2393138E3,1.6853785E3,7.9969836E2],"split_indices":[3,3,3,3,3,5,5,1,5,1,1,1,33,5,14,5,1,1,0,1,1,5,0,10,7,1,3,10,0,0,0,0,0,0,0,0,0,0,0,0,0,0,0,0,0,0,0,0,0,0,0,0,0,0,0],"split_type":[0,0,0,0,0,0,0,0,0,0,0,0,0,0,0,0,0,0,0,0,0,0,0,0,0,0,0,0,0,0,0,0,0,0,0,0,0,0,0,0,0,0,0,0,0,0,0,0,0,0,0,0,0,0,0],"sum_hessian":[1.59E3,1.39E3,2E2,8.9E2,5E2,1.58E2,4.2E1,4.68E2,4.22E2,3.07E2,1.93E2,4.1E1,1.17E2,3.5E1,7E0,2.89E2,1.79E2,2.79E2,1.43E2,1.26E2,1.81E2,1.92E2,1E0,3.9E1,2E0,9.1E1,2.6E1,2E1,1.5E1,6E0,1E0,2.87E2,2E0,1.52E2,2.7E1,1.56E2,1.23E2,1.42E2,1E0,3E0,1.23E2,1.57E2,2.4E1,1.22E2,7E1,2.6E1,1.3E1,1E0,1E0,7.7E1,1.4E1,4E0,2.2E1,1.7E1,3E0],"tree_param":{"num_deleted":"0","num_feature":"111","num_nodes":"55","size_leaf_vector":"1"}},{"base_weights":[2.237086E2,-3.8734534E3,2.187925E4,-7.2858076E3,1.819275E3,1.6702115E4,4.3534105E4,-1.0432778E4,-5.2823677E3,-5.5128015E2,5.348366E3,1.17308125E4,2.2680664E4,3.6881703E4,3.6092942E3,-9.46889E3,-1.2680242E4,-4.65408E3,-8.817249E3,3.2035193E3,-1.1580385E3,4.881792E3,1.7581729E4,2.5204592E3,1.0942426E4,4.3336633E4,2.046974E4,2.6622496E4,1.9877997E3,-3.5702036E2,-5.0299014E2,-6.6325824E2,-4.8365826E2,-2.4964778E2,-1.8219328E1,-5.421583E2,-3.836843E2,1.1074926E2,6.020412E2,-3.3870388E1,-2.4732874E2,1.4557039E2,3.6726425E2,2.0625166E3,3.3809448E2,5.0537485E2,8.8828094E2,4.697857E3,1.1341337E3,5.353814E2,1.1752812E3,1.471634E3,4.1905093E2],"categories":[],"categories_nodes":[],"categories_segments":[],"categories_sizes":[],"default_left":[0,0,0,0,0,0,0,0,0,0,0,0,0,0,0,0,0,0,0,0,0,0,0,0,0,0,0,0,0,0,0,0,0,0,0,0,0,0,0,0,0,0,0,0,0,0,0,0,0,0,0,0,0],"id":30,"left_children":[1,3,5,7,9,11,13,15,17,19,21,23,25,27,-1,29,31,33,35,37,39,41,43,-1,45,47,49,51,-1,-1,-1,-1,-1,-1,-1,-1,-1,-1,-1,-1,-1,-1,-1,-1,-1,-1,-1,-1,-1,-1,-1,-1,-1],"loss_changes":[1.4053843E11,2.5888162E10,2.7524604E10,5.196759E9,4.1859016E9,5.826777E9,6.4865976E9,5.7964954E8,1.0938532E9,6.8718637E8,1.0614303E9,2.9246536E9,3.31443E9,1.5059354E8,0E0,2.446295E8,3.70176E7,6.3198106E8,9.286502E7,3.4023952E8,4.682583E8,9.251492E8,1.5136986E9,0E0,4.641792E8,6.2328975E9,2.2674227E9,3.6846387E8,0E0,0E0,0E0,0E0,0E0,0E0,0E0,0E0,0E0,0E0,0E0,0E0,0E0,0E0,0E0,0E0,0E0,0E0,0E0,0E0,0E0,0E0,0E0,0E0,0E0],"parents":[2147483647,0,0,1,1,2,2,3,3,4,4,5,5,6,6,7,7,8,8,9,9,10,10,11,11,12,12,13,13,15,15,16,16,17,17,18,18,19,19,20,20,21,21,22,22,24,24,25,25,26,26,27,27],"right_children":[2,4,6,8,10,12,14,16,18,20,22,24,26,28,-1,30,32,34,36,38,40,42,44,-1,46,48,50,52,-1,-1,-1,-1,-1,-1,-1,-1,-1,-1,-1,-1,-1,-1,-1,-1,-1,-1,-1,-1,-1,-1,-1,-1,-1],"split_conditions":[1.1132531E5,6.981771E4,2.1234178E5,4.259003E4,8.167515E4,1.6430044E5,2.47E5,6.6177E4,5.0107E4,7.647E3,1E0,1.998E3,4.32E2,2.5139586E5,3.6092942E3,2.9951E4,3.449826E4,1.0563E5,2.013E3,7.188E3,4.7427E4,1.1448629E5,6.58E2,2.5204592E3,1.3684984E5,1.3684984E5,1.77308E5,1.1E1,1.9877997E3,-3.5702036E2,-5.0299014E2,-6.6325824E2,-4.8365826E2,-2.4964778E2,-1.8219328E1,-5.421583E2,-3.836843E2,1.1074926E2,6.020412E2,-3.3870388E1,-2.4732874E2,1.4557039E2,3.6726425E2,2.0625166E3,3.3809448E2,5.0537485E2,8.8828094E2,4.697857E3,1.1341337E3,5.353814E2,1.1752812E3,1.471634E3,4.1905093E2],"split_indices":[3,4,3,4,3,4,2,1,1,1,12,0,1,4,0,1,4,2,0,1,1,4,1,0,3,3,4,10,0,0,0,0,0,0,0,0,0,0,0,0,0,0,0,0,0,0,0,0,0,0,0,0,0],"split_type":[0,0,0,0,0,0,0,0,0,0,0,0,0,0,0,0,0,0,0,0,0,0,0,0,0,0,0,0,0,0,0,0,0,0,0,0,0,0,0,0,0,0,0,0,0,0,0,0,0,0,0,0,0],"sum_hessian":[1.582E3,1.331E3,2.51E2,8.32E2,4.99E2,2.04E2,4.7E1,3.22E2,5.1E2,2.99E2,2E2,1.13E2,9.1E1,4E1,7E0,2.29E2,9.3E1,4.35E2,7.5E1,4.1E1,2.58E2,1.94E2,6E0,1E0,1.12E2,7E0,8.4E1,1.1E1,2.9E1,4.9E1,1.8E2,7.5E1,1.8E1,4.03E2,3.2E1,2.4E1,5.1E1,3.8E1,3E0,2.3E2,2.8E1,1.09E2,8.5E1,1E0,5E0,1.02E2,1E1,1E0,6E0,2.1E1,6.3E1,9E0,2E0],"tree_param":{"num_deleted":"0","num_feature":"111","num_nodes":"53","size_leaf_vector":"1"}},{"base_weights":[1.6302687E2,-2.6781995E3,2.87331E4,-5.950035E3,5.456381E3,2.3673895E4,5.058898E4,-8.756351E3,-3.2024353E3,2.2053997E3,8.776232E3,2.1550824E4,3.9164016E4,1.980053E3,3.5180833E3,-1.0974207E4,-7.43705E3,-4.615707E3,-2.0479393E3,1.7974379E3,1.228174E4,9.277009E3,-8.534852E2,1.5082702E4,2.5559861E4,4.58041E3,2.715964E4,-7.005324E2,-5.1756854E2,-3.782867E2,-7.282665E1,-2.354073E2,4.2075122E2,-4.630633E1,-1.9142157E2,-3.9617737E2,1.0414679E2,1.27254814E2,2.0109537E3,3.5166486E2,5.257489E2,6.877267E1,-3.6279196E2,5.2810144E2,9.8766846E2,1.3176967E3,3.1453802E1,3.5945026E2,1.41608E3],"categories":[],"categories_nodes":[],"categories_segments":[],"categories_sizes":[],"default_left":[0,0,0,0,0,0,0,0,0,0,0,0,0,0,0,0,0,0,0,0,0,0,0,0,0,0,0,0,0,0,0,0,0,0,0,0,0,0,0,0,0,0,0,0,0,0,0,0,0],"id":31,"left_children":[1,3,5,7,9,11,13,15,17,19,21,23,25,-1,-1,27,29,31,33,35,37,39,41,43,45,-1,47,-1,-1,-1,-1,-1,-1,-1,-1,-1,-1,-1,-1,-1,-1,-1,-1,-1,-1,-1,-1,-1,-1],"loss_changes":[1.2833194E11,3.830486E10,1.4614348E10,7.8830674E9,4.438058E9,3.0365942E9,2.8623708E9,1.4018724E9,8.3898675E8,8.4118285E8,9.916764E8,2.3631626E9,5.696219E9,0E0,0E0,2.0862566E8,2.3601971E8,3.2027904E8,5.716991E8,5.798936E8,2.0737615E9,4.6490624E8,1.6695565E8,6.9928755E8,1.2504146E9,0E0,7.485235E7,0E0,0E0,0E0,0E0,0E0,0E0,0E0,0E0,0E0,0E0,0E0,0E0,0E0,0E0,0E0,0E0,0E0,0E0,0E0,0E0,0E0,0E0],"parents":[2147483647,0,0,1,1,2,2,3,3,4,4,5,5,6,6,7,7,8,8,9,9,10,10,11,11,12,12,15,15,16,16,17,17,18,18,19,19,20,20,21,21,22,22,23,23,24,24,26,26],"right_children":[2,4,6,8,10,12,14,16,18,20,22,24,26,-1,-1,28,30,32,34,36,38,40,42,44,46,-1,48,-1,-1,-1,-1,-1,-1,-1,-1,-1,-1,-1,-1,-1,-1,-1,-1,-1,-1,-1,-1,-1,-1],"split_conditions":[1.58235E5,7.068112E4,2.3397877E5,4.41457E4,9.48452E4,1E0,2.47E5,3.147305E4,5.493909E4,1E0,8.9451E3,1.8592967E5,1.3684984E5,1.980053E3,3.5180833E3,1.844104E4,1E0,1.759E5,2.023E3,-1.041622E4,9.103E4,1.0749922E5,1E0,3.7843E2,1E0,4.58041E3,1.5265419E5,-7.005324E2,-5.1756854E2,-3.782867E2,-7.282665E1,-2.354073E2,4.2075122E2,-4.630633E1,-1.9142157E2,-3.9617737E2,1.0414679E2,1.27254814E2,2.0109537E3,3.5166486E2,5.257489E2,6.877267E1,-3.6279196E2,5.2810144E2,9.8766846E2,1.3176967E3,3.1453802E1,3.5945026E2,1.41608E3],"split_indices":[5,3,3,3,3,46,2,3,3,12,6,5,3,0,0,3,75,2,9,6,2,3,8,6,98,0,3,0,0,0,0,0,0,0,0,0,0,0,0,0,0,0,0,0,0,0,0,0,0],"split_type":[0,0,0,0,0,0,0,0,0,0,0,0,0,0,0,0,0,0,0,0,0,0,0,0,0,0,0,0,0,0,0,0,0,0,0,0,0,0,0,0,0,0,0,0,0,0,0,0,0],"sum_hessian":[1.579E3,1.437E3,1.42E2,1.025E3,4.12E2,1.17E2,2.5E1,5.06E2,5.19E2,2.09E2,2.03E2,1.05E2,1.2E1,1.8E1,7E0,1.86E2,3.2E2,2.32E2,2.87E2,2.02E2,7E0,1.93E2,1E1,4.2E1,6.3E1,1E0,1.1E1,2.8E1,1.58E2,3.13E2,7E0,2.31E2,1E0,1.77E2,1.1E2,5E0,1.97E2,6E0,1E0,7.1E1,1.22E2,8E0,2E0,2.3E1,1.9E1,6.1E1,2E0,1E0,1E1],"tree_param":{"num_deleted":"0","num_feature":"111","num_nodes":"49","size_leaf_vector":"1"}},{"base_weights":[2.351152E2,-3.7943005E3,1.9189568E4,-7.229929E3,6.826863E2,1.549173E4,4.5054414E4,-9.872339E3,-5.527027E3,-1.0211187E3,4.39381E3,1.0172522E4,2.1451404E4,3.207619E4,5.8461293E4,-8.688643E3,-1.1526155E4,-4.840307E3,-8.0611743E3,-1.1214272E2,-3.3207195E3,1.6419834E4,3.89338E3,2.4557288E3,9.510442E3,1.9183959E4,3.969288E4,-1.0417523E2,1.6991865E3,1.7484094E3,3.298052E3,3.8807842E1,-4.4009473E2,-6.898843E2,-5.391572E2,5.370942E2,-2.4562141E2,-3.4620383E2,-5.184943E2,-4.1404278E1,1.2496957E2,-1.3368236E2,-3.538243E2,1.9606799E3,3.0426285E2,2.1258751E2,-4.642441E2,4.9110532E2,-1.4981213E2,7.0921436E2,1.1463168E3,4.4659E3,1.3530839E3],"categories":[],"categories_nodes":[],"categories_segments":[],"categories_sizes":[],"default_left":[0,0,0,0,0,0,0,0,0,0,0,0,0,0,0,0,0,0,0,0,0,0,0,0,0,0,0,0,0,0,0,0,0,0,0,0,0,0,0,0,0,0,0,0,0,0,0,0,0,0,0,0,0],"id":32,"left_children":[1,3,5,7,9,11,13,15,17,19,21,23,25,27,29,31,33,35,37,39,41,43,45,-1,47,49,51,-1,-1,-1,-1,-1,-1,-1,-1,-1,-1,-1,-1,-1,-1,-1,-1,-1,-1,-1,-1,-1,-1,-1,-1,-1,-1],"loss_changes":[1.2372453E11,2.0554306E10,2.646492E10,3.3472553E9,3.6781678E9,7.706968E9,4.2146857E9,4.773499E8,7.649741E8,8.336498E8,1.0373965E9,2.9877842E9,4.077822E9,1.3740319E9,5.125284E8,1.9548877E8,5.374669E7,4.640804E8,1.828439E8,5.3867603E8,2.556974E8,1.410318E9,8.7539354E8,0E0,5.4785024E8,1.6581345E9,5.1047916E9,0E0,0E0,0E0,0E0,0E0,0E0,0E0,0E0,0E0,0E0,0E0,0E0,0E0,0E0,0E0,0E0,0E0,0E0,0E0,0E0,0E0,0E0,0E0,0E0,0E0,0E0],"parents":[2147483647,0,0,1,1,2,2,3,3,4,4,5,5,6,6,7,7,8,8,9,9,10,10,11,11,12,12,13,13,14,14,15,15,16,16,17,17,18,18,19,19,20,20,